1066 100
[gob] -0.5407567 0.1275444 -0.08781982 1.0370265 -0.9651525 0.7801552 0.57112193 -0.5458678 0.5816399 0.24179268 0.50757086 -0.58790344 -0.58260894 -0.39892745 0.7214922 -0.95697576 -0.46792918 -0.59196985 0.32816058 -0.87415314 -0.5358916 -0.70383096 -0.5742929 0.77489334 -0.97703207 -0.16124257 0.1774741 0.31172627 0.1711661 -0.12598288 -0.8592691 0.10843434 -0.0018534069 -0.62588555 0.009198266 1.0032638 -0.6396932 0.88533235 0.82918364 -0.38049522 1.0 -0.8814959 1.0 -0.029008292 0.26590592 0.75623906 0.39508602 -0.8699387 -1.019043 -0.22561115 -0.5088783 -0.07784277 0.44731128 0.5996971 -0.694054 0.8789156 -1.0001526 -0.36043307 0.480619 0.14498492 -0.13249223 0.5478646 -0.50528336 -0.8139901 0.04828535 0.94951767 0.126091 -0.5 -1.0006944 -0.89822006 -0.058804058 -1.0080104 -0.8072594 0.87521094 0.605491 0.19314869 0.59761095 -0.588831 -0.6357017 -0.039116777 -0.031138308 0.2661428 -0.73820597 -1.0037689 -0.6258643 0.4963579 -0.15451673 0.4909103 -0.982827 0.39098024 -0.64509857 -0.01575736 0.18448313 -0.12037262 -0.11562379 0.06387524 0.8102209 -0.9087606 -0.71789086 -0.40856886
[es] -0.9594732 -0.36010504 0.71833235 0.97062945 -0.86688745 0.2474844 0.8877286 0.32869825 0.28834224 1.0084821 -0.6809113 0.022247205 0.15788212 0.47981024 -0.7009772 -0.9324785 -0.5514113 -0.8622308 0.50017774 -0.20895913 1.0909978 0.600274 1.0 -1.0887715 0.05519709 0.49513912 0.97192913 0.11423612 -0.47621703 0.025845999 -0.44397923 -0.3598638 0.048094455 -0.68502665 0.8149311 0.5094006 0.8271824 0.3042216 -0.5201566 -0.6389396 0.96162444 0.7134919 0.11804806 0.8982197 -0.1494729 0.3791338 -0.50024796 -0.69483125 0.2138114 1.0022736 -1.072864 -0.43568358 -0.9027272 0.12551975 -0.08614335 0.5249752 -0.18964748 0.35969734 0.72639585 -0.62482613 -0.71433467 -1.0023575 -0.9571611 -0.19419391 0.27172428 -0.8683702 1.0642743 0.3975764 0.26226035 0.21123382 1.06158 -0.5579859 0.7134552 -0.8330987 -0.49521837 0.30568716 -0.7316818 0.06331776 -0.208307 0.6251488 -0.99295956 -0.06275082 -0.5880356 0.9245003 0.015955076 -0.51430947 -0.60584533 1.0323683 0.47707945 -0.64156604 0.13606727 -0.020612726 -0.8361306 0.09436959 0.62880236 0.1531267 0.7608961 0.12953702 -0.30184987 -0.2244999
[free] 0.0045241322 -0.003271814 -0.0016049808 -0.0004857583 -0.0014673679 0.00022469275 -0.001443007 0.0015165103 0.0017348947 -0.0014716547 -0.00041637756 -0.0019030697 0.00059191417 -0.0031961203 0.0011194102 0.0041397307 0.00042643258 0.004249841 0.0006646402 0.0038475199 -0.0027633153 -0.000256198 -0.0037654894 0.0042231483 0.0034971647 0.0011196015 -0.002401135 0.0006007347 0.004203 0.0043108845 0.000324368 -0.004200625 -0.0032984286 0.0042854967 -0.0046254336 0.0039894935 -0.001613745 -0.0026884312 0.0004763091 0.0033132015 0.00084355427 -0.0011374007 0.0021990668 0.004584633 0.0010549002 -0.0043434226 0.0029558912 -0.00040080678 -0.0040280563 -0.004517017 -0.0033037285 0.0008958364 -0.00015226705 -0.002868809 -0.00076509546 -0.0040153516 -0.001859064 0.0038768724 -0.0027604133 0.0018266574 -0.0021919555 -0.0019637418 -0.0027666378 0.003644701 -0.0021452843 -0.0035691028 -0.002303735 -0.0027081238 -0.004272061 0.004723523 0.0001896401 0.0026085842 -0.00085768104 -0.0040345904 -0.0006952048 -0.0017956514 0.002948247 0.004524865 0.0032762121 0.0021520918 -0.00016572839 -0.002371158 -0.00023862952 0.002116581 0.002775968 0.0017810655 -0.00014236709 0.0033832956 -0.0042924453 0.0014900565 0.0006289291 0.004397779 -0.0025722224 0.0023598666 0.00018422259 0.0012427149 -0.002941594 0.0021440755 0.0034512067 0.0013839356
[design] 0.0033857636 0.0036924295 -0.0021592455 0.0006465465 -0.0023381428 0.0019582855 -0.0019363689 0.0003811079 -0.0036955564 0.000939623 -5.8514066e-05 0.0048554437 -0.0018060571 -0.0026258475 0.0032917857 -0.00095589645 0.00011565257 0.004951643 0.004661832 0.0026518172 0.0041019227 0.004608865 0.0036194762 0.000112737995 0.003978244 -0.0032604528 0.0035734102 -0.003991832 0.0033643572 -0.003931324 -0.0017996705 -0.004484069 -0.00070921285 0.0036697723 0.0006956309 -0.00017869938 -0.0031987894 0.0036615254 0.001442756 0.0033116862 0.0033881664 0.004650104 0.0021883054 -0.00081885746 0.0022663283 0.0027642394 -0.000636152 -0.004793044 0.0015690303 0.004283555 -0.0047226995 0.0005924157 0.0036770413 -0.0010510385 -0.003766328 -0.0005084337 -0.0036270837 0.0036308272 7.16988e-05 -0.0013650511 -0.0020612525 0.0026733084 -0.00064056413 0.0046422062 0.0039880043 0.0032408955 0.0012066062 -0.001988446 -0.0010744222 0.0019837772 -0.004316202 -0.004069359 -0.0035365126 4.089577e-05 -0.001176324 -0.0039142035 0.0030639889 -0.0015324343 0.00191927 0.0019960701 0.00024405913 0.0021640682 0.0034672404 0.00062702876 0.0007843864 0.0012289877 0.0027197008 -0.0025268048 0.0016353074 0.00021679047 0.004386154 -0.00039237086 0.0018240986 0.0007058573 -0.00041555008 -0.0029432082 0.002835242 0.0006116354 1.9574072e-05 0.0022702245
[com] 0.0048550665 -0.0020293694 -0.002317364 -0.0020156514 0.0032924274 0.00013483688 0.0036889175 -0.00058174925 0.0017842893 -0.002902755 0.0024298928 -0.0014401996 -7.4090436e-05 -0.0020958174 0.00131635 -0.0039504375 -0.004940825 0.0025116443 -0.00024902448 -0.00418504 -0.0030760877 -0.0030187492 0.002553367 0.002686088 -0.0033181272 -0.0032661352 -0.003695652 0.0028301934 0.0047322745 0.0026755403 0.004967723 0.0030104453 -0.004346477 -0.0017823153 -0.0010640477 0.0048662014 -0.0014319478 -0.0020882695 0.003499453 -0.0012481909 -0.0028122836 -0.0026997493 -0.00081830565 -0.004647079 0.0042632725 0.002727855 -0.0033771638 0.0047790334 -0.0048657423 -0.0029109346 0.0027418719 -0.0048958194 0.0009797965 0.0005158605 0.0012667645 -0.0047026942 -0.0025483465 0.0016646767 -0.004581614 0.0041683232 0.003919298 -0.004631252 -0.0012509048 -0.0017008365 0.0033748802 -0.0038105468 0.00231524 0.0017350516 0.0020618127 0.0046964902 0.0014194376 0.0012063491 0.0014211596 -0.0034289074 0.0011437256 -0.0022742145 -0.0013650965 0.003066009 0.003441359 0.002975056 -0.0011339753 0.004918471 0.0029759072 0.004618426 -0.0020949775 -0.00241512 -0.0028214061 0.0018113698 0.0022481955 -0.003856881 -0.0013980842 0.0010890467 -0.0011687547 0.00040332787 -0.0017738997 0.0023052008 -0.0033809375 0.004781776 0.004951136 0.004433846
[xn] 0.004447163 0.0015959493 -0.0021140228 0.0042126896 -0.00028597424 0.002226449 0.0027940162 -0.0041605234 0.003544541 0.0008386909 0.004672028 0.00047685904 -0.0015786695 0.0014559841 -0.00112926 -0.0018477994 0.0039581982 0.00053600734 -0.0040178876 0.00034582196 0.0009057885 0.00010116119 -0.0048302803 0.0013791304 -0.0035915999 -0.0010666791 0.00077561755 0.003428394 -0.0026749712 -0.004535398 0.0017580236 -0.0009624134 0.0030698515 -0.0046701236 0.0027749748 -0.0037843636 -0.0044223685 -0.000438442 0.0032707527 -0.0005351021 0.0019495343 0.0002220776 -8.958159e-05 -0.0017733132 -0.0046861055 -0.0009872089 -0.0046962234 0.0044833077 0.004814361 0.0013469411 -0.0003975071 0.0023041107 0.00018325401 -0.002919014 -0.00097395247 -0.0028216736 -0.0013436992 0.00015923753 -0.00216542 0.0022292668 0.004081916 -0.00059020333 -0.0017922765 0.0011647982 0.00079406565 0.0042341547 -0.0039132093 -0.0012335062 0.004316125 0.0019543795 -0.0019112562 0.002286701 0.0040061893 -0.004753939 0.004197629 0.00013916614 0.0044425037 0.0041968925 -0.0029862134 -0.0002178629 0.0017860383 0.004448072 -0.0011422038 -0.0008660476 -0.0006806706 0.0008949316 -0.002741801 -0.0030420732 -0.0016805178 0.0022050166 0.0031942502 0.0018766392 0.00085593294 -0.0025411386 0.0033353511 0.0010433616 -0.0011156236 0.0030664774 -0.003682599 0.0043143453
[p1ai] -0.0020424097 -0.0011995642 -0.0010553682 -0.00037856214 0.00055992417 0.004080427 0.0019857772 0.0034769913 -0.0012004608 0.004639715 0.0014813081 -0.0034368937 -0.002193123 0.003907251 -0.0023145466 0.0025491673 -0.004182582 -0.0041843066 0.0049632005 0.0046219025 -0.0011775154 0.0021587615 -0.0011048978 -0.0014958156 0.0031095333 -0.0006523626 0.0035775788 0.00072105415 -0.0009899968 0.0045726625 -0.0027970283 -0.00064689154 -0.0042858846 -0.0034018909 -0.002110058 0.0014315094 0.0017058426 0.003682551 -0.0019239895 0.0021415595 0.0023703147 0.0044780364 0.00208516 -0.00026346184 0.00047516217 0.0035362197 -0.0012887758 -0.004255344 -0.0018328188 0.00023072679 -0.0046257856 0.003970639 0.0017805449 0.0004386874 0.0036653709 -0.00022986392 -0.00049372064 -0.0028993713 0.004751716 -0.004597245 0.0027716123 -0.003336064 -0.00427489 0.004066551 -0.0048895106 0.0047570234 -0.004529246 0.0004068315 0.0010952102 0.00013673771 0.00042172614 0.0031212643 -0.0008276738 -0.003209703 0.0011513354 0.0032219384 0.0005694241 -0.0015989034 0.00029981788 -0.0036469412 -0.0046446896 0.0036197286 -0.0026028703 0.0022349893 0.0038814181 -0.0038933633 -0.00035250327 0.00028483104 -0.004823519 0.0017151684 -0.003567431 -0.0014394259 -0.0009934832 -0.0026105815 -0.0016591966 -0.0036810832 -0.0048658936 0.0010306472 -0.0018498611 0.0033796877
[uol] -0.0010257391 0.0046316124 -9.607151e-05 -0.0038304853 -0.0011508137 -0.004261813 0.0012153792 -0.0012154747 0.0038689943 -0.0025300914 0.0040840944 -0.0041055237 -0.0033530043 0.0037940368 0.003722665 0.004211045 -4.2999163e-06 -0.0013453651 0.0046165455 -0.00073709013 0.003578606 -0.00074741524 0.0006730063 0.0025323639 0.0020236857 0.0018262048 0.0020943866 -0.0007447256 0.004516544 0.00036947802 0.0046391683 -0.0021156317 0.0021988787 0.0018524933 0.0016406602 -0.0035217167 -0.0018087488 0.00357291 -0.0013734496 -0.0012263358 0.0016740132 -0.0043079327 -0.0024815267 0.0037156213 0.0049681077 -0.0015577048 0.0012962976 -0.004083665 -0.001831498 0.0042303223 0.003130503 -0.00398927 -0.002028604 0.0024863803 -0.0047951667 0.001073774 -0.0011643909 -0.0006170897 0.00068486575 -0.00056607416 -0.0039397604 0.004227748 0.0013269382 -0.0016150409 -0.003477165 -0.0031600217 0.0011181994 -0.0041045654 -0.0037863702 0.0035751453 5.0569884e-05 0.0025420124 -0.0023385482 0.0040082987 0.0009726039 -0.0029015504 -0.0047185356 0.0013459944 -0.0029693502 0.0042506102 -0.003170151 -0.0042031766 -0.0022786688 -0.0045622075 -0.004675519 0.0003445847 -0.0033320885 -0.002550702 0.0048039174 0.0015705205 -0.004300434 0.0029440476 0.0017885435 0.0020462782 -0.0033721405 0.0031794766 0.002271057 0.0010754038 0.0005675419 0.0022093235
[br] 0.002901284 -0.0026215403 0.004792818 -0.004015668 0.0021000593 0.0025825957 0.0024479828 0.0030723698 0.004955382 -0.00041288976 -0.0041910713 0.0005690502 -0.00012668828 -0.0038132775 0.0022142231 -0.002367456 -0.0030884538 0.0006577708 -0.003973881 -0.0027112155 0.00087338546 -0.00018387567 -0.0019368106 0.0045423657 0.004772788 -0.003820424 -0.001143747 0.0008114404 0.001983649 0.00012225518 0.004420312 -0.0011944699 -0.0025275159 -0.0009787641 -0.0019107347 -0.0031706821 -0.0026729084 -0.0020764195 0.003959016 -0.0029169898 0.0010037767 0.0017652982 -0.0020992218 -0.003512702 0.00074451976 0.0018242812 -0.0035220603 -0.0020512235 0.00043045217 -0.0015743433 0.00022300007 0.0045365067 0.004999822 -0.0038769685 -0.0046405983 -0.0009878469 -0.0028691308 -0.0049477182 -0.0030042045 -0.0030535744 0.0041484674 -0.003130334 0.0005268478 -0.0003825738 -0.0025017373 0.0022095274 -0.0005906061 0.001380404 -0.0042826794 -0.0006477996 0.0021723355 -0.0030126583 -0.0008505257 -0.00047289347 0.004217311 0.0039000455 -0.0042127417 0.00044394983 0.0039529074 0.0012016324 0.002918383 0.003262844 -0.00320005 -0.000540697 0.0032933857 -0.004695797 -0.001422879 0.002958105 0.0046126535 -0.0019162393 -0.0013916569 0.0049209828 0.003433303 0.0015565059 0.00021506008 0.0006663804 0.00480875 0.003822336 -0.0021657294 0.0033809356
[it] -0.0005769199 0.004117558 0.0041947765 0.0017018849 0.004786567 -0.0049442085 0.001832657 -0.0042170635 -0.00026619993 -0.0023717151 0.003064842 0.0031662611 0.0030315612 0.0021795966 0.0039691348 -0.0029647427 -0.0019491678 -0.003646276 -0.0044617346 -0.0020330541 0.0021596965 0.004204171 -0.0049810065 0.0036986712 0.0014612372 -0.0016733622 0.001597371 0.0013705203 0.0046588965 -0.0026024084 0.0011209296 0.0042426772 -0.0010171966 0.00039026001 0.00038823113 -0.0033209384 -0.0026992827 -0.00441494 -0.0049652182 0.0027105063 0.0001398651 -0.0026569986 -0.0011647022 -0.0024918853 0.0009335261 -0.002138573 -0.000756172 -0.0016801655 -0.0042035813 0.0035185646 0.0008377624 -0.0030748863 0.003260172 -0.0023069107 -0.002929142 0.002602459 0.00035385555 -0.0009624637 0.0009840322 0.0015829364 -0.0030390339 -0.00478905 -0.0006708717 -0.0032801465 0.0020548622 -0.004707605 0.0011286978 -0.0026580542 0.0040991893 0.0029590288 -0.0038016485 -0.0015545231 -0.0021084172 0.001129596 -0.0027306543 -0.0039589754 -0.0040936894 0.00484557 -0.0010643499 -0.0042784833 0.0010144534 -0.0038299165 0.0030869106 0.001486843 -0.0011109118 0.0031161532 -0.0009405501 -0.0006889119 0.0015551359 0.0006045378 -0.0028475237 -0.00072384905 0.0005860068 0.0030339714 -0.0025275445 0.00091610197 0.00029437896 0.00046169758 -0.0034235828 -0.0005230154
[blogspot] 0.0032197759 -0.0004479629 0.0016179932 0.0023219483 -0.0020029778 -0.0047218166 0.00012234412 -0.0025581694 -0.0015925223 -0.0025722266 -0.0005148621 0.0049999803 0.0017870832 -0.0049283537 -0.002494861 -0.004905546 0.0035173474 -0.000103199854 -0.0018174851 0.0031099143 0.0039920826 0.0043058554 -0.00056083687 -0.00019214628 0.0013399143 -0.0032839165 0.0012081689 -0.00489714 -0.0028456317 0.0025424114 0.004720728 -0.0032135325 -0.00025169086 0.0023259223 -0.0013280534 9.793276e-05 -0.0024177746 -0.000506171 -0.000102277845 0.0023837727 -0.0010902975 0.002332341 0.0049604736 0.000528357 -5.14891e-05 0.001097017 -8.998392e-05 0.0006241752 -0.0010015578 0.0025104252 -0.0018346482 0.0020802878 -0.002065695 0.0033606486 -0.0044430327 0.0027862606 0.0044727493 -0.00064870296 0.0038807876 -0.003865406 -0.0038979887 -4.5238994e-06 -0.00043664407 0.002377991 -0.00499568 -0.002283253 -0.0044762217 0.002052384 0.0029164767 0.0047286404 0.00048659137 0.002506482 -6.447034e-05 -0.0029218916 0.0013452535 0.004401449 0.0016251146 -0.0027102279 0.004183585 0.00014178827 0.001081239 -0.004802825 0.0010672784 -0.0039561014 -0.00021896139 -0.0042932285 0.0037366068 0.0028606178 -0.0029068808 -0.0042161867 0.0022942354 -0.0009249016 0.001775146 0.0023360578 0.003261785 0.0015934943 0.0006512534 0.0020666728 0.0013846443 -0.004191484
[tumblr] -0.0043128524 0.0018539927 0.0007115663 -0.0026916175 -0.003938626 -0.0023966539 -0.0009857481 -0.0016493748 0.004453131 -0.0013035131 0.0009450801 -0.002929375 -0.002505874 0.0016310597 0.0029519172 -0.0045761303 -0.0019351935 -0.0027396488 0.003896121 0.0009057536 0.0025681606 0.0010655737 0.0022796053 0.00085515203 -0.0025984764 -0.00039069727 -0.00010568742 -0.0022182942 -0.0025758415 0.00047027692 0.00037534116 0.00221864 0.0016900883 -0.003598122 0.000577908 -0.0016588152 0.002188664 0.0026478125 -0.0036114554 -0.0012723529 0.004990996 -0.0015382897 0.0020922152 0.0009490149 0.0032193735 0.0034958338 0.00050014677 -0.0018829047 -0.0011590724 -0.0025937962 -0.0021183575 -0.0048848223 -0.0025424724 -0.0007788483 0.0038561206 0.002550996 0.002860331 -0.00439593 0.0041435286 0.0019198451 0.0019150381 -0.0003164257 -0.0033023898 -0.0023996127 0.0049374336 0.0024581803 -0.0027709466 0.0022789622 0.003954024 0.00486371 -0.00091219647 0.0039063105 0.00068790745 -0.0038323868 0.0038052853 0.003346555 0.0011561834 -0.0010597412 0.0007784576 -0.00046798633 -0.003996828 -0.00022368273 -0.0009791846 -0.0014063693 -0.0027325856 -0.0012705433 0.003522519 0.0044373646 0.0010168618 -0.003705958 -0.004230825 -0.0046691606 -0.0016934716 -0.0017036055 0.0012690192 -0.000823447 -0.00343131 -0.0044685947 -0.0007634605 0.002319125
[cl] 0.0019064443 0.0001705382 0.00156041 0.003742353 -0.00047088508 -0.0009786636 -0.00024887268 -0.0001018364 -0.003936408 0.0020939745 -0.0046841456 -0.0047674826 0.0039244983 0.004026672 0.004358638 -0.0018712936 -0.0014754259 -0.0038246498 -0.0038388383 -0.0014203084 0.0032309229 -0.004848607 -0.00044876616 -0.0017398952 0.00020240946 0.004627902 -0.0025132536 -0.0020309328 0.0048495783 -0.0010742634 0.003677112 -0.0006243335 -0.003498035 0.0010457481 -0.0022397714 0.0017114035 -0.0024239288 -0.0040185503 -0.0045781047 -0.002863605 -0.00025773887 -8.8546425e-05 -0.0035323238 0.0035647843 0.0005410509 -0.0019817234 0.0046586823 -0.00013551163 0.0002563824 -0.0012369554 0.00049427385 -0.0031259924 0.0014486169 -0.0005143038 0.0033802884 -0.0022494297 -9.132456e-05 -0.0008197343 -0.00436249 0.0047493633 -0.001754021 0.0007570232 -0.0019527185 0.002688968 0.0047086272 0.0039680107 -0.00026259664 -0.0030793147 -0.0037399558 0.0014234893 -0.0038138079 -0.00020400388 0.0009995955 -9.9992845e-05 0.0014551086 0.00080826087 0.00024031103 0.0032407902 -0.0002725483 0.0010860944 0.0023226128 0.00014153728 -0.001976267 -0.0012341619 0.0020029405 0.004522917 -0.0031851614 0.003066971 -0.0017181593 -0.0012247108 0.004251304 0.0034908839 0.0011904999 0.0028897868 -0.004529998 -0.0013923573 0.0016831332 0.0018475228 0.0024699355 0.00022511976
[gouv] -0.002522335 -0.0046255053 -0.00243419 0.0045643123 7.441826e-05 -0.0042133234 0.0049065044 -0.0029775642 0.0027046753 -0.0024818282 -0.0038853418 0.0023908792 0.0039427644 0.0044743028 -0.0029919732 -0.0036714976 -0.0030499417 -0.0010359241 -0.0039161528 0.000809025 0.004746788 0.0025427868 -0.0033621471 0.0048230374 0.0034253104 -0.0041758046 -0.00056656916 -0.0016500927 0.0022154604 -0.0032678167 0.00055844523 -0.0039027517 -0.0006899242 0.002517234 -0.0043802112 -0.003457244 0.0029667187 -0.00074880244 0.0014445428 -0.004739017 -0.0009953482 0.0030943444 0.0031097587 0.0039267475 -0.0017508983 0.0006010197 0.0001960583 0.00031538075 -0.001615746 -0.004710724 0.0017587412 -0.0036934286 -0.000991927 -0.0030715065 -0.0012821334 -0.0015370792 0.0017052828 -0.0007356177 0.00064464146 0.0046714973 -0.004776771 2.9383693e-05 0.0013071783 -0.0044966745 -0.000856366 0.0022572237 0.0020221681 -0.0007164283 0.0010422175 -0.0043486343 -0.0002863072 0.0044397656 -0.0047523994 0.004463372 0.0040695267 -0.0012120556 0.0035949685 0.0034307083 0.0032470655 0.000338173 -0.0039926264 0.003047606 0.0030284012 -0.0006130971 -0.004734593 -0.0038699168 -0.0012243818 -0.004430522 0.0039135134 -0.0013363939 5.1700976e-05 -0.0038193178 0.0025946442 0.0005637086 -0.0020359003 -0.003600552 -0.0010062833 -0.0026224772 -0.0036237095 0.004746911
[fr] -0.0014942591 -0.0012637044 -0.0021425383 0.004952294 0.004126992 0.00016273279 -0.0014357681 0.0034897001 -0.0013559479 0.0041527124 0.002336442 -0.003721037 -0.001447919 -0.0020775609 0.0045790477 -0.0016431534 -0.0006480641 -0.0037622303 0.0046358434 -0.004807088 -0.0023584247 0.0019318629 0.001754446 0.0041685076 -0.0016969759 0.0023760311 0.0014399998 0.0014552646 0.003983695 0.0035170754 -0.0049335826 0.0034207487 0.002015687 0.0032702675 0.004176814 0.004655428 9.9083874e-05 -0.00042836834 0.0018220199 -0.0025275003 -0.0045745946 -0.0009740181 -0.00082269125 -0.00077965716 0.003366151 -0.0041069672 -0.0027129815 -0.004565265 -0.0017274283 0.0020620534 0.0044405665 0.0016729841 0.004797251 0.00096975407 -6.308872e-05 0.0013195165 0.00020634197 0.0026776283 -0.0016567493 -0.00031086663 0.000628293 -0.001128599 0.0037271278 0.0015795026 0.0041098977 0.00014034333 -0.0036559629 0.0010154606 0.002503076 -0.0007556877 0.00393425 0.0035327813 0.0020342208 -0.004585294 -0.0018674969 0.00013544923 0.003596765 -0.001344484 -0.0033603166 -0.003982134 0.000944823 -0.0024680954 -0.0023431014 0.0025160727 -0.0019928531 -0.004638232 0.0026239431 -0.004083476 -0.0033038252 -0.0043889345 0.004778113 -0.000418514 3.9519742e-05 0.0036215568 0.003997733 -0.0028800939 0.0018299837 0.0042053964 -0.0015570323 -0.0046660583
[service] 0.0036919722 0.0013545686 -0.0043028705 -0.0020752614 -0.0046169013 0.0044783456 0.002300575 -0.0019472544 -0.0043575475 0.002310683 0.00449406 -0.0015622883 0.0024197004 0.0004233932 -0.0002031927 -0.0003276337 -0.004179682 0.0032737507 -0.004243557 0.0014306535 0.0011982978 -0.0016750353 -0.0033151167 -0.0027914315 0.0018483656 -0.004995412 -0.0026714378 0.0035222778 -0.0019962864 -0.0008911723 0.004960658 -0.0044191508 0.00405006 -0.0029848956 0.0041284068 0.0005336795 0.0012639677 0.0037603118 -0.00016078912 0.002678811 0.0034014015 -0.0039004683 0.004976649 -0.0026305593 0.0036084894 -0.0012371731 0.0009995564 -0.0036068296 0.0039956616 0.00022255816 -0.0049584317 0.0040220264 0.0012061084 -0.0015006165 -0.0028598271 0.0025954372 -0.0046720565 0.0009869388 -0.0028101432 -0.0013966626 -0.003232169 -0.002114877 0.00040007103 -0.0022104948 -0.004527499 0.0038245441 -0.0022505152 0.0021351753 -0.0011982529 0.003599178 -0.0046400437 0.0036549065 -0.003272547 0.0036128806 0.0020808736 0.0021509933 0.00365258 -0.0021622467 -0.002830492 0.0022431621 -0.0021876043 -0.0012583924 -0.004772694 -0.002252105 -0.0026707994 0.0047524627 0.004702731 0.0007861424 -0.0030647605 0.00086588087 -0.0013816333 0.0019498654 -0.00070361095 0.004864431 -0.0016522652 0.0013581864 -0.003397746 -0.00026278058 0.0022108792 0.00033222185
[gov] 0.0006357329 0.004724575 -0.0007324028 -0.00490849 -0.0013349205 -0.0024790638 -0.0017767786 -0.002465098 -0.0023800884 -0.0034420872 -0.0015811371 0.004909097 0.0046741366 0.0036829282 -0.002700787 -0.00043444335 -0.0026716131 0.0030086841 -0.0006100689 -0.00036050752 0.0018145596 -0.0044902987 0.0037219021 0.0013317885 -0.002092942 0.0033139363 0.0006386144 0.0021140515 8.904096e-05 -0.0019097019 -0.004714594 -0.0049991948 -0.0006277873 -0.00086839683 0.0019928324 0.004103004 0.0012837029 -0.0016990858 -0.0011001008 -0.0030956368 -0.00035873242 -0.0038159094 0.0023497175 0.002006712 0.0030178 -0.0019152272 -0.0010995131 0.0038528116 -0.00314197 -0.0020557987 -0.0034351111 -0.0036219172 0.00048044324 -0.0031653116 0.0016383133 0.00010638591 -0.0046429653 -0.0008489024 0.00035067974 0.002655311 -0.0040974277 0.004305873 0.001288713 -0.0030710017 -0.0040638596 0.004221796 -0.003087231 0.004634709 -0.0014711351 0.0010702694 0.00468434 0.0027132938 0.0021385844 -0.0016017216 -0.0009044013 -0.00084565766 -0.00068124756 -0.0047038863 -0.00364166 0.0016348115 -0.0002565002 0.0008647274 0.00435239 0.0049446756 -0.0017779374 -3.684219e-05 -0.004533898 0.00078830495 -0.0023306983 0.0030559767 -0.0017467272 0.004646302 -0.0005115676 -0.0037174951 -0.0044392175 -0.0027794556 -0.0034554768 0.0013394807 -0.0014695327 -0.0015194023
[uk] -0.0018176406 -0.0027478705 -0.0017383199 -0.003230168 0.0040691933 -0.0047520553 0.00087732915 -0.0016885132 -0.0046222946 0.0015834789 -0.002136302 -0.0046702866 -0.0033085167 -0.0015420353 0.0031825425 -0.004224266 -0.0008650003 0.0044560228 0.0030055 0.00027034897 -0.0016062956 0.0018689875 0.0006640763 0.00458737 0.0048065027 -0.0004743687 0.002228349 -0.00056318473 0.0028983606 0.0019681728 0.0038643526 -0.004912836 -0.002649499 0.0014450154 0.0037919395 -0.0008102893 0.0020498442 0.0032578316 -0.001649013 -0.0012551576 -0.0018193191 0.0047762915 -0.0018212795 0.0024945461 0.0026329048 -0.0021821575 -0.0044157086 0.002621523 -0.0036119572 -0.004686806 0.0008835606 -0.0047489326 -0.00068373093 0.0049100425 0.002509004 -0.0038692867 -0.0005784645 0.0043055005 -0.0015107554 0.0048925504 -0.001436038 -0.0042726486 0.0015405882 -0.0035201586 0.0038815755 -0.0005296231 0.00057806075 -0.003998478 0.0023239856 0.0020021982 -0.0029973716 0.002091744 0.00018217554 0.0008839052 0.0021944311 0.004511228 0.002599724 -0.002480967 0.00072642695 -0.0011164623 -0.004880589 -0.0028149516 -0.0009131469 0.0047221454 0.0037950482 -0.0015255802 -0.002586327 -0.0033875788 0.00026071677 -0.0032020723 -0.00075261295 -0.0034288964 -0.0032738047 0.0004941332 0.0033610202 0.00023759902 0.0040664654 -0.0010925271 -0.0034082625 0.0042163646
[firebaseapp] 0.0049894312 -0.0042382306 0.0014768811 0.0030275453 -0.00011777226 -0.0045063235 0.0044680443 -0.0010250262 -0.0007202332 -0.00012739282 0.0036208872 -0.00015245425 -0.003694498 -0.00092762755 0.0032004835 0.0033099456 -0.0045603476 -0.004696691 -0.00030654017 -0.004674046 0.0046537044 0.004654779 -0.0015105216 -0.004133172 0.00039551314 -0.004991929 0.0030314932 -0.00027121836 -0.00413258 -0.0044355965 0.0019628708 -0.0001002592 -0.0015821939 0.0002462333 -0.004518696 -0.00032449188 -0.004304628 0.0018376326 -0.0044000484 0.003303201 0.0044232523 0.002073628 -0.0024559235 -0.0013824247 0.0011164988 0.000302827 -0.00066573033 0.00013604481 -0.0037027162 0.0018533869 0.004024706 -0.0043526394 -0.00039990852 0.0035889149 -6.03362e-05 -0.0009451313 -0.004955367 0.0039428333 0.0036128052 0.00043055043 -0.0018492846 3.3879653e-05 0.004613586 -0.004563739 0.0015803655 0.004884707 -4.6952628e-06 -0.0015237271 -0.00076653017 -0.00076674623 0.003448801 -0.0006116736 0.0038354574 0.0019307258 -0.0009557372 0.0033223862 -0.0012413405 0.0009114994 0.0042373734 -0.0043363827 0.00034736143 -0.003977659 0.0009217756 -0.0030538815 -0.0019944739 0.0011115116 -0.0043170108 0.0025396203 -0.0038613605 0.004283145 -0.000159299 0.0025738804 -0.0018656056 -0.0007626815 0.003572693 0.0010850518 -0.002052772 -0.0023770076 0.0003370582 0.002057942
[de] 0.0021414915 0.0014115693 0.0035933992 -0.0046103513 0.0046357457 0.0024680141 -0.0039392994 0.002277481 0.0035002204 -0.00037453836 -0.0004230272 0.0008539967 -0.000549132 0.00061852764 -0.004345088 -0.0037093519 -0.0046432456 9.306474e-05 -0.0029993127 -0.0024063736 -0.0026734674 -0.0037004398 -0.0017003394 -0.0005077636 0.0023825546 0.0020557707 -0.0034719245 0.0013861977 -0.0032505791 -0.0023504985 -0.0027037477 -0.0042292466 0.0025243885 0.0009385161 6.89202e-05 0.0034779087 0.002239806 0.00082793646 -0.0034178603 -0.0020145732 0.0038360404 -0.00024605263 -0.0027475732 -0.0019252235 -0.0038799613 0.0016721766 0.004929696 0.004653896 0.003653502 0.0029100515 -0.00031261798 0.002238959 0.0012565334 -0.004567355 -0.0047741383 -0.0011145656 -0.0038361948 0.0013707643 -0.0011581581 -0.0038128672 -0.0043679117 0.00025141472 -8.7806955e-05 0.0032454059 0.0026913774 -0.0037962664 0.0020562927 0.0032996768 -0.0017160277 0.0038108807 0.0016229474 -0.000684639 0.0044838013 -0.0004180204 0.0018231068 -1.5730038e-06 -0.0007206951 -7.297285e-05 0.0035610516 -0.004876441 0.0033710413 -0.003325234 -0.0012453371 0.002990541 0.0032073697 0.00029354217 -0.004966253 0.00046699774 -0.004430311 0.00046925433 -0.002069366 0.0018114517 0.0020623486 -0.0021846378 -0.004783386 0.0020511085 0.0010872013 -0.00427807 -0.0046544448 -0.004167385
[edu] 0.0018416261 0.0035383906 0.0037271036 0.0017037266 -0.0033829152 0.0036161244 -0.004003506 0.0048940284 -0.00032139663 -0.0003271657 0.001794077 0.0037019039 -0.00021513877 -0.0021924293 0.0044245543 0.0014038002 -0.00020820508 0.0029738322 -0.0031526804 -0.003459515 0.004321889 0.004917289 -0.0013206601 0.0010212129 -0.0030120646 -0.0018559461 -0.0031383722 0.004720781 -0.0022432052 0.0032985797 -0.0012470537 -0.004786962 0.0037186472 -0.0038533318 0.003500023 -0.00071804086 0.0047100885 0.00080091273 0.0019876184 -0.0011254852 -0.0035403406 0.0043506725 0.0049172826 6.237859e-05 -0.0014173556 -0.00023237104 -0.00453138 -0.0045227767 -0.004505735 0.0028138934 -0.00229932 -0.0044187442 -0.0015468544 0.001942696 -0.0032966654 -0.003006221 0.0007701288 9.200582e-05 -0.002510572 -0.0017962724 0.0011506295 0.0027718623 0.0046680477 0.0032300903 -0.0039166384 0.0042249067 0.00033744704 -0.0037232917 -0.0047799353 0.00040717283 6.7167915e-05 -0.004908002 0.004179811 -0.0022261625 0.0034418097 0.0033864658 0.001959724 -0.0012153899 0.0028402582 0.0015894524 0.00381314 0.0037070448 0.0021193437 0.003409545 0.0031880606 0.0015946259 -0.0014178138 0.0038419757 0.0028639287 0.0031489525 0.0024868366 0.0028831717 -0.00037141424 0.0017262422 -0.00049248105 0.0016207905 0.0019105873 -0.00149225 -0.0018996291 -0.004015821
[readthedocs] 0.00020286441 -0.004747345 0.0025781477 -0.003968857 -0.00056233816 -0.0017783868 0.0010058046 -0.0044864607 -0.0026308096 -0.0041022864 -0.0032534236 -0.0034326946 0.0020772088 -0.004796927 0.001525504 -0.004571441 -0.0006980272 0.0042549474 0.0030254563 0.0015105708 -0.0009007342 -0.003151667 0.0029304894 -0.00014467724 -0.0039310744 -0.0029700391 0.003361701 -5.6367368e-05 0.004918323 0.0041825334 -0.00026298873 -0.0005382104 -0.002349293 0.0019291434 0.0022366387 0.0039253924 0.004736861 -0.0008928855 -0.00028172275 0.0033556856 0.0022924268 0.0005734931 0.0015527625 -0.0022248155 0.002462422 -0.0021958482 0.0035571475 -0.00070852647 -0.0044893557 -0.00084170233 -0.0017758154 -0.0030722828 -0.0020040087 0.0033351248 -0.0027061014 0.0032405797 -0.0011517184 -0.003873909 -0.0017064726 0.0047890153 -0.002230987 0.004187083 0.0038750693 -0.002444124 -0.0009851535 -0.0030581509 0.0036736913 0.0049701976 0.0048533753 0.0012396872 0.0038514668 -0.00064322166 -0.0031662034 0.0041483445 0.0020918865 0.0024031932 0.0037880465 0.0019018017 0.002683302 0.0008930485 0.0001862254 -0.0041949754 0.000723687 0.0033162255 -0.0024952404 -0.0005115811 0.00020467676 -0.0014285392 0.004087438 0.0005645859 -0.0020257747 0.0028949603 0.0040034 -0.0031118593 0.0030787606 0.0014747446 0.003959082 -0.0027017938 -0.0046339417 0.0031175902
[io] -0.0033301157 0.0044200225 0.0011684718 0.004540384 -0.0029319017 0.004344143 -0.0024975257 -0.0018138885 0.004138874 0.0020730854 -0.002873553 0.0039147325 -0.0036668389 -0.0016172612 0.0022068112 0.0046887184 -0.0031495113 -0.0030556135 -0.004961949 0.004594988 -0.00013371743 -0.0029479808 0.0024640649 -0.0046865074 0.004796819 -0.00022745132 0.001156115 -0.0038935677 -0.0005501299 0.0036019534 -0.003779034 -0.0007279925 -0.00044870563 -0.0040662093 -0.0048131356 -0.0037526267 -0.00077422196 -0.003557167 0.0029486492 0.00097393384 -0.0033455782 0.00071273325 -0.0031371028 0.00035174424 -0.004582873 0.0035831565 -0.0042969272 -0.00038670562 -0.00061632646 0.0016886131 -0.00442103 0.0016993051 -0.0026795107 -0.0014483272 -0.0048352377 0.0016457783 0.001926288 -0.0019150262 0.004837351 -0.004798743 0.002532628 0.0031845802 -0.0046076593 -0.0047317925 0.0006932784 0.0019808714 -0.0038373256 -0.0030867956 0.004558102 0.0019454453 -4.5618508e-05 -0.0032622311 -0.00080094766 -0.0010173535 -0.00057050167 -0.0009759879 -0.004872095 -0.004600039 0.0013542087 0.0014216327 0.0020706481 0.0033272197 -0.000957638 -0.0030185978 -0.002523924 0.00027788104 0.0016382756 -0.0018516553 0.0007892549 0.0012445231 0.0011184793 0.004788357 -0.00429591 0.0006950055 0.0037399353 -0.00037041958 -0.0047424263 -0.0032690554 -0.002592762 -0.004291718
[mx] -0.00070231315 0.0034261625 -0.0037035083 -0.0018124152 0.0010317783 -0.0027781993 0.0032002954 -0.000105513725 -0.0041703377 0.0031506727 -0.0045517213 0.0034296475 0.0032308185 -0.0038181501 -0.003508734 0.0045374054 0.000456376 -0.00045624515 0.0030434662 0.0035773953 -0.0002350402 -0.003974585 -0.004246088 0.002296247 0.0037176348 -0.004187286 0.0047386903 0.0010260832 -0.0004536016 0.002579995 0.0006033187 -0.002516179 -0.0012952548 -0.002311464 -0.0046053794 -0.0037534563 -0.0040385784 0.004452929 0.0025492487 -0.0043720542 0.001004898 0.00026533054 0.00140503 0.0009970916 0.0037718834 0.003280906 -0.0048188833 0.001299351 0.00033516716 0.0043080403 -0.00087940926 -0.00016946904 -0.0033084326 0.0024942057 -0.0012199508 -0.0018787878 -0.0012392104 -0.0003863331 0.0015488295 -0.00321765 -0.0047341334 0.00396501 -0.0023976087 -0.0006824089 0.0029351618 -0.0005718684 0.0012921668 0.0037268493 -0.004505161 0.0012620906 0.0048911814 -0.0046743886 0.0004213513 0.0022370461 0.0041559413 -0.0034413836 0.0038741473 0.00456609 0.0013766699 0.0013669622 0.00041180803 -0.0007730704 -0.001671142 0.0022787475 0.0019638925 -0.0015088874 -0.002794116 0.004333798 -0.00067440607 0.003602432 0.0028449586 0.004139415 -0.0030118132 0.0041520037 0.0005478151 0.00048010563 -0.00259324 -0.0010608905 -0.0026319206 0.0040278984
[withgoogle] -0.0018238449 0.0006466694 -0.0016923349 -0.003231098 0.003561657 -0.002223528 -0.00067777093 0.0014104815 0.0027068728 0.0014677793 -2.477318e-06 -0.0020621764 -0.0020005298 -0.0021235286 -0.0022264682 0.0046460386 -7.1610324e-05 0.0012682956 -0.004640183 0.0033942657 0.0014608889 0.00248187 0.003480061 -0.00027414784 0.0021495516 0.00016617728 0.0017504413 -0.0043051783 0.00084145507 -0.0031617295 0.0017706477 0.0047615776 -0.0022408844 0.0029259743 0.0019894643 0.0049330667 0.0015062075 0.0046781823 -8.8898465e-05 -0.003621074 0.0034988346 0.0006260378 -0.0037729726 0.0027843202 0.0032592136 0.0049140835 0.0041229995 -0.0014942032 0.0022779494 0.0027531479 0.001639864 0.0027551064 0.0005150866 0.0007327921 -0.0023446672 0.00015673321 0.0042968066 0.002103305 0.0033692895 0.0030748555 -0.0032345555 0.003020933 -3.6400743e-06 -0.0024209702 0.0005796291 -0.00011451356 0.004260203 -0.0017874639 0.001240734 0.0012190519 0.003752551 0.0022721617 0.002172275 -0.000223862 -0.0036345988 -9.296369e-05 0.0015747864 0.004202105 0.0016878145 -0.004440587 -0.0037969856 -0.0034158323 -0.0027264701 -0.0015986161 0.0017558117 -0.0030577558 0.0027232063 -0.0011873995 0.0019608717 0.0016172677 0.0006951485 0.0043745935 0.002743592 -0.004899578 -0.00042255595 0.0026084213 -0.00041817594 0.0008325591 -0.0045011155 -0.00052033784
[sharepoint] 0.004878767 -0.0015445375 -0.0016931288 -0.00348176 0.0018041632 -0.0032877247 -0.0047134035 0.0038926722 0.0022322834 0.002454657 -0.0024262762 -0.00019198097 -0.0027694474 0.0043824203 0.003321371 0.002217535 0.0045122653 0.0007837154 -0.003620205 -0.0016161245 -0.00076523283 0.0002315836 0.0042516394 0.0010398133 0.0035641547 -0.0005777539 -0.004786198 0.004941292 -0.0016987436 -0.0003087856 -0.003056203 0.003377147 -0.0049861213 0.00246978 -0.0026266652 -0.004045949 0.0038395738 -0.0030373961 0.0027381084 0.0037280265 -0.0016668267 -0.0049260925 -0.0039047427 -0.0033246642 0.0049205897 -0.0011363626 -0.0039443932 0.0021923333 0.000113988295 -0.002987666 -0.0048321728 0.0019144411 -0.0010268725 0.00017848052 9.443099e-05 0.0019023591 -0.0013627999 0.002628644 0.0039664777 -0.0034939682 -0.0020924776 0.0018231301 -0.0031393855 -0.0005328031 -0.0038969999 0.001126796 0.0018413574 -0.0020063394 0.0047120415 -0.0006889887 0.002426623 0.0022584563 0.0034909854 0.004228915 -0.0022462339 0.0027692616 -0.0010972219 0.0029299632 0.004433361 0.0031985138 0.004700752 0.0040055756 -0.00044132303 -0.00025304733 -0.0039914385 -0.0022193955 0.002776777 0.0021768454 -0.0014003813 -0.0017397713 0.0035910327 0.00017974572 0.00090719573 0.0025489326 -0.0020704144 -0.004039075 -0.0009132228 -0.002503872 0.00386767 -0.0032902723
[user] 0.004919624 -0.00031087175 -0.0024367159 -0.0025931727 0.0045700725 -0.00045189215 0.0029854262 0.0025238912 0.0033408375 -0.004089963 0.00027030706 0.0048500635 -0.0048341407 0.002936514 0.0032945517 -0.0020012574 -0.0011058187 0.0013146629 0.0005481946 0.00067008566 -0.0025219757 0.004594392 -0.0033407412 0.0018915003 0.0019033323 0.0047676666 0.0018477952 -0.0023345638 0.0033772187 0.0028853603 -0.00075715827 -0.0042054555 -0.0033772043 0.0020911158 -0.0046664784 -0.0045615057 -0.0024264932 0.0037342226 0.0025437474 0.0033894703 -0.0039603305 0.0019327183 -0.0020544059 0.0020169462 -0.0015791154 -0.00053526275 -0.0033562642 0.0034586834 -0.0020899975 -0.004522499 -0.00080709206 -0.0022284465 -0.0027001225 -0.0014043527 0.0029917518 0.0030561257 0.0017003147 -0.003485084 -0.0023519807 -0.001474027 0.0004403959 -0.0026371025 -0.00121747 0.004172311 0.001959012 -0.0026114886 0.00091323676 -0.0027839374 0.002484484 0.0013970654 0.0007616435 -0.00029414846 -0.00352296 0.0042020846 -0.0025305282 0.0038040709 -0.0002564746 0.004388053 0.0009084861 0.0020703827 -0.00040501123 -0.0010226243 0.003274424 0.004558498 -0.0014143675 0.00047866395 -0.0033056699 0.001622898 -0.0013036912 -0.0041143317 -0.001473441 -0.0019242035 -0.0045238766 -0.002646123 0.00018013222 0.0041736457 -1.6850885e-05 0.0020221332 0.00017076917 0.0018966775
[images] -0.0032170492 0.0032241028 -0.003912756 0.00012823055 0.0030016173 -0.00055070873 0.004538727 -0.0049202843 0.003484481 0.00085013686 0.0026289113 0.00420052 -0.00042550126 -0.0007791249 -0.0009823758 0.0027117566 0.0045570442 -0.0006659897 -0.0035596127 0.0031701121 -0.0022825045 -0.0006837179 0.0035418821 -0.0022224074 -0.0038505518 -0.003324185 -0.0008206046 -0.0010604425 0.0023290575 0.003969811 0.0025027348 -0.0029250192 -0.0043092556 -0.0008722856 -0.00097548123 -0.002932137 0.0021365462 0.0031198421 -0.001581748 0.0033533555 -0.001419409 0.0028999848 -0.002397245 -0.00023257593 -0.002011525 0.0023995345 -0.003925456 -0.0007941071 0.002421929 -0.0021046775 0.0015627695 0.0036990056 0.0010008751 0.0009642178 -0.0003973199 0.0043770084 0.0030673454 0.0010964237 -0.0023317193 0.0048682466 -0.002804237 -0.0005168696 0.0018154043 0.0012264554 0.003384919 0.004430579 0.0004944955 -0.0043835514 -0.0011730385 -0.00014329655 -0.0029668068 0.0028239628 0.002719107 -0.0035000413 -0.004181081 0.0022628098 -0.0035335594 0.002499462 -0.0032115052 0.0039380137 -0.004055726 -0.0017800569 0.0034607388 -0.0013316725 -0.00012750924 -0.00343402 0.0011052229 0.002238133 0.003078715 -0.0014420671 0.0048133023 0.0018577473 0.004063421 0.00330053 0.0024911612 -0.003497743 0.002991288 0.00094041415 -0.0032078992 -0.0016511392
[wordpress] -0.0021278793 -0.00031928252 -0.0012394863 -0.0017794115 -0.004257281 0.0011921846 0.0035938853 -0.00053416705 -0.0014007771 -0.0016980928 0.0005430267 0.00416115 -0.0029564882 0.004097553 0.0010580458 0.0034217779 0.0012225569 -0.0013746321 0.002028233 0.0017439146 0.0026540197 0.0004537087 -0.003551668 -0.003424164 -6.9671776e-05 -0.0048978836 0.0032904968 0.0030656606 0.0022920812 -0.0027802372 -0.0038351386 -0.0040275943 -0.0047310786 0.00202666 0.0029562796 -0.0023709417 -0.0020301873 0.0031579928 -0.0002953331 -0.00043755723 -0.0039282064 -0.003003867 0.0048297774 0.004348616 9.356439e-05 -0.00063076615 -0.0009015184 -0.0006854017 -0.0039840112 -0.0006629289 0.0027186358 0.0042700395 -0.0026265127 -0.00039712945 0.004283361 0.0027370197 0.0041658618 -0.0044963965 0.0046629086 -0.0033271902 -0.004464991 0.00031942315 0.00315372 -0.0005753655 0.0002504224 0.0031300224 0.0039048484 -0.0035619847 -0.0006074859 -0.0021656936 -0.003605318 -0.0012989067 -0.0030950163 -0.0037615888 0.0043259887 0.002828936 -0.0047368202 -0.0022383677 -0.0037243795 -0.0038233697 -0.0015004771 -0.001560204 -0.0021210324 0.0034587486 0.002424202 -0.001312962 0.0033988077 -0.0021468776 0.0023652697 -0.0041509075 0.004439788 0.001371528 0.0043620756 -0.0023951852 -0.00062364805 0.0027516684 0.0010881722 -0.0038770894 -0.00075011374 0.0024546427
[dir] 0.0028003622 -0.00032537896 0.00058700284 0.0025559631 -0.0034954255 0.0030613393 0.0013032514 0.0044348408 0.0029929336 -0.0041801617 -0.0040051914 0.004917362 0.003164173 0.0008427496 0.0049899695 -0.0038587837 -0.0027125143 -0.0044024787 -0.003960264 0.0022993195 -0.0031443387 0.0013611089 0.004922294 -0.0015397859 5.2403193e-05 0.0009595845 0.0009712102 -0.004638785 -0.002421577 -0.0019147492 -0.0019730127 -0.0026677782 0.0035742465 0.004197752 0.0024595815 0.0049134064 -0.0026235657 -1.7431565e-05 0.0015267651 -0.0019838256 -0.0010787039 0.0026690876 0.0029708846 -0.0035994088 -0.003946387 0.0029303236 0.0018124157 0.003923283 0.0034180917 0.0035761427 0.0013005566 0.003395929 -0.0007144795 0.0027755117 -0.0025690435 -0.0045172046 0.00058320304 -0.00078097265 -0.0012416202 0.0021049045 -0.00057057897 -0.002016518 0.0041170744 -0.0015293253 0.0047514923 0.0019487184 0.0004028012 -0.0011606901 0.0036755549 0.0014654971 0.0013191975 0.0043009873 -0.0039454484 -0.0017306441 -0.00045273174 -0.0031056637 0.00040893815 0.004024188 0.0007699649 -0.0013594097 -0.0027562296 0.0005525197 -0.0018753773 -0.0027308958 -0.0047709136 0.003937619 -0.004317938 0.0007787538 -0.0019623428 -0.002467034 -0.0024607342 0.0045003863 -0.0035156058 0.000118719414 0.0040391833 0.0010082438 0.0048203664 -0.0027837593 -0.0020797746 0.0013665692
[2020] -0.0022482984 0.004219802 0.0010008537 -0.00057268934 0.0022481508 -0.003834651 -0.0004166509 0.0038244892 0.0027303095 -0.00235032 0.00019786786 -0.0024802578 -8.814223e-05 0.0014732466 -0.001870926 0.0028517153 -0.0026586151 0.0027448456 -0.002849136 0.0005602683 -0.00048300065 0.00012024585 0.0033872314 -0.0016934681 0.001696323 9.461399e-05 -0.0029016912 -0.0010238718 0.0015758532 0.001920973 -0.0015034764 -0.004674162 0.0038029952 0.0012568044 0.004056976 0.0016080667 0.0035549095 0.0034616962 0.0020632255 0.0012616245 -0.0024222827 0.0032915426 -0.0035751837 0.002704701 -0.0043263976 -0.0019963265 0.0049224403 -0.0028130685 0.0013488294 -0.0029145414 0.0016076318 -0.0013789779 -0.0029252302 0.00053777033 0.0023400318 0.00043353857 -0.0007621576 -0.004645004 0.0005804561 -0.00028415304 -0.00044169137 -0.004727325 -0.004543678 0.0004150807 0.0019040424 -0.0012776596 -0.00207888 0.003640186 0.0014374498 -0.0048592407 -0.0017030339 -0.004170571 3.7966296e-05 -0.004853339 -0.0014103961 0.0012688078 -0.0028884911 -0.0015260112 -0.0005235239 0.0023967312 -0.0034438465 0.003215151 -0.0013508832 -0.0027075398 0.00121027 0.00067144074 -0.0011183494 -0.0037295043 -0.0047992365 0.0007184027 0.004926447 0.0035037491 0.0024901698 0.0009966749 -0.00023436593 -0.0026318447 -0.0020300501 0.003862286 0.0007375963 0.001555339
[over] 0.002980357 0.00075077405 0.0047257077 -0.0039418396 0.0003444217 0.00060918974 0.0039928146 0.0009570145 0.0027224473 -0.00024066912 0.0020376914 -9.891251e-05 -0.00069086486 0.0038659545 0.0018823384 -0.00054693734 0.0016073673 -0.00245342 -0.0005187695 0.004533842 0.002942063 -0.0027555556 -0.004766929 0.0024873507 0.0038934816 0.0035794815 -0.0032643043 -0.0005599321 -0.0025602113 0.0013919915 -0.004067626 -0.00201186 0.0014557727 0.000630572 -0.0031915675 -0.001871234 -0.0010918244 0.0031624055 -0.0031352965 0.002477073 -4.282547e-05 0.004209039 -0.0026969046 -0.0003518071 -0.0007263464 -0.0029692715 0.0006311033 -0.0036104464 0.0040355893 -0.0019605863 0.0037274044 0.0023104693 0.004356958 -0.0011807715 0.0029436992 0.00340203 -0.0046271575 0.004673154 0.004654878 0.00236966 0.0014256844 0.0030353954 -0.0046867984 0.0019980036 0.002894001 -9.357277e-05 0.0035039857 0.0028463397 0.0038131615 -0.0001610471 -0.0037522293 -0.00025129737 -0.00047744345 -0.002065745 0.004210515 -0.004023139 0.0010179789 -0.0013545866 0.002061267 0.0006984393 0.00032052025 -0.00023182295 0.0036835922 0.00496961 -0.0007256819 -0.0039118505 0.0005318881 0.0028569251 -0.0032231056 -0.0022666042 -0.0043456545 0.0015436565 0.0049287947 0.0026362073 -0.0021465712 0.0038734628 -0.0004149014 0.0021286295 0.0035574855 0.0037378445
[blog] 0.0024514585 0.004292354 -0.00023185974 0.0026033479 0.00069612265 0.0047640987 0.0018199882 -0.0017330139 -0.0029054426 -0.0011647386 0.0048360424 0.001806681 0.0039592553 -0.0012354462 0.0024054348 0.0045119757 0.004266019 -0.0040261596 0.00011364883 -0.0032200175 -0.00031862268 -0.0032323252 0.0013693068 0.0041006813 0.003722068 0.0027651982 -0.002615813 -0.0018735307 -0.002536773 0.004838689 -0.0019311309 0.0028421534 0.0018009325 0.00067564426 0.0034577642 -0.004830914 -0.0019884747 -0.00026040338 -0.0020183146 0.004159893 0.0014921408 -0.0045264396 -0.004104466 0.0012097894 0.0035464289 0.000214234 -0.0038518494 0.0039248215 -0.0033175575 -0.0033733994 -0.0013449288 -0.00044506416 0.0028066486 -0.0035337436 -0.0010662614 0.0020971023 -0.0046782205 0.00057264743 -0.0029149686 0.0043363497 -0.00081183156 -0.004828592 -0.0008517718 0.0015507 0.0026192297 0.0009407345 0.00247949 -0.0009183539 -0.0025762867 0.00018182257 0.003707138 -0.0030256736 -0.0029414254 0.0018215356 -0.0014967502 -0.0035431278 -0.004965957 -0.0011056555 0.0037632678 0.004536274 0.004455082 -0.0018441784 0.0036396664 0.0019059475 0.00348151 0.0016919519 0.0036055846 6.7474786e-05 -0.00095822196 -0.00048420532 -0.0017004544 -0.0040759407 -0.0006106128 0.0037651649 0.0017639743 0.0033395132 -0.0037670445 0.003198918 0.003479723 0.00013531372
[video] -0.00031051226 0.004659691 -0.0027649307 0.0020937622 0.0036038198 0.00089859497 -0.004139268 -0.0006950814 -0.0016410707 -0.00022924179 -0.0003149272 0.0033950862 -0.004025043 -0.0036282502 -0.0026757098 -0.003018462 9.609945e-05 -0.0034035346 0.0032305755 -4.6304427e-05 0.0046431227 0.0030773403 0.0030487217 -0.0022772187 0.0028335834 0.00388454 0.0010661329 0.0012754495 0.0015216 -0.0031213742 0.00035790447 0.0012425906 0.0029465258 0.0007572877 0.0049729785 0.00013324572 -0.0027066164 0.0029051919 -0.0038526827 -0.0024462836 -0.0009804638 -0.004543739 0.0047206813 7.9469755e-05 -0.002572528 0.0049110046 3.4086406e-07 0.0035171453 0.000879894 0.0019404786 -0.0042124456 -0.0037460048 0.0007695174 0.0044206567 -0.0008673412 0.0015262063 0.0034315903 -0.0022097998 -0.004115284 -0.004648022 -0.0003173845 -0.0013690346 -0.0025552504 0.002773264 0.0008831257 0.0031035477 0.0024688654 -0.003657416 -0.0033819485 0.002975883 -0.0031275307 0.0013480671 -0.0020749248 -0.004489336 0.0037203971 0.0024195542 -0.00035411166 0.0033335295 0.0010144128 -0.002240464 0.0020990316 0.004551977 -0.0026485377 0.001259652 0.004163742 0.0011948436 -0.0021221065 0.0023706006 -9.864336e-05 -0.00060939137 -0.001002125 0.0049478635 0.0010334481 0.004770317 0.0009309412 -0.0033891285 0.003729594 -0.00069660414 -0.00011611404 -0.0039932947
[one] 0.0010983809 0.0006146566 0.00029037194 -0.00079984125 0.0047857687 0.00044630235 -0.0009233868 -0.003460621 0.0040301317 -0.001278 -0.0011597031 -0.004234625 -0.0015528363 0.00071694003 -0.004767692 -0.0043508997 0.0027727713 -0.000529638 0.0023973184 0.0040056165 0.0041416474 0.002612404 0.0042728884 0.0032793386 -0.0032005361 0.002018449 0.0006333911 -0.0026834512 -0.004152909 -0.0039427103 -0.0023805343 0.00032246998 0.0035671014 -0.004066138 0.0010538357 0.0005582301 0.004213323 -0.0048019313 0.001267652 -0.002924769 0.0033003595 0.0004925225 -0.004053629 0.00434977 0.00037658866 -0.0012629223 0.0016012168 0.0040189316 0.0032033157 0.0025850544 -0.0013855363 -0.0033183806 -0.002725253 -0.0024001156 -0.0010489952 0.0041734586 -0.0016891151 -0.004824536 -0.0023392707 0.00012541655 0.003438484 -0.0026497352 0.00032167695 -0.0009231786 0.000938009 -0.0046082744 0.004784409 0.0019506346 -0.002910524 -0.0025878763 0.0024421 -0.0020600331 0.0018686778 -0.0028916204 0.00012661563 0.00068479497 0.004877325 -0.00012201071 0.001993761 -0.0005335547 -0.0031990642 0.003953468 -0.0020479786 0.0036803735 0.0036602095 -0.002015506 -0.0012251888 0.004695542 0.001431976 0.0020288215 -0.0048198025 -0.00023514824 -0.0021824872 0.0022131605 -0.0044856323 0.0012224591 0.002687037 0.0045652054 0.003980048 -0.00035709376
[coffee] -0.0016314602 0.0038241716 0.000443229 -0.0016674465 -0.0038943856 -0.0006818087 0.0039536394 -0.0020255207 0.0046877433 0.0026968056 0.004928679 -0.0001370674 -0.0028223544 -0.0034323256 0.001808654 0.004152376 0.00074609416 0.0036027553 0.0020957096 0.00082068425 0.0029469915 -0.0028875838 0.00016375165 0.0030244216 -0.0021448457 0.00028728787 -0.0038314504 -0.000264538 0.002045753 -0.0009858338 0.0029996587 -0.00036659557 0.0002049231 -0.0011941767 -0.002141496 -0.004843951 -0.0011113042 0.004135195 -0.0013540261 0.0042935386 0.00035672262 0.0026251874 -0.0022122008 0.0021016342 0.001108034 -0.0005967044 -0.0032242094 -0.00064914115 0.004018659 -0.0021856702 -0.0004982138 -0.0018550158 0.0024121753 0.00014867308 -0.004913235 0.0049772346 -0.003410791 0.0006332677 0.0024379957 -0.0021967804 -0.0045337686 0.004707003 0.004973624 0.0035434254 -0.0016274685 0.0022064405 -0.0044058026 0.0024947166 -0.0005425899 0.0035981825 -0.0014214879 -0.0042026807 0.0040518334 0.004997652 -0.004783062 -0.0036182106 -0.0010273987 0.0026766257 0.0044084294 0.0007889648 0.0016748696 -0.0028238457 -0.001176114 0.0024509686 0.0019450188 -0.0049296627 -0.0025956135 0.0049322983 0.0046743574 -0.0025260407 0.003644023 -0.0008687903 4.7893263e-06 0.00073735556 -0.0007382077 -0.0015574831 -0.0015019095 -0.0024568683 -0.0037333285 0.003936652
[world] -0.0011058992 -0.0006131488 0.0038404334 -0.00023034355 0.0009673177 -0.0041855155 0.0011007851 -0.0010247608 -0.003432313 0.0032236725 0.0046209507 -0.0015391307 -0.00351266 0.0037412439 0.0011102026 0.0030536558 0.0033737738 0.0012670737 -0.0023751657 0.0021490017 0.004194592 0.003578987 0.0011843885 0.0041953893 -0.0036345052 -0.004198212 -0.0017782985 0.004986331 -0.0039071245 0.0016024299 0.0004506791 -0.0003262544 0.0012262529 0.004365339 0.004106991 -0.0018961919 -0.0010002553 0.0016094232 -0.0033130448 -0.0039382107 0.00064307963 -0.0002427916 0.0028641298 0.0007745726 -0.0017311417 0.0009266371 -0.0018932831 -0.0026909686 0.0017883708 -0.004165267 0.0028229961 0.0037329998 -0.0043743323 0.0031339098 3.1308737e-05 -0.002590614 0.0037739761 0.0024188105 0.0015213923 0.004879009 0.0042672427 -0.0036415933 -0.0031446647 -0.0021033066 0.0048877224 -0.0043336577 -0.0043386947 0.004569046 0.004872041 -0.004889769 -0.003247072 0.0045635505 0.0018007914 0.003634085 0.0029740985 0.00089726225 -0.0013132482 0.000935839 -0.0032801162 -0.0013390894 -0.0039226697 0.004664221 0.0034055542 0.004630219 -0.002538451 0.001138689 0.002845997 -0.0048424006 0.0018545394 0.0012225942 0.0013399613 0.0049327323 -0.0012345361 0.00188545 0.0038535008 0.0048677186 -0.0025658153 -0.0022398413 -0.00058404636 -0.00448091
[myshopify] -0.002692636 0.0015928284 0.0011622226 -0.001845479 4.238123e-05 0.001126173 -0.0002733958 0.0021918458 0.0025204876 -0.0007882742 0.0006322558 -0.00044262782 7.617334e-05 -0.0043904083 -0.0006606928 0.00020910986 0.0046533123 0.0021984475 -0.0040924633 -0.004888531 0.004693659 0.0033205636 0.0005212128 0.002913908 0.002781575 -0.0030407398 -0.0021828765 0.004794498 0.0007791789 0.0027959542 -0.00048842374 -0.00094758207 -0.0030901516 0.0044954075 -0.00330779 -0.0038520806 0.000891875 0.0005013989 0.0008795406 0.0036965227 0.0024119983 -0.0042173327 -0.004705457 0.0026937835 -0.004697907 -0.00334903 -0.0021927846 0.004401357 -0.0032827114 -0.0025391297 -0.002655283 -0.00070231035 -0.0025191163 0.0015993542 -0.0018494511 0.004987113 -0.0046478086 -0.0005039517 -0.0028492932 -0.0019405477 -0.004042221 0.00064031966 0.0028285338 -0.0009951494 0.004788678 -0.003858453 -0.0027106607 0.0034212703 0.0030694585 -0.0042316145 0.0011318638 -0.001535052 -0.0018137617 0.004463368 0.0047949655 -0.0048985654 -0.004097583 0.0034502167 0.0035750074 0.0010974677 0.0005755145 -0.0026520751 0.00075887935 0.0015772008 0.00047355285 0.004224738 0.0031222124 0.00027992064 -0.00087623904 -0.0011477827 0.0035787253 -0.0048170798 0.0026928862 -2.4219975e-05 -0.0016433238 -0.0034564703 0.0036956891 -0.0015580212 -0.0012011165 -0.0007239585
[pro] 0.0017503551 -0.0023969454 -0.004161243 -0.000716622 -0.00051136594 2.0842068e-05 -0.0010155975 0.0026807045 0.0025862101 -0.0021679031 -0.003712989 -0.004133313 -0.0040571294 -0.0026008415 -0.00071039144 -0.0028851007 -0.00389208 0.003053818 0.00048682746 0.003703542 0.0045585074 -0.00332999 0.0008532535 0.0038359007 0.0016890587 0.00394642 0.00042777695 0.0022200407 -0.0021218145 0.0014270935 -0.002480753 0.001465945 -0.0032365185 0.0010964889 -0.001086331 -0.0019944697 0.0028517116 0.00056203594 0.0012313803 0.0013842769 -0.0045725843 -0.0035949121 0.002911807 -0.001669554 0.002365068 -0.0039202804 -0.0010601343 -0.0043704445 0.0010677725 0.0005514771 0.003922919 -0.0004537427 0.004110881 -0.0031288224 0.00028937217 -0.0017076868 0.00068626413 0.0020441492 -0.0026099537 -0.00095706293 -0.0033382121 0.0043816753 0.00019673444 0.0013168738 0.00024060067 -0.0037148928 -0.00050657336 -0.0036559713 0.002452659 -0.0032054875 0.0016008304 0.0027744179 0.0013256292 -0.0031976239 0.0046909302 0.0017521703 0.0032052398 -0.0037118685 -0.0016483867 -0.0019705635 -0.0025591296 0.0028731022 -0.00022135628 0.0013925545 0.0034628827 0.0030245092 0.0048845587 0.0034109708 0.003688435 -0.0003705155 0.003908881 0.0017830576 0.0029169954 -0.004503232 -0.0046583246 -0.0035786289 0.004659103 -0.0026753373 -0.0048538772 0.0033442406
[jp] -0.0029465316 -0.0031577377 0.0038501313 0.00011426257 -0.0022701286 0.0046849186 -0.0033292351 -0.0045087975 -0.001364084 0.0011491263 0.0012913919 -0.00080329226 0.002763195 0.00026789494 0.004867182 0.002819077 -0.004809623 0.0044975346 0.002540655 0.0015470195 0.0003547226 0.0022480302 -0.0022889238 0.0019459212 0.0018914752 0.0019148225 -0.0028045194 -0.000105210114 -0.0010316758 -0.0027656853 -0.0013048477 -0.0045370087 -0.0005411231 -0.0010968959 -0.001639043 0.004451327 0.0015167771 0.0040833326 0.0030542621 0.0035033738 0.0033520665 -0.0002287142 0.00042696716 -0.0009915228 0.00035238126 0.0040763523 -0.0039647464 -0.0021482676 0.00049031246 0.002987953 0.0012759375 -0.0042576897 -0.00074284803 0.0047902437 -0.0024922967 0.0042245323 0.00490818 0.001484551 0.0010641264 -0.004879214 -0.0032398133 0.0006174254 -0.00274719 0.004895948 0.00085306447 -0.0035426472 0.0016229325 -0.0032277135 0.004983166 -0.002076943 0.0004775999 -0.0019345516 -0.0036304868 -0.00065020146 0.0018006237 -0.0019480842 -0.0045472444 0.00012971414 -0.0029384762 0.0046768347 -4.104711e-05 0.0021325694 -0.0040966347 0.0015253718 -0.004506339 -0.0024599736 -0.0030528945 -0.0029772494 0.0005659135 -0.0011849098 0.0008489089 0.0018630815 0.00429467 0.002085796 0.0012157368 0.003625879 -0.0007467093 0.0046326444 0.0018964214 -0.0034413892
[livejournal] 0.0038605426 0.0023444835 0.0016086544 -0.0039238194 0.0028083436 -0.0018341034 -0.0010838374 0.001956583 0.004107166 0.0044682426 -0.0049605602 0.0038474295 0.0009768349 0.00449967 -0.0044271844 -0.004729965 -0.00082420744 0.0019691293 0.0013315985 -0.00096801296 -0.0043285857 0.00046778005 -0.002724087 0.0043591885 -0.0027039098 -0.0011260647 0.0019232463 -0.0016183846 -0.00402464 0.002266326 0.004141896 0.003739437 0.0031430293 -9.703683e-05 -0.0042452575 0.0024349992 0.003475397 0.0013670521 -0.0033818637 0.0022212565 -0.0023251467 -0.0024262832 -0.002640485 0.0044217883 0.0043762047 0.00040503126 0.0035017617 0.0043176236 0.0024238457 -0.0043160543 0.0021200865 0.0038319658 -0.002214008 0.0042272545 0.0048297737 -0.003782925 0.002434908 -0.0046260655 0.0040425137 0.004598233 0.0019816495 -0.0018513154 0.0025033285 0.0016905437 0.00037039397 0.00034323568 0.0024710037 -0.002252751 0.0035482151 -0.0007964219 0.001074268 0.0045892466 -0.0029376918 0.0021723467 0.0034182323 -0.0022082394 0.0027010906 0.0011886037 0.0013975594 0.0014364962 -0.0046383063 0.004353266 -0.0013717627 -0.0013036816 0.0002893228 0.0018910072 0.0035719136 -3.5750214e-05 0.004289424 -0.0020685655 -0.0031769662 -0.0021485025 0.003490868 0.003919513 5.281251e-05 -0.004650818 0.0049991617 -0.0026249618 0.0044409735 -0.0009586294
[my] -0.0014066291 0.00013188459 0.0022500674 0.0018582158 0.00094193267 0.0037951525 0.00024279486 -0.002549076 0.0027037985 0.0007148031 -0.004982398 0.002308264 0.004572329 -0.002240917 0.0032107849 -0.0012664001 -0.0043006414 0.0035252962 -0.0011951714 0.001345803 0.0027391044 0.004662536 -0.0027216242 0.0038638553 0.0042495755 0.0040185545 -0.00025167176 -6.6678505e-05 0.0019703293 -0.0016484784 0.004439662 0.0037887413 -0.0029471857 -0.0015698737 -0.0029285299 0.000850576 -0.0014362275 -0.001575148 0.00030350033 -0.0010250486 0.0018170536 0.0014393996 0.0022718073 -0.00055155205 0.001158433 0.0026871283 -0.00049645593 -0.004524983 0.003181301 -0.00365934 0.0007971795 0.0037659053 0.0011964673 0.0008710236 0.00090236077 0.00091969734 0.0010822904 -0.0005698106 -0.0013824408 -0.0005131699 0.0008151997 -0.004992594 0.0024499134 0.000550142 0.0041218456 0.00067038555 -0.0049482225 -0.0017791085 -0.0014302975 0.0012537441 0.0043380726 0.0024678754 0.002775147 -0.0035905899 0.0046876753 0.0038440963 0.0019362033 0.0031722486 -0.0005210028 -2.139993e-05 0.003227286 2.733292e-05 -0.003321452 -0.002299357 0.001620342 -0.0043949336 -0.00033490546 -0.0041640527 0.0005182945 -0.0030592543 -0.00016940106 0.00058262283 -0.0045845658 -0.0032567792 0.0021037469 -0.0026694261 0.0037881648 0.0034056297 -0.0030639106 -0.0006599217
[azurewebsites] 0.00018397812 -0.00201235 -0.00037627108 -0.003973808 -0.0037699114 0.0021136804 0.0014881538 0.0014620293 -0.0010594153 -0.004269755 0.0024525574 0.0022970526 0.0047220727 -0.004542724 0.002579419 0.00037258863 0.00057526585 0.0040761856 -0.00025525875 -0.0015174102 0.0032938514 0.0044046612 0.0037693651 -0.0014288242 0.0011795564 -0.0035162263 -0.0013766836 7.8146346e-05 0.0039846776 0.0031277044 0.0022176206 -0.002054203 0.0013587368 -0.004472696 0.0006320537 0.0007422948 -0.0043839267 0.0031098137 0.0044727223 -0.002720325 -0.004375175 -0.0032977252 -0.004784325 0.0019662506 0.00041686418 0.004824453 -0.004919592 0.001474434 -0.0027576743 0.0028624758 -0.0036408515 0.004353406 0.0014439262 0.003464099 -0.0024699133 0.0029419074 0.00040791975 0.0016016341 0.0029333327 -0.0028566879 0.003531619 0.0033173254 0.0010420107 0.0014363755 0.0004758751 -0.0038030026 0.003729905 -0.0048917835 -0.0019675237 -0.0038845972 0.00023541274 0.003830756 -0.004836615 -0.0039994754 0.0004368322 0.0024666358 0.0027298657 -0.0027010166 -0.00019388739 0.00013509393 -0.003810247 0.0020048777 0.0031230655 -0.0046897703 -0.0040789754 0.0003321711 0.0005332078 0.0041562924 -0.0014462417 -0.003205896 -0.0007594144 0.0016481071 -0.004831266 -0.0009972258 -0.0034615318 -0.0040438753 0.0012833932 -0.004175125 0.0018093614 -0.004627256
[net] 0.0040508173 -0.0014582383 -0.0039662635 -0.0029274023 0.0029995246 0.004304003 0.0016084099 -0.0033573708 0.0007285094 0.002284993 0.002602974 -0.0034608487 -0.0034494519 0.0044340864 -0.0045344657 0.0032174569 -0.004407762 0.0019035642 -0.000121911056 0.0017028074 -0.0036368142 0.0014804313 0.004623916 -0.0011309963 -0.00028703222 -0.0036235396 -0.0011820071 -0.0029378473 0.0014322465 -0.0035670798 -0.0016079014 -0.0003503156 -0.0018932414 -0.00015803566 -0.0018905001 -0.0010488564 -0.0019144076 0.0032534413 -0.0021581207 -0.0015615737 -0.0049426095 -0.004098248 0.001965153 -0.00054366095 0.0042427285 0.00024919212 0.003365052 -0.003168798 0.0039802864 0.0042411443 -0.00049188174 0.0007237955 2.9143877e-05 -0.0001807767 -0.00034958543 0.0032578558 0.003321492 -0.0040497677 0.0013506482 0.0004732092 -1.3612676e-05 0.00417241 -0.004694149 0.0013400321 0.0016035158 0.0012555337 0.0040774066 -0.003267026 0.0035430696 -0.0015916913 -0.004530535 0.0044267084 -0.0007954468 -0.0016988176 -0.0046079126 0.0014134157 0.003323391 0.0022145775 0.0026635956 0.002153806 0.00037541846 0.0040368326 -0.0024876457 -0.0037690978 -0.0008816393 -0.0014922936 0.0029504187 -0.0032916237 -0.0043395893 0.0022248183 -0.0045842724 -0.00041893404 -0.004677064 -0.0038087629 -0.00035740575 0.004749803 0.00023630867 -0.0035375648 -0.0018125849 -0.00020048907
[a] -0.0036995313 0.0032993173 -0.00039379485 0.0007253615 -0.0036264686 -0.004806217 -0.0003438606 -0.004089773 -0.0009367275 -0.0035760235 -0.0035929012 -0.0049120327 0.0004947912 0.0033492455 0.0013478417 -0.0024659943 -0.004607908 0.0047017587 -0.0047646 -0.0016929328 0.0008697305 0.001014689 -0.0035756547 -0.00043993117 0.0037412746 -0.0033454995 -0.0037892603 0.0032215025 -0.00067250803 0.0006344891 0.003464166 0.0036486173 0.0020774133 0.0035446454 -0.00021356158 -0.002414323 -0.0022249997 -0.0018099057 0.0021827365 -0.004031578 0.0024707126 -0.00032643182 0.00069350516 -0.0026626862 -0.003039813 0.004976716 -0.0011311667 -0.0049222563 -0.00023941696 0.0012056828 -0.0032967688 0.0021543885 -0.0038872235 0.0004208805 0.003307376 -0.0020415299 -0.0039324937 0.002876087 0.0037941867 -0.0020279116 0.0006514047 0.00083192624 0.0009411359 -0.0015536619 7.260684e-05 -0.0005307249 -0.0046943063 0.0044575687 -0.002430982 0.004896802 -0.0016014939 -0.004526727 0.0037937183 0.0022306032 -0.0007578023 -0.0012410516 -0.0015411966 -0.004358276 -0.0018818527 -3.8996805e-05 0.0007654298 0.0005131229 -0.0029943227 -0.0008919542 0.0015072743 0.003428665 -0.0014518469 -0.003665642 0.0033657523 0.0040132497 -0.0019521879 -0.00096031185 -0.0018238544 0.0026643788 -0.0006900979 0.0024342686 -0.0005954178 0.0030039717 -0.0040927576 -0.00019811653
[la] 0.004263616 -0.0008189813 0.0019870047 0.002367165 -0.0033501298 0.0033232654 0.002201513 -0.0041108383 -0.0035478733 0.0010309415 -0.004632421 -0.0028921985 0.0027552336 -0.002680468 -0.002791773 0.0011578226 0.001835533 0.0013335389 0.0001376546 -0.003916763 -0.004165657 5.3377822e-05 0.004622735 0.0024490487 -0.002949189 0.0047947746 0.0028163828 0.0029524826 -0.0005040807 0.002424715 -0.0022014452 -0.00092817703 0.0024373508 -0.0015982245 -0.0042228675 -0.00084481994 -0.0013334323 -0.0012597216 -0.00089832535 0.0028689653 -0.00064841844 -0.0022314505 0.0008272785 0.0030699251 0.0013082074 0.0019935938 -0.0040643597 0.0032159956 -0.0033578873 -0.0046079718 0.0037635406 -0.0037887036 -0.0044696913 -0.0042751455 -0.0031827681 -0.00026560435 0.00300074 -0.0028020465 0.0028168196 0.003644676 -0.001727429 0.0025558923 0.0004729866 0.003025881 0.00066075986 0.0027704132 0.0044683535 -0.00020237127 0.00082546286 0.00169972 -0.003983972 -0.0024516315 0.0015477841 -0.003617056 0.002838822 -0.004018006 -0.0009758407 -0.001866936 -0.0013118535 -0.00048507098 -0.0019171906 0.004636216 0.004984063 0.00471305 0.00011530379 -0.00056493515 -0.0013586329 0.0009708367 -0.0024993585 -0.0025909655 -0.0029233473 -0.0011414771 -0.0024963457 0.0038182512 0.0026893984 -0.0036806392 0.003990108 -0.0035542916 0.00022143917 -0.00090707233
[touch] 0.00081686256 0.0040755793 -0.003702709 -0.0021070896 0.0024734745 0.0002543945 -0.0015709179 0.0015794523 -0.0006182445 0.0033250973 0.0013989932 0.004664995 0.0016833507 0.0015649986 0.002397541 -0.0045023514 -0.0019772118 -0.0047307014 -0.003100454 0.0009103012 0.0023903162 0.0040577063 -0.0043779574 0.0018961029 -0.00068073487 -0.0038803713 0.0044703474 -0.0033948217 0.004884569 0.0019965298 0.0022090254 0.0006237179 -0.00094500184 0.0035918886 0.0005301386 0.0031265635 -0.0047221435 -0.0016123557 -0.0029862027 -0.001798718 -0.00040392764 -0.000663741 0.0047955057 0.002920432 0.0026256884 0.0039352933 0.0041726837 -0.00062925695 -0.004077718 -0.0013279449 0.0026125866 0.0044596475 -0.004993688 -0.0049714064 0.002352883 -0.004830612 0.0018365276 -0.00094049284 -0.0033938605 0.0019304259 0.0019279053 -0.0006683343 0.00018707989 0.00080764666 0.004376118 -0.0019205897 -0.003023256 0.0035559684 -0.0044908137 0.0032470971 0.0030670632 -0.00038156798 -0.0028099888 -0.0015996294 -0.0019654506 -0.003324278 -0.0032942402 0.00044156006 -0.0018883699 0.0025101304 0.0016837013 0.0003950596 -0.0021923208 0.00448223 -0.0023876685 0.0012056846 -0.0030132532 0.0034972113 -0.0012367403 -0.0038551383 -0.0037425677 -0.0012995237 0.0039727343 0.0027905554 -0.0022114844 -0.0036380326 0.00087790657 0.0028929105 0.0007541515 0.0030932743
[vf] 0.004891553 -0.002881804 -0.0029679537 -0.0048940172 0.0024057222 -0.002501105 0.0008166777 0.00068722107 -0.0023359316 -0.00416912 0.002317384 -0.0024376803 0.0049889237 0.0029317578 -0.004622387 0.003453156 -0.00060217455 -0.004933638 -0.00092850626 -0.0045329905 0.00022376888 -0.0031758118 -0.0022205918 0.0009919237 -0.00035718316 0.003414439 0.0034678197 0.004332803 0.0015733959 0.00051395874 0.0034716 -0.0007683607 -0.0037850963 -0.0014945543 -0.0039137537 -0.0034557073 0.0014211559 0.0014439714 0.0041229865 -0.00012058392 0.0041981265 -0.0024943654 0.0022154949 -0.0026243436 -8.798577e-05 0.0033749677 -0.002227494 -0.003507328 0.0003627874 0.0021351255 -0.0015513164 0.003250096 -0.0017746137 -0.0005700821 -0.0015176928 0.0017051916 -0.0032931303 0.0017525684 0.0041836603 0.0008007861 0.0026779938 -0.0014409423 0.0017381716 0.0012513567 -0.0038287078 -0.00014937622 0.004964453 0.00458619 -0.0049193995 -0.0026135468 0.0047381185 0.0028501153 0.0048229704 -0.0015584505 0.0009894236 0.00297142 0.0011410415 0.004063909 -0.00082586333 -0.0022036235 -0.0035737455 0.0033483077 0.0032016616 0.0035477914 -0.0025134766 0.0046264017 0.0037540495 -0.003130606 -0.002852519 0.0013983375 -0.002582816 -0.0048678927 -0.0023798614 0.0012963777 0.0036678445 -0.00095192017 0.0036136312 -0.0024879468 -0.00046656048 0.0007144315
[altervista] 0.00022060564 -0.0032083974 0.0036821635 -0.0023286236 0.0009376593 -0.0031671196 0.00086619146 0.002030054 -0.0045496267 0.0018288088 -0.003502562 -0.00061165076 0.0012137354 0.0011794935 0.004017748 0.0047694873 0.0010664482 -0.0031895093 0.002924976 0.003391197 0.004407509 0.002447301 -0.004778473 -0.0025787156 -0.0008491636 -0.0011686813 0.00026331982 -0.0047747926 -3.3178367e-05 0.004117837 -0.0011863499 -0.0043869773 0.00068752887 0.0041050417 -0.0019163291 -0.0035442323 0.0013995748 0.002392136 0.0040941546 -0.0042939824 6.30985e-05 -0.0040076114 0.0047985623 0.001053167 -0.0033670783 -0.0030680674 -0.0045112357 0.0031910744 0.0013885768 0.003838962 0.0039517703 0.0009908737 -0.0036707353 -0.004846793 -0.0036316724 0.004943019 0.0027867686 0.0012683021 -0.0007205964 -0.0005244231 0.0026542894 0.00033372454 -0.0036189358 0.001828718 0.0029088426 0.0037874002 0.0004207692 -0.0041466523 0.0033589825 -0.004804788 0.0048426464 -0.0017892867 -0.0015242898 0.0028185965 0.0034956476 0.0015532547 -0.0043310076 0.0035178233 0.00018857 -0.0036199503 -0.00404712 0.002234683 0.0014963914 0.0019181883 0.002040435 0.001001033 1.8130522e-05 -0.00044913776 -0.0039239232 -0.0004270482 2.6169233e-05 0.0034012487 -0.0019045449 0.0043945387 0.003626774 0.0043485975 0.0041962126 0.0003342717 0.003886287 0.0015920736
[org] -0.00109819 -0.002192255 0.0016621347 -0.004982522 -0.004516027 7.916708e-06 0.00049310224 -0.0009636944 0.003058456 0.0011554249 0.0021580392 0.00042882934 -0.0034115831 -0.0033802849 -0.0005699913 0.004445631 0.0015882044 0.0006972677 -3.8325787e-05 -0.0039212313 0.0017898963 -3.6735553e-05 -0.0010251836 -0.0021794837 0.0025162445 -0.0045669437 0.0022167112 0.0048080487 -0.0020994628 0.0005942499 -0.0037522302 -0.0008386723 -0.0013624651 -0.0031114034 0.0036896206 -0.00057698553 -0.003384111 -0.00022997195 0.0014332952 0.0046731224 0.0033767857 0.0022962927 0.004953482 -0.0040338836 -0.00074354466 0.0009110961 -0.0021561824 0.004253559 -0.004535614 0.0040700166 -0.00012224633 0.003990285 0.004410075 0.004313087 0.0048220875 0.0038717268 0.0038064495 0.0034855874 0.0003200709 0.0037079528 0.00028732698 0.002333426 -0.0031540655 -0.0045197885 0.0018876344 0.0017461265 -0.0017529714 -0.0028907543 -0.00028042356 -0.0010793842 -0.004557819 0.0018110955 -0.00337395 -0.0038843495 -0.0040085753 0.0010103332 -0.0036770438 0.0027477555 -0.0023165154 0.0025415272 0.00084848516 -0.00458517 0.0023591635 0.0007515908 -0.0009810771 0.0038870797 -0.0012343908 -0.001305945 0.0017935405 -0.0033481908 -0.0006228392 -0.0037122034 0.0029962836 0.004694497 0.0010458343 -0.0038721608 0.00219933 -0.004022589 -0.0015528451 -0.0049133818
[store] -0.001654045 0.002561071 -0.0015819406 -0.004279255 0.00427912 -0.003593012 -0.0005563395 -0.002857217 0.004142943 -0.003094512 -0.0029774313 -0.0033374208 -0.0040922444 0.004724048 -0.0029592568 0.0042366358 0.0025440627 -0.003386253 0.004237106 0.0016093319 0.0028640917 -0.0038464162 -0.0021175276 0.0043136803 -0.004654935 0.002267065 -0.00326672 -0.0007062359 0.004839302 0.000576654 -0.0035670893 0.003992548 0.0021687527 -0.0029004663 0.0009709932 -0.0011676943 0.0039846506 0.0018673087 -0.0019937158 -0.001852606 0.0047446927 0.0012787799 -0.00425589 0.0011766525 0.0026349192 0.0021712016 -0.00267973 -0.00055946875 -0.0044087856 -0.0020629794 -0.00023199385 -0.0008532228 0.0019907146 0.0037391074 0.0016985615 -0.003793205 0.003543119 0.0037840642 -0.0015681076 0.0046366192 0.0024786694 0.0024289195 0.0013848231 -0.0041831816 0.0030451873 0.00054924143 0.0008370322 0.0013975212 -0.004529362 0.004268354 0.0006375951 -0.0014540076 -0.0025442815 0.0043944875 0.0013694651 -0.00058812974 0.0026076417 -0.004538589 -0.0016783469 0.0009947568 -0.0045833015 0.004714275 -0.0037935732 -0.003474797 -0.00035263365 0.002903686 -0.003334418 -0.0007891087 0.0044464506 0.0024342043 0.0041631022 -0.00028529577 0.0012575546 -5.6978315e-06 -0.00095780985 0.003710608 -0.0014518339 -0.0023421512 -0.00082057854 -0.004329288
[mybigcommerce] 0.0022860803 -8.316711e-06 0.0010146089 -0.0037484067 0.0028208457 -0.0040024687 -0.0022295183 -0.0027123503 -0.00493637 0.0048003783 -0.0028731136 -0.0033535897 0.0011407221 -0.0016575498 -0.0016157501 0.0007150634 0.004699357 -0.0024400258 -0.0006617303 0.0019021933 -8.318573e-06 0.0028542057 0.0012206049 0.0038261553 0.0026116017 0.0005064653 -0.0041623907 0.0027463776 0.0032655029 -0.001845004 -0.00060390076 0.0021314393 0.0010859384 0.0007305597 -0.00091273803 0.0037829438 0.0037097996 0.0012754328 0.0021521044 0.002251551 0.00078364415 -0.001532644 -0.001818921 0.0027105073 0.0047257366 0.004604229 -0.00096544577 0.0047917254 -0.0008214433 -0.0032862998 -0.0012769424 -0.00015346287 0.0009514098 -0.003347882 -0.0030993354 -0.0023842454 -0.0030606561 0.00078613264 0.0030528363 -0.003726886 0.0015339619 0.0007759165 0.0031624958 -0.0036724042 0.0024881265 0.00078650657 0.0037791356 0.0002925964 0.0010412503 0.0032148203 -0.0015907441 0.0014148168 0.0008778847 0.003190915 -0.0017250876 -0.004302178 0.0040568532 -0.0027378313 -0.00033608126 0.0013171392 0.002691825 0.0012461124 0.0036470965 0.00060488004 0.00035726838 2.0221341e-05 -0.002953869 -0.0042939396 -0.004690786 0.0018669055 -0.0011145836 -0.0014054794 0.0017504226 -0.004846731 0.002125483 0.0037362883 0.0005306583 -0.0006822157 -0.00092612905 0.003129513
[squarespace] 0.0022012717 0.0023744558 -0.00011461275 -0.0022922938 -0.0041440167 -0.004265027 0.0022528018 0.003388036 -0.0042125736 0.004762319 0.0046720114 -0.0008406341 -0.0036609422 -0.0024700142 0.0002589398 0.0047660703 0.0023139333 0.0043250658 -0.004525574 -0.00022447389 0.003572953 0.002748203 0.0049422123 0.002716723 -0.0025281482 0.0038177455 0.0012124977 0.0015114746 -0.0005008029 -0.001178782 0.00032064784 -0.0029647886 0.00095650135 0.0013158084 -0.0039827316 -0.0025155926 -0.0030851732 -0.002461437 0.004392078 -0.0009931815 -0.0023388367 -0.004699329 0.00089004217 -0.0021053033 -0.0034965854 0.0041862167 0.0026179128 -0.0029159253 0.0030073896 0.004710016 -0.0015224677 0.0036949972 -0.001777678 0.004036897 0.004220753 0.0007608072 -0.003948312 -0.004441942 5.3778756e-05 0.0034792917 -0.0025328624 -0.0008275821 0.0030743126 8.5311476e-05 0.0006192927 0.0002048593 -0.0017854315 -0.0019415533 0.0019394578 -0.0026422674 -0.00319198 0.004797742 0.0016947375 0.0036587873 -0.0011376082 -0.0003091963 -0.0019578808 -0.0033829943 -0.004204559 0.004458515 0.0006097392 0.00028536376 -0.0013353091 0.0009111725 -0.0036787782 0.0016849325 0.0037234891 -0.00034579076 -0.0018225068 0.0035643438 0.0019112318 -0.0045663253 -0.0010113353 -0.00019847928 -0.00086012064 -0.00014556991 0.00037409784 0.0025562877 0.0037339982 0.0013126992
[be] 0.00018585008 0.003856795 0.00060986914 0.00015454879 -0.0027744186 -0.0017751192 0.0002328027 0.0010567396 -0.0030934804 -0.0038654213 0.002529636 0.0024332423 -0.0022972804 0.0017854404 -0.0030288964 -0.0009481949 0.00091766426 0.0032427218 0.0024278164 0.0010132878 0.0013620341 0.0005357326 -0.0043912367 -0.00026452076 0.00091032917 0.0028229477 0.0023335833 -0.0032625878 -0.00026756758 0.0014162371 -0.0038484726 -0.00011814106 0.0009359191 -0.0009677098 -0.00016482174 -0.003613547 0.0019757892 -0.0037995405 -0.0013514513 -0.0006528767 0.0033382997 -0.0030271285 0.0046285437 -0.0019558584 -0.004864683 -0.0020780992 -0.0048578125 0.0013189409 -0.0012804924 0.00035489956 -0.00062149204 -0.0008846051 -0.0025186944 0.0046960674 0.000643814 -0.0007154136 0.0030749636 -0.002195105 -0.004528023 -0.0012425298 0.0018690182 -0.003932613 0.004632675 0.001334039 0.0011547636 0.0020438973 -0.003851062 -0.0010208022 -0.0043959115 -0.0018420469 0.0026625828 0.0035308115 -0.0024886006 0.0045507336 -0.0044988 -0.0006162836 0.0019430905 0.003516863 -0.00041881064 -0.0016192549 0.003914455 0.0001887409 -0.0042010555 -0.0013307689 -0.001557501 0.004595112 -0.00076997327 0.0019523096 -0.0010888381 -0.003967006 -0.0040923906 0.0007226602 -0.0016923845 0.0030506086 0.00037731044 -0.0017356318 0.0042506102 -0.00082910666 -0.00018797629 -0.0010452466
[online] -0.00067043817 0.0037568947 0.0024449723 -0.0038124076 0.0027222876 0.001842177 -0.00010537915 -0.0019218456 0.0009886711 0.004629464 0.0010355981 -0.0024710626 -0.0013438237 0.00038805883 0.0049771955 -0.0011428809 -0.0014418762 0.0003994489 -0.00255283 0.003965605 0.0029234048 -0.003945989 -0.0028886932 -0.004973086 0.0033654366 0.0014419095 0.00016820431 0.0028388035 0.0014370941 0.0014254106 0.0046977587 -0.00016630348 0.0008428432 -0.0037554041 0.0027645696 -0.0018620144 0.0019155364 0.0034463853 -0.0017135178 -0.0008991156 0.0039082505 0.0011566267 -0.003961006 0.0033343667 -0.0049020783 0.0012671608 -0.0034562475 0.0001313733 8.65804e-05 0.0014051376 0.00097486144 -0.0020296352 -0.0018321997 0.0030554356 0.0036293864 -0.00010914961 0.0015692641 0.0031264182 -0.004459916 0.0031942753 -0.0012319172 -0.0014116906 -0.0025994675 -0.004025443 -0.004806272 -0.0030596505 0.0048028026 -0.003370028 -0.0033130306 0.0013526739 0.0044284156 -0.001514843 -0.004888264 -0.0024401164 0.0035522245 0.0038973093 -0.004672706 -0.0023652767 0.0037301006 -0.00058615673 0.004637788 0.000801689 0.0006937515 -0.0035816217 0.0013198406 0.0011960464 0.0032149954 0.0012145047 0.00434954 -0.0041686106 -0.004842308 0.0015207045 -0.0013345308 0.0042038606 0.00047652284 0.0009635319 -0.0042385035 0.0005111657 0.0024577728 -0.00055132806
[in] -0.000857458 0.0010708026 0.00047932751 0.00440685 0.0022184337 -0.001985129 -0.0023434232 -0.0027869802 0.004603315 -0.0013939315 -0.004470127 0.004758496 0.0013324944 0.00091312453 0.0018533897 0.0021569324 0.0005186484 -0.001366741 0.0020557302 -4.5165885e-05 -0.004465768 -0.004708874 -0.0017163414 -0.000527177 0.00014422415 -0.002905318 0.0026587849 0.0039885994 -0.0019726711 0.0006255172 -0.0036244844 -0.0034730202 -0.001602903 -0.000234487 -0.0029864018 -0.0017668342 -0.0026185769 -0.0004279362 0.0017083101 0.004309224 -0.0007519596 -0.0006402582 0.0015366278 -0.004024817 -0.003054453 -4.5508612e-05 0.004533815 0.0013874201 -0.0018538767 -0.0028653776 0.002950444 0.00057618273 0.001405973 0.0019064178 0.0042374255 0.00401532 -0.002442528 -0.0028872006 0.00017905002 0.0040723104 0.0042438395 0.0033851732 -0.0035550129 0.00050855195 -0.0033510255 0.0032787928 0.0043804254 -0.0019961845 -0.0048002354 0.00487932 0.0023014597 -0.0040553776 -0.0025359439 -0.0017494911 -0.0020489262 0.0040840907 -0.003441448 0.0032362444 0.0014285515 0.0015921718 0.0015899241 -0.002003719 -0.0020278804 -0.00017379643 -0.0035839956 -0.0022996557 0.0020115552 -0.00093650585 -0.0022976606 -0.004616631 -0.0013575929 -0.002673339 0.004744787 0.0028378163 -0.004728104 -0.0031182992 -0.0023159485 -2.2684224e-05 -0.0025616377 -0.00041248044
[live] -0.004802734 0.0014684428 -1.8591993e-05 0.00032160757 -0.0037813198 -0.00044892076 0.0011768322 0.0015115193 0.004622479 0.0003642817 -0.003104676 -0.0049063526 0.0022573224 -0.00067332014 0.0019968217 -0.0034399938 0.00086023705 0.0041012783 -0.001861834 0.00091749616 0.0031484952 0.0010119737 0.00403756 0.003216599 -0.0039344765 -0.00045050122 0.003176773 0.0034175813 0.0019032108 -0.002695653 -0.0035237167 -0.00042666867 -0.0017652588 0.0014124624 -0.0026423847 0.00188985 -0.0021368242 0.003476983 0.0012355349 -0.0025788753 5.7948288e-05 -0.0005498715 0.002249505 -0.00035444694 -0.0015535771 -0.0039771944 0.0013857903 0.0039370228 0.0019025542 0.0032660672 0.0031599589 0.00066104485 0.0002366202 0.00084528746 0.0019463776 0.0008656401 0.001894183 0.0030079475 -0.0047750683 0.0011008596 0.0020121085 -0.0031980667 -0.004474465 -0.0033107465 -0.004352325 -0.0012726123 -0.0034513038 0.0013750494 -0.00058225216 4.532328e-05 -0.003043996 -0.00022052275 -0.0036331029 -0.0030504202 -0.0039070016 0.003276756 -0.0035090623 0.00012480794 -0.0023598187 1.758989e-05 -0.0020829863 -0.0017939729 0.000712899 0.0010145884 0.0010873522 -0.0024594383 -0.0047339085 0.0032592807 -0.0044207782 -0.0048036403 -0.0015777666 0.0024127178 0.0032676896 0.0039168736 -0.0021603978 -0.0020415443 0.0019901101 7.309858e-05 0.00013995357 0.004220116
[best] -0.00065777963 0.0034651347 -0.0022432297 -0.0010476313 0.0035795784 0.0024751783 -0.0037112809 -0.0036270367 -0.0027527541 -0.00404547 0.0017739134 -0.0026665276 -0.0048396545 -0.0043872595 0.0036860052 -0.002390698 0.0043648127 0.0028477851 0.0005927868 -0.0024912446 -0.0048401384 0.0023887162 -0.0031902129 -0.0010095751 -0.0030154197 0.0032922179 -0.002281971 -0.004305244 -0.0003260118 -0.0044987467 -0.0011790919 -0.0049119256 0.0019906485 0.00024993112 -0.003204435 0.0004177899 0.00401893 0.0019833301 0.0016951901 0.0024314313 0.0006526648 0.0029341653 -0.0033037341 -0.0012285148 0.001327821 0.002673138 -0.00020244671 0.0045206742 -0.0025103306 0.0017262371 -0.0043942765 -0.0007687048 0.0010186522 -0.0034528724 -0.0024026316 -0.0035539628 -0.0005796957 -0.00057900837 -0.0034321814 -0.0047401255 -0.0037156963 -0.0024536138 -0.00017357478 0.0025674724 0.004002476 -0.0026063013 -0.004079188 -0.002533934 0.004430768 -0.002242406 -0.0016320474 -0.0032062964 -0.0042435387 -0.002096685 0.004520435 -0.0021018176 -0.0025008058 0.0013794582 -0.0029895674 0.0040177954 0.0035829814 0.004007682 -0.0030187028 -0.0037076003 0.004071271 0.0029486194 -0.0002039671 -0.0018004775 -0.0011005849 -0.0028654868 0.0017884672 -0.002803083 0.00066424767 -0.0028087352 -0.003116876 -0.002568289 -0.0007248698 -0.0006818841 0.0034909872 0.00063954433
[good] 0.0020803176 0.0049975347 -0.0031237812 0.003323039 0.0009756116 -0.0043581105 0.0019364506 0.001352645 0.004702011 0.002028755 0.004744162 -0.001212402 0.0037593963 0.0033652931 0.00032948563 0.0010444159 0.0035478333 0.0010661399 -0.0046915733 -0.0004616119 -0.0032706147 -0.001558786 -0.00091931596 -0.0004528612 -0.0019069558 0.004358352 -0.00032496406 -0.00061937794 -0.003985725 0.0020745597 0.0023800689 0.002593168 -0.0049923533 -0.004159547 0.0018143142 0.0021282611 -0.00326262 -0.00057624513 0.0049962653 0.0020582997 0.003968169 0.00088705495 -0.0032093502 -0.0038962672 -0.0034271688 0.00282552 0.0043935627 -0.0012844682 0.0019285539 0.0006255857 0.004663771 0.0013255859 -0.0022688638 0.002020053 0.0012915554 0.0034789667 -0.0007059425 0.004790982 0.0011633467 -0.0030807995 -0.0008001183 0.0025051744 0.004052663 0.0020607347 -0.0032439798 0.0005509318 0.00064442214 0.004248876 0.00022131996 -0.0011069893 -0.0005831872 0.00048426306 0.0037552314 -0.003256827 -0.00026447466 -0.00022580987 0.0019972217 -0.0024758785 -0.003937372 -0.0018106054 0.00051536923 0.0012156926 0.0033515105 -0.004255877 -0.0032446575 0.0019860845 -0.0020586485 0.0018593771 -0.00041366508 -0.00078103365 -0.00252957 0.001027904 0.0049974015 -0.0049670218 -3.8860366e-05 -0.0026347255 0.0038788216 -0.0023784023 -0.0017781651 -0.001145361
[react] 0.0038378993 0.0020772093 0.0048436066 -0.0033107526 0.0049692746 0.0031068642 -0.0036549477 -0.002819613 0.004908072 0.0031463262 0.004115628 0.0006556995 -0.0016364097 -0.0048535983 -0.0033139419 -0.0045107845 0.0021796846 0.0012323828 -0.0027506566 0.0044923974 0.004355143 0.0043674214 -0.004954036 0.00415763 -0.00061299093 0.0035672756 0.0029822206 0.0048540346 -0.0019507462 0.004988391 -0.0028248404 0.0042431084 -0.004257319 0.0049011195 -0.0009300993 0.003643508 0.000913837 -0.0024537176 -0.0029881536 0.0026209434 0.004812707 -0.0010747365 -0.0035798936 -0.0007266253 -0.0031125944 8.005323e-05 0.002489515 0.00093481643 -0.00481839 0.0046683988 -0.0024545973 0.0038585914 -0.003179822 -0.00018795067 0.0026028608 -0.0041218884 0.0024989746 -0.0017578751 -0.00023976387 -0.00029048324 0.0047161933 -0.0007023425 -0.0025168364 -0.0026230048 0.00021358626 0.004349731 -0.0045426283 -0.004482879 0.0020300262 0.004050254 0.002431815 -0.003944863 -0.003205828 0.0032294495 0.0042844396 0.0047479896 0.0042363433 0.004988405 -0.0010786569 0.00117575 -0.0027304494 -0.0010436215 0.00016170368 0.0038424814 0.0048505003 0.0021989392 0.00219756 0.0024911133 -0.001250807 0.0034571476 -0.0039271717 -0.0041954187 0.0033230893 0.0036064917 -0.000247519 0.003837307 -0.002728713 0.004771256 -0.0034067677 -0.0009315945
[github] 0.0017692605 -0.00037814444 0.0045829983 0.0029284824 -0.002814884 0.0027055298 0.00045027304 -0.0018506586 -0.0021742384 -0.0036904365 -0.0013480883 -0.0015591984 -0.0046962923 0.0033280458 -0.0008368138 -0.0026199264 0.0023389775 0.004924123 0.0023612375 0.00095303403 -0.0025593669 0.0049069645 -0.0003911932 -0.00012029335 0.0015169345 0.0013371748 -0.0019527215 0.003685968 -0.0016908287 -0.0043117455 -0.0012058998 0.004557004 0.0021585585 -0.0044162804 0.00022115745 0.004819178 0.002878393 0.0042719664 -0.00080560567 0.0021231459 0.0039175972 -0.0027799702 -0.0036295305 -0.003756091 -0.0016095547 2.7203932e-06 0.0007929043 0.0011734152 -0.00038718153 0.00118367 -0.0048375577 0.00046886737 -0.0001721587 -0.0020203835 0.0024034367 0.002803058 0.0032552807 -0.0035138112 -0.0032616216 0.004751358 -0.0019116933 0.003869623 0.0020752405 0.0045800563 -0.0031455797 0.003228033 -0.00403714 0.0045368336 -0.0042078965 -0.0016358763 0.0035971599 -0.0042433557 -0.001064234 -0.0029970878 0.00085001206 -0.0021167265 0.0047988985 -0.00090876734 -0.0011168926 0.0025481516 0.0012961272 -0.004650363 -0.0038830508 -0.004125908 0.00046865223 -0.0014700163 -0.0043829894 -0.0024552601 0.0012148963 -0.0037979535 0.0007587625 0.004491657 -0.0040422063 0.0041395193 0.003180788 -0.0012482821 0.004912243 0.0040009823 0.0026481533 0.0022303988
[trading] 0.0024028374 0.00018033152 -0.0007484006 0.0030284766 0.002519507 -0.002692194 -0.00081831403 -0.0024653082 0.0019290387 0.0024767458 -0.004143078 -0.0043034214 -0.00253299 -0.0047952873 -0.0039041857 -0.0031170368 0.002999558 0.00058949646 -0.00049057184 -0.0025990587 0.0031345887 0.000669383 0.0012220372 -0.003499444 0.004350161 0.0024091457 -0.0034109014 0.0017457195 -0.0042844038 -0.0015100604 4.550256e-05 -0.0034585344 0.00448261 -0.004972697 0.0007672077 -0.00036099693 -0.0037612652 0.0041030897 0.003181382 -0.00046629785 -0.00036262767 -0.0048188 0.0039422093 -0.0010320437 -0.004588479 0.000814348 0.0035586972 0.0004151035 0.003173679 0.0031210845 -0.0020441865 -0.0014003871 -0.004418505 0.0041699493 -0.002526111 -0.0040874192 -0.004722962 0.0016983277 -0.0002059578 0.0045750905 -0.0027595228 0.004273276 -0.0049725072 -0.00070393784 0.0024682293 -0.004610865 -0.0026230896 -0.0049116006 -0.0030662296 0.0045757564 0.0019012941 -0.00077401707 -0.00215244 0.0028446624 -0.0018304575 -0.0028738999 -0.0012681591 0.0032113874 0.0015171622 0.003486747 -0.0023834573 -0.0046208333 -0.004260125 5.6918245e-05 -0.0022071027 0.0016832692 0.0025148732 0.00024391338 0.0042207344 6.7252666e-05 -0.0040534697 0.0016108262 -0.0019957602 -0.0027376215 -0.00043702917 -0.002138027 0.0030854717 -0.0012456286 -0.0007744902 0.0007841415
[new] 0.003456966 0.00053777266 -0.0015956687 0.0020220918 0.0004919623 -0.003477316 -0.004332523 0.001302422 0.0017786985 0.0005359631 0.0016933507 -0.00181252 0.0022956845 0.0031854333 0.003166236 -0.0046664225 -0.0034024124 -0.0006695916 0.0034456905 0.0019764435 0.0031935154 -0.0048148525 0.004567301 -0.0045342725 -0.0015806984 0.0041589756 -0.0012478644 0.0016071051 0.0048509957 0.0026627188 -0.0040871985 -0.0022647316 0.0024202466 -0.00035993056 0.0006281291 -0.0041619805 0.004147591 -0.00042422256 -0.0017222874 0.00044554332 -0.002032386 -0.0014664745 -0.0030229723 0.0005210461 0.0010258616 -0.0019774127 -0.004650384 -0.0014877946 0.0027569602 -0.004871765 -0.0015993989 -0.0031071226 -0.0002129809 -0.00050818315 0.0026627872 -0.0031714146 -0.004730796 -0.00056813704 -0.00056118565 -0.000512694 0.0021643457 0.00024807453 0.00047390815 -0.0040662987 -0.0021975087 0.0019780817 -0.0039974973 0.0026246458 -0.004152966 0.00020387815 0.0040279627 -0.004349011 -0.001436109 0.0032761078 -0.00075601414 -0.0002930872 -0.000891611 -0.0010292823 0.00028067688 -0.003622468 0.0009802454 -0.0037589234 0.0044335388 -0.0011414038 0.002186427 -0.002619803 0.001171615 -0.004373036 -0.0012205159 -0.0026323425 0.0046982197 0.0033711307 0.00070525706 0.0030450337 -0.003274724 0.002137933 -0.0023107152 -0.0023208302 -0.0012975591 -0.0049178856
[templatesyard] -0.00205567 -0.0032895743 0.0037246402 0.0011533117 -0.0013467933 -0.0013348735 -7.5951684e-05 -7.537287e-05 -0.0015728397 0.0042159045 -0.0039134542 -0.001634218 -0.00064373435 0.0037848689 -0.00037487503 0.0036718948 -0.00447263 0.00038464135 -0.0048100096 -0.00447787 -0.0012656867 -0.0016870946 0.004094933 -0.002539056 -0.0030063884 0.00376188 -0.00090623694 -0.004791855 -0.004170869 -0.0023086702 -0.0043748175 0.0018322067 0.001478319 0.0026333123 -0.0046519344 0.0049330313 0.0044076135 0.0032872213 0.0026028133 -0.0048297835 0.0025081704 -0.0014192068 0.0017112964 -0.0029407674 0.00035159336 -0.0013005512 0.003245837 -5.431287e-05 -0.0013255458 -0.0049348823 -0.0011207759 -0.0025143463 0.001942839 0.00018720934 -0.0030953204 0.0011560931 0.0035875002 -0.0042919684 -0.0019927747 0.00083954446 0.003968655 -0.004155936 0.0030970266 -0.0036625676 0.0040148664 0.0040572323 -0.0033105956 0.0039190557 -0.0013159262 -0.0005597882 0.0017638505 -0.0006487793 0.0002658749 -0.0014275615 -0.0031445008 -0.0045920894 0.0038212491 0.003503777 -0.0009960518 0.0008926713 0.0045777233 -0.00291488 0.001747394 -0.0028639883 0.0040978324 0.004398577 0.00095274067 0.0041302303 -0.003396375 0.0047030635 -0.0045320955 0.0007435675 -5.766144e-05 -0.00023374846 0.00055078557 0.0043204026 -0.00045481604 0.004832806 0.0025670524 0.0018829154
[dot] 0.0045508007 -0.0031372677 -0.0046945917 0.0023345198 -0.0024182503 -0.0028517044 0.00088230474 4.6290923e-05 0.0042151883 0.003158724 0.0018836353 -0.0012565278 0.0032951161 -0.0039784433 -0.0025653355 -0.00020850357 0.0033502933 0.00420826 -0.0046090875 -0.0021426552 0.004987926 -0.0009687855 -0.0029506118 -0.0022367053 0.0041969856 0.004987807 0.0010599019 0.004931475 -0.004799552 0.00041370234 -0.0036925154 0.0031963568 -0.004270696 0.0043781875 0.0027426765 -0.0015112287 -0.0022538614 0.0005812561 -0.0029980582 -0.0031131208 -0.0033002398 0.0022644247 -0.0049986057 0.00097341696 0.0040927725 -0.0038856426 -0.0045956927 -0.000866584 0.0045488263 -0.0005641687 0.0017655487 0.0044308687 0.0033176336 0.003060055 -0.0047388063 -0.001522373 -0.0037790067 0.003972782 0.003948101 0.0039809486 -0.0018922794 -0.0010930956 -0.0034013987 -0.0018249173 -0.0020479262 -0.004468126 0.0037812302 -0.0025320596 0.0042597475 0.000567229 -0.0021601783 0.0031366386 0.003562875 -0.0038757592 0.00076917047 -0.003478986 -0.0035636006 -0.0012715184 5.8687758e-05 0.00084000453 -0.0029665744 0.0044271667 0.001006301 -0.00035416288 0.002163556 -0.0027430032 0.0047796834 0.0038750758 -0.0023602615 0.0045709834 0.0011053975 -0.004430621 -0.0029096485 -0.00051586283 -0.004176149 0.0039204136 0.0019644806 -0.0027452956 -0.00403432 0.0027713198
[appspot] -0.002088694 0.0049041985 -0.001826161 -0.004733512 0.0022413335 -0.0002933289 0.004402834 -0.0019176186 0.0043760305 0.00080939056 -0.0003292244 -0.004392003 0.00018896721 -0.00318928 0.0007088566 -0.0007886016 -0.004810152 0.0041903555 -0.0036392687 0.00019965507 -0.0032487838 -0.00029237987 0.0045125503 0.004396368 -0.00012285402 -0.00033050217 0.00019143242 0.0018146373 0.0009806948 0.00019951351 -0.0012797362 0.001717533 -0.00422517 -0.00312582 0.0001936648 -0.0017361415 -0.00065742433 -0.0022475654 -0.00090616895 0.0001057582 0.0010865424 -0.0035446333 0.001600448 -0.004430758 0.00097598275 -0.0017811828 0.0034540584 0.0040685665 -0.0037998902 0.0039469292 0.004709567 -0.004889897 -0.0027764088 0.004469692 -0.0024791448 0.00021234155 0.0015230877 -1.08643435e-05 -0.0047318307 0.0026446367 0.0035994928 -0.0014520425 -0.0026198244 0.0021462226 -0.0026462595 -0.0029861908 -0.0022547138 -0.00092675816 -0.0013652234 -0.004166873 0.0018034563 0.0047971867 0.0013280232 -0.0005004094 -0.0007954966 0.0006627869 0.0014168881 0.0016067922 0.0047000144 0.00021206448 -0.00085423095 -0.0043885824 -0.0033851457 -0.002123438 -0.0020025377 -0.0046776934 0.004072248 -0.00059838826 -0.0005109655 -0.0010982603 -0.0007539098 -1.8243678e-05 0.00425966 0.0017287503 0.0039289417 -0.0048852134 -0.0038022255 0.0010189693 0.0028180126 0.0008454984
[weebly] -0.0027377396 -0.002339329 0.0005087326 0.0029515466 -0.004625449 -0.0024279403 0.00075567793 0.0025550257 0.0010807049 -0.0019077063 -3.7788413e-06 0.0048015323 -0.0047478788 0.00089175394 0.0022621183 -0.0027002315 -0.0016953319 -0.0016783506 -0.0022969507 -0.0011921548 0.002503451 -0.001967787 -0.0033007483 -0.004618058 -0.002807242 -0.003327093 -0.00041171722 -0.0020218324 -0.00452897 -0.004067622 0.0027991985 -0.0040592323 -0.00084595894 -0.0049803234 -0.0049154633 -0.001969475 0.0035914453 0.0012801676 -0.003060702 -0.00018011685 0.00029201852 0.0045721205 -0.0038681983 -0.0018985344 0.0037618224 -0.0017576313 -0.0030002366 0.0041043414 0.0029289294 -0.00068962947 -0.00016679941 -0.0016047596 -0.0045121745 0.0014261133 -0.0033113074 0.003458349 -0.0035369461 0.0033727922 -0.004532224 -0.0009070849 -0.0048902486 -0.0024113297 0.0020031445 0.0032384153 -0.002483068 -0.0003484441 0.0047627836 -0.0009722025 -0.0011917262 0.0032459768 -0.0027124668 0.0046602134 0.001720503 -0.0043479074 0.002863247 0.0049230447 0.0049491087 0.00284224 -0.0011724341 -0.0016153306 0.0003395914 -0.0048982482 -3.3985823e-05 0.002172398 0.0042656725 0.0012460947 -0.0029287438 0.0019657374 -0.004396255 -0.004757824 0.0008523674 -0.0003475938 -0.001062117 -0.0008538533 -0.00033410825 0.0038633635 -0.0029738615 -0.003430239 -0.0012061298 0.0028492268
[portal] -0.0009440766 -0.0025441826 -0.0013181972 -0.00021459954 -0.0008008913 -0.0047275773 -0.00056189764 0.0009951396 0.004578327 -0.000110960566 0.0040913066 0.004054496 0.00086382404 0.0016681408 -0.0020378614 -0.0023602736 -0.0012523169 -0.0011983162 0.0039513996 -0.0046191234 -0.00096767116 0.004867845 0.0034053717 0.0012709624 0.0016418039 -0.0012734609 0.003640283 0.004940737 -0.0048979945 0.002378068 0.0048825927 0.00014301576 0.0012801411 -0.0020899104 0.002754759 0.00029596128 0.0032169623 -0.00076220883 0.0010433639 0.0023709158 -0.00030451315 0.0001700474 -0.002389211 -0.001339941 0.004056981 0.0041813357 0.0030561853 -0.0033843773 -0.00031548785 0.0021184352 -0.00326317 -0.0046670916 -0.0016252403 0.004565876 0.0031823209 -0.0017779691 -5.926052e-05 0.0007786951 0.0005823462 -0.0021285778 -0.0013578606 -0.00088978466 0.00090205716 0.0026441114 -0.0045506093 0.0026775878 -0.001524834 -0.0019116395 -0.0020408344 -0.0031248599 -0.004473996 0.001389435 0.0007575201 0.00040253438 -0.004700157 0.0023481338 0.00059137866 -0.0043053846 0.0023560948 0.001775044 0.002579474 -0.0035182158 -0.00018358603 0.0048968485 -0.00470443 0.0024042707 0.00022720732 0.0006460012 -0.003301903 0.0021735881 -0.004884532 0.0006316812 -0.002215973 0.0028529726 0.0026892433 -0.0042157136 -0.0004694839 0.0035990002 0.0028185397 0.00015633088
[ru] 0.004833835 -0.0029247904 0.0028885836 0.0047723604 -1.256587e-05 -0.0018064636 -0.0012074786 -0.0015452963 0.0013998551 -0.0009813295 -0.0023905342 0.004870983 -0.003357709 -0.0023502605 0.0016207881 -0.0017842166 -0.0033494616 -0.0042348783 -0.002447217 0.0014819908 -0.0017396105 0.0019565392 -0.0036669075 -0.002439808 0.0005998574 -0.0011309092 0.00018854672 0.0013308506 0.004743782 0.00043557305 -0.0024182033 0.0005208659 0.0041521294 0.0030044634 0.003413165 0.0013460265 -0.0001463606 0.0035423432 -0.0016069363 -0.003911038 -0.0008111894 0.004130571 0.00075157126 -0.0020996623 0.00090147136 -0.00394228 -0.0027793937 -0.0017348207 -0.0047419504 -0.002077086 0.004430958 0.0017162664 0.00321389 0.0018600654 -0.0035445932 0.0013058363 -0.0039140563 0.004108565 0.0039239665 0.0009353184 -0.0030718432 -0.0035520322 0.0005460954 0.0040108375 0.0029416308 -0.0005204729 0.0011020913 -0.0023591197 0.0023958976 0.00092284894 -0.0007728357 0.0013963268 -0.004541747 -4.3787993e-05 -0.0005412088 -0.0042858105 -0.004855667 -0.0039007799 0.0020943983 0.0021631317 -0.0030780875 -0.0018078142 0.0019251243 0.00061059464 -0.0035479884 0.004728563 0.0017370856 2.8181821e-05 -0.0013850385 -0.0016051738 -0.0031628702 -0.003178882 0.0040747253 -0.0048593534 -0.004601191 -0.0038295393 -0.0037975537 0.0006483663 -0.0035158521 0.0035989154
[care] 0.0043214103 -0.00138094 -0.0032037366 -0.00441642 -0.0043554367 -0.0039629857 -0.0030465317 0.0038227392 -0.001348343 0.0035890918 0.0038238904 0.001980579 -0.003186819 0.0010023797 -0.002641666 -4.9772672e-05 -0.001567825 -0.0012761981 0.00010693772 0.002406186 -0.00036216015 -0.0045116288 0.0026020873 0.00020631729 -0.0042144894 0.0041688327 -0.0023791033 0.0010827724 0.00204515 -0.001305422 0.00041636266 -0.0022897618 0.002870651 9.891391e-05 0.0018877606 -0.003404369 0.00061537046 0.0037856633 -0.0018918358 -7.3540024e-05 -0.004529128 -0.002619058 0.0018877033 0.004823786 0.0044162767 0.0007966822 -0.0035503078 0.0027914285 -0.0011296528 -0.0012264382 -0.0028855274 0.0045399303 0.0013301247 -0.0033446979 -0.0018742143 0.002974309 -0.0011584752 8.219853e-05 0.0037951302 -3.193505e-05 -0.0012247134 3.880961e-05 0.0024131914 -0.0044018975 -0.001097464 -0.00076306285 0.0040732203 0.003922499 -0.0009894683 0.0029714378 0.004740348 -0.0017503118 -0.0023293996 0.00076691573 0.0010906523 -0.0015186328 0.0034686187 -0.0019761836 -0.0016111212 0.00043217838 0.0032481356 -0.00095652184 0.0030497536 0.0027546776 0.00022452837 0.0011840225 0.0006215554 0.0007357858 -0.0002079485 -0.0027504729 -0.0029981732 -0.0049180454 0.0017071939 -0.003355736 0.0020035445 -0.003875553 -0.0021773356 -0.00450443 0.0029896274 -0.0013184154
[n] 0.003135073 -0.0017131048 -0.0036173123 -0.0035683895 0.0037575746 0.0007744287 -0.004428157 -0.0038758162 -0.003946826 -0.0038982574 -0.00053478545 0.0049074525 0.0017549861 0.004341739 -0.004605892 0.0026489948 -0.0039178864 0.00062556705 0.0006506378 0.0028903065 0.0018471251 -0.00035675988 0.0049714055 -0.003385887 -0.0014736699 0.0012832903 0.0048973896 -0.00044383248 0.0033177221 -0.0012724865 0.0042830454 -0.0017001694 -0.0013731474 -0.0029546523 -0.003260867 0.00023819087 -0.002832997 0.0022974322 -0.004381781 -0.0029882751 -0.0036526388 -0.0035803723 -0.003300657 0.0049863793 0.000398919 0.0005960567 0.0032767998 -0.003435412 -0.0029339874 -0.0046754405 -0.0035819225 0.0022006286 0.004956736 0.0031152023 -0.00068034744 0.0031042844 -0.0019126611 0.0005939575 -0.0048659253 -0.0021317238 0.0017798315 0.0036203517 -0.0024671506 -0.004973042 -0.0048033856 -0.0028665918 0.003250164 -0.0016524487 -0.0037384205 0.0010956242 0.002395743 -0.0023539972 -5.5982266e-05 0.0027236636 -0.00269576 -0.0024135988 -0.0017160063 0.0018598586 -0.0036108945 -0.0015549909 -0.0037492393 -0.0032398682 0.00092544174 -0.0038439613 -0.0029122 0.00047985557 -0.0025725316 0.00054315757 0.0044622812 -0.0023934192 -0.0027575402 -0.0034045272 -0.001914094 0.001765504 -0.0013333177 -0.0027940713 0.00013087876 -0.0013939135 -0.0020998954 0.0046343068
[ticket] 0.0030291332 -0.0015684199 0.00065648416 -0.0020707212 -0.00045936322 0.0013036327 -0.00452704 -0.0020024008 -0.0030795038 -0.0014281778 -0.002955559 -0.0022951728 0.0039664023 0.0013960986 -0.002569726 0.0034208316 -0.0030328631 0.0022966093 -0.0046466896 0.0012979964 0.0006497782 0.0023284256 -0.004056718 -0.0017816848 -0.0039336137 -0.000762471 -0.002419468 -0.003658881 -0.0040045963 0.001983806 -0.0029733735 0.0040777577 0.0041751983 0.00031928718 0.0012415564 -0.0017608935 0.00086379517 8.9905225e-05 -0.004716355 -0.0049109566 0.0036621485 0.0006771297 0.0034959298 -0.0027925265 -0.0046482114 0.0031780647 0.004262357 0.000832689 0.002146394 -0.0004896987 -0.0025154536 0.0012987619 -0.0038325517 0.0033019148 0.004176299 0.0014711428 -0.0036218814 0.0036596218 -0.003549456 -0.0035362213 0.0028828671 0.0037269387 -0.0024086863 0.0008535539 -0.0007459419 1.859432e-05 0.0030533085 -0.0021501768 -0.00053111743 0.0024950705 4.139403e-05 0.0030140933 0.0047277454 0.004106554 0.00032269582 0.0036400212 0.0030133436 -0.004023363 0.003957226 -0.0020135604 -0.0021188157 0.004025148 -0.0027768367 -0.0035701925 0.0042519905 -0.0044539757 0.0021914952 -0.0032830327 0.0036049178 0.004896016 0.0019510845 0.003542276 -0.0031876427 0.00042085117 -0.0008557243 -0.0043240264 -0.00069941534 -0.0015371824 0.0016914308 0.0024964064
[fashion] -0.00014303066 -0.0038117561 0.0014113612 -0.00050313724 -0.003976478 -0.004578563 -0.0036239517 -0.00013210019 -0.0042657987 0.00055601215 -0.0027763485 0.003806007 -0.004688102 0.004728929 -0.0017118393 0.0023548035 -0.0012647575 0.00062956056 -0.004987281 0.0027879397 0.0038266582 -0.0045092003 -0.003995924 0.0028773323 0.0001322329 0.0041488735 -8.221436e-05 -0.002944026 0.0037118122 -0.0017331606 -0.004572639 0.0005050353 -0.0018761354 -0.000812029 0.003650262 -0.0038559372 0.00063000247 -4.0027313e-05 0.003911756 0.0017929147 0.001446241 0.0017239577 -0.0017389774 -0.004888737 -2.3884699e-05 1.4873222e-06 0.00044471212 0.0034161285 0.0018889839 0.0041331407 0.0047179647 0.00093856873 -0.0006791288 0.0003199284 0.0042190673 -0.002553249 0.0047844416 -0.0011669409 -0.0044756513 -0.001352849 0.0039344924 0.0028511537 -0.003923854 0.0021728892 0.0029348908 0.0049771555 0.0046401555 0.00030041672 0.0020565186 0.004467003 -0.003454778 0.00088604447 0.0012367107 -0.0041282997 -0.0030239986 0.0009651715 0.0036306325 0.003728725 -0.00222695 0.0037721153 -0.0006525568 -0.00054938905 0.0015524919 -0.0008344953 0.0005996567 0.0024703378 0.002672474 -5.4907054e-05 0.0038965829 -4.234258e-05 -0.0013015801 -0.0010399972 -0.00010692421 0.00093890727 0.001893722 -0.004182522 -0.00086601684 -0.0010942118 0.0015025339 -0.0047885273
[street] 0.003970094 0.0039306683 -0.0012179445 0.004242369 -0.002334482 0.002806297 0.0035137571 0.004662187 0.0010939888 0.0030179955 0.0033568237 -0.0014661681 -0.003459786 -0.0029707812 0.0049529225 -0.0044891415 0.0010161917 -0.0006366507 0.0035068598 0.0045175618 0.0013112328 0.001382166 -0.0013872343 0.0040515875 0.0039072093 -0.0027467024 -0.00041916966 -0.0017764503 -0.0012112875 0.00024800934 -0.0049849246 -0.0004234407 -0.004300217 -0.003599808 -0.00066894013 0.0032422375 -0.0015071367 -0.00049175974 -0.0043809544 -0.0030687898 -8.7385066e-05 0.0033710608 -0.0039209835 0.00026948377 0.0033731982 0.000799194 -0.0002734 0.0032892153 -0.0044506197 -0.001694818 -0.004574889 -0.0037447708 0.002680217 -0.003214886 -0.0022923218 0.0033977982 -0.001957295 -0.003190242 -0.0036994205 -0.0040423325 1.614634e-05 0.004520516 0.004689292 0.0041202568 0.0044312747 0.00077906204 -0.0005312776 0.001036136 -0.0014893466 -0.00057825306 0.0036521005 0.0031278795 -0.0030797422 -0.004616278 -0.0039024735 0.003081398 -0.004787672 -0.00040526642 0.004615915 0.0040724883 -0.0023602955 -0.0028424882 0.00077704806 -2.3533124e-05 0.0017846394 0.0029729959 0.0016050613 -0.0038256375 0.0033780169 0.00028398074 0.0027496093 -0.0031657903 -0.0010637096 0.00058405334 0.0021869647 -0.0041430187 -0.0027356313 0.00140303 0.0011793063 -0.0018354375
