1066 100
[gob] -0.41297588 1.0 -0.5685492 -0.6192341 0.24483143 0.71443975 0.50860226 0.16770767 -1.0 0.6691833 0.7592007 0.20572604 0.22044945 0.8390383 -0.15142375 0.5 0.28291088 0.049683176 -0.41717175 -0.7716739 0.6949486 -0.11883472 0.73541397 -0.25432694 -0.25 0.15817729 0.12860991 0.23853064 0.43642116 0.32295725 -0.54157096 0.047362138 -0.060671348 -0.35657573 0.9737426 -0.0625 -0.27763948 -0.009975825 0.16144264 -0.31617492 0.25427246 -0.10823515 0.07295603 -0.07066296 0.4472307 -0.8191592 0.8347926 0.11164978 1.0 0.7328476 -0.73290026 -0.41026786 -0.95064735 -0.93346214 -0.16144663 -0.26701877 0.996284 0.71359277 0.5824548 0.15262127 0.6477991 -0.7877191 1.0 0.8502195 0.6796668 0.63807064 -0.2550316 0.2259191 -0.5086404 0.6743963 0.9919581 -0.35296023 0.4117054 1.0 -1.0161744 -0.469471 -0.40172902 0.7594892 0.20030995 1.0221431 -0.7892859 0.3721479 0.5320518 0.44893178 -0.95762724 1.0036513 -0.08123666 -0.9754305 -0.9753465 -0.6300986 0.33403224 0.59466684 0.5878872 0.83095056 1.0073972 -0.53504217 1.0420117 1.0163797 -0.834491 -0.030311
[es] -0.7348697 -0.5501495 1.0377115 1.0031916 -1.0 1.0077268 -0.23380154 0.27545977 -0.14510718 0.4766888 0.13264519 0.3390449 0.5170093 0.46147013 -0.9343153 -0.6605832 0.50150144 0.5 0.37217447 0.09900558 0.07018911 -0.51990896 -1.044957 -0.5 0.23941691 -1.0000763 0.9926975 -0.7094642 -0.42085412 -0.20038588 1.0492164 0.21112531 0.19722533 1.01796 -0.854984 0.09764037 0.6616613 -0.75393146 0.6968419 -1.0162275 -0.6779829 0.82254195 0.7191734 0.0933256 -0.5869532 0.3532616 -0.9203038 -0.5 0.888275 0.7491274 0.22502807 0.098064765 0.8302347 0.14291106 -0.004449554 -0.5705923 -0.17400306 0.098883525 -0.6608365 0.07292944 -0.46996152 -0.15988468 -1.0400021 0.95701796 0.69077414 0.098787166 0.59072036 1.0003663 -1.0383873 -0.7195784 0.6205474 -0.7908455 -0.647102 0.06350555 -0.6873222 -0.22852981 0.50047547 -0.82675886 -0.6508091 -0.16349459 -0.9068027 0.888275 -0.33443075 0.572708 -0.5108173 -0.10173363 -0.092516705 0.55582 0.43108124 0.94516826 0.7854976 0.21825103 0.8761506 0.38134485 0.83098453 0.3429021 0.3556035 0.29887676 0.2520008 0.6310165
[free] 0.0006082966 -0.003960139 -0.004495968 0.0007445826 0.002497431 0.0014151642 -0.0036495547 -0.0047720186 -0.00042127026 0.0011661323 -0.000202192 0.0023750053 0.0002154694 -0.0014699488 0.00407351 -0.003877834 -0.0023581171 0.0039343387 -0.0017831957 -0.0015542894 0.002693091 -0.0013355261 -0.00030392688 -0.0012516861 0.003524973 -0.0017062163 0.0014833342 0.00078349095 0.0049533816 0.0042942483 0.004396461 -0.00080681127 0.0038412577 -0.0013341259 0.0004263264 -0.00018634787 0.0014705174 -0.0022056478 -0.0019976948 -0.0027225798 -0.00495516 -0.0013428766 -0.004715317 0.0015347423 -0.0013326758 -0.00435191 -0.00018666033 0.0002485304 -0.004475289 0.0006222045 -0.0028086687 -0.0011835014 0.00065768184 0.0049124258 -0.0017906332 0.0033342084 0.0016752305 -0.004371228 0.00029645814 0.0029058615 -0.0012776053 -0.0012085515 -0.0011368264 0.004098472 0.0027741338 -0.0027494729 -0.0013765681 -0.0018206269 0.0009456305 0.0038641132 0.00078505324 -0.002450935 -0.0019406062 0.0021988028 0.00054203905 -0.004209687 -0.0015780544 -0.0018571955 0.00083854655 0.0026503508 -0.0039875302 0.0025929431 0.002715529 -0.0048517925 0.0019889148 0.00029462948 0.004495307 0.003321847 0.0036778906 -0.00059745833 -7.8077894e-05 -0.00056795124 0.0010647033 0.00068323733 -0.00023723347 -0.0028042863 0.002648103 -0.0024384356 -0.0015337819 0.004229351
[design] -0.0016178465 0.0046542333 0.0043898504 0.0010755854 -8.478947e-05 0.0010309815 0.003970148 -0.00416133 0.0038332948 -0.0007364941 0.0027300124 0.0027118712 0.0016206806 0.0024413434 -0.004268459 0.0012477171 0.00019778917 -0.0018057907 -0.001994109 0.0025856197 -0.0008895863 0.0036514653 0.0046136556 0.0043896176 -0.0007558693 0.0032522213 0.0018141796 -0.003686471 0.0023433845 -0.0024958444 -0.004349556 0.00085629476 -0.0014984363 0.00032212213 -0.004735454 -0.003831625 -0.0013640244 -0.00098299 0.0003770776 0.0045086136 0.0040219463 -0.0014105022 0.003936358 -0.0031098477 -0.0008739233 0.0049722986 0.0039866194 -0.0004562391 -0.0025902055 -0.0014450306 -0.004468481 0.0042555844 -0.0030413328 0.0035901526 0.001113411 0.0007536281 0.002287163 0.0043985266 0.0015156828 -0.001385513 -0.0012643605 0.0011850186 -0.0021723919 0.003864009 0.0003767945 -0.00196608 -0.0013207125 0.0009853072 -0.0025437807 0.0013778084 0.0037714718 -0.004030597 0.0014793933 -0.0030455606 0.0048487587 0.0041688466 -0.004756408 -0.00124907 -0.00073931227 -0.0048176665 -0.002838384 -0.0031252722 0.00052889716 0.0035270872 -0.0049702586 0.003256484 -0.0011449272 0.001503631 0.003663551 0.00219903 -0.0013064914 0.0032812515 -0.0022982256 -0.0006918772 -0.003874067 0.0019079866 0.0041052178 -0.0021645343 -0.004078471 0.004965298
[com] -0.002122243 0.0018080832 0.00078820717 -0.004297193 -0.00047502527 0.0019042795 0.002126562 -0.002627774 -0.0012242859 0.003802265 0.0042140735 -0.0019188703 -0.00029186206 0.004126669 -0.0028176312 0.004090624 0.001983292 -0.001306426 0.0033064643 -0.00046648132 -0.00078932475 0.00489428 -0.000100133475 -0.0012673461 0.0017000968 -0.0049750255 -0.004519203 -0.00018459186 0.004656966 -0.0013292695 -0.00034227967 -0.0007351176 -0.0017739898 0.0031843595 -0.0023990953 0.0009036581 -0.0038746432 -0.004073852 0.0041945633 -0.004493921 -0.0031790356 -0.004165595 0.002823336 -0.0048621683 -0.0034219557 -0.0027382837 -0.0023597782 -0.0026516896 0.0027893628 0.000493892 -0.0028441893 -0.004912105 -3.938563e-06 0.0035426067 0.0009998907 0.0049369866 -0.0026645248 -0.004116155 0.00050243177 0.0028990041 0.0012223572 0.0034076283 -0.0022726052 -0.0022589862 0.0027315784 0.002604694 -0.0010243505 -0.0048935325 -0.00019997591 -0.003623961 0.0002875547 -0.0031419978 0.0022741915 -0.0036085474 -0.0028206531 -0.0008988208 -0.0014191496 0.0022494448 0.0020595384 0.0031358255 -0.0014608533 -0.0029987937 -0.003482871 -0.004281857 0.0010486557 0.003418792 0.002509932 -0.0004497231 0.0005425662 -0.0028071331 0.0048304107 -0.0010583969 -0.004073967 -0.0016135222 -0.0021592772 -0.0008062888 -0.004570649 -0.0012601076 -0.004766674 0.004888092
[xn] -0.0016722619 -0.0016904497 0.0004837676 0.003909096 -0.0017322116 0.0023913938 -0.00038852915 -0.0011253958 0.0031309146 -0.0039184634 0.0015011919 -0.0021258139 -0.0035695178 -9.034295e-06 0.0027750246 -0.0005348651 -0.0014919573 0.0047794096 0.0021708054 -0.00079198135 0.00438854 0.0045559695 -0.0024327445 -0.0027030783 0.0033716746 -0.002042811 0.0019711643 -0.0022858493 0.003670888 -0.0033109146 -0.0017505074 -0.004831717 0.002732569 -0.0021858437 0.0025133328 0.0021510185 -0.003291512 0.0043018693 0.0015677726 -0.0020397073 -0.0026766437 -0.0017356842 0.0001208568 0.0006145346 -0.004607406 -0.003325215 -0.0010016686 0.004065764 -0.0034487802 -0.004158458 -0.00412957 -0.0033805985 0.0016074316 0.0040250355 0.00073989946 -0.00050649885 -0.0006960379 0.000524329 0.0023581581 0.0047941823 0.0006858534 0.0033381255 0.0027616369 0.0023943535 0.00092728063 -0.0025012481 0.0009714258 0.0041052178 -0.00063953456 0.001411038 0.0019747396 -0.0035083364 8.554943e-05 0.0039007692 -0.0016327566 -0.0037373095 -0.003549946 0.0019660234 0.003908068 0.0038466929 -0.0016640001 -0.0029152345 -0.0024464303 0.00023551285 0.0009179483 0.004141913 -0.0034364592 3.204774e-05 -0.00092539657 0.0023234752 -0.0047577545 -0.0039459486 -0.004189149 -0.0040664785 0.0017849403 0.00010671094 1.1166558e-05 0.0013093464 -0.0021272413 0.0042015156
[p1ai] 0.0037846006 0.004257242 0.00047188345 -0.0035455376 0.0033204574 0.00039353827 -5.6440942e-05 -0.004077475 0.0027510459 -0.0025803214 -0.0019094532 -0.0030666613 0.0017887806 -0.004059343 0.0026876945 0.0021375902 -0.00443378 -0.0014782709 0.0044213245 0.0015748842 0.0014940458 0.0017575752 0.0016513867 0.0048999563 0.002520963 0.0034751827 -0.0047353846 0.0019510901 0.0014938735 0.0020925705 0.00023931637 0.003448871 -0.0038910336 0.00011458155 0.0027573039 -0.003024172 0.0035994286 0.004220275 0.0038716067 -0.0025402117 0.0039705886 -0.0011723435 -0.0025226432 -0.0028334723 0.0030098064 -0.0033928715 0.0036029173 -0.0031229178 0.0043734265 -0.004774226 0.0006545014 -0.00449044 -0.0007359646 0.004074458 0.0008026068 -0.00012219558 -0.004111852 0.0013806028 -0.0021904348 -0.0034617328 -0.0028109895 -0.0039379536 -0.0005356069 0.0029067714 0.0033086678 0.0035279123 0.0004490628 -0.0009906809 -0.0027180777 -0.003744177 0.0029656515 -0.0034774463 0.0022866344 -0.0010568947 0.0047555817 -0.0012736637 0.0032903124 0.0023797755 -0.0031088758 0.00051615294 0.004757086 0.00065604225 -0.004842775 0.003503373 0.0034131315 0.0033274228 0.002453487 0.0049028983 -0.00073071895 0.001687922 0.0024771248 0.0031154817 -0.0029214877 -0.0008171224 -0.0018452227 -0.004591716 0.0018596817 -0.0033671544 0.00405965 0.0014481884
[uol] -0.0021345115 0.004614196 -0.003796793 -0.0027982735 0.0009788363 0.0014932412 0.0033618594 -0.004354092 0.004123967 0.0012325491 -6.951857e-05 0.00012816768 0.0013752682 -0.0043566893 -0.0048657786 -0.0026482975 -0.0024955778 -0.0016427964 -0.0026097142 0.00070327334 -0.0030651074 -0.0039884285 0.003208912 0.0035194885 0.00053117285 0.0014236653 0.00013568858 0.0015522069 -0.0019031048 0.004073809 0.00051010586 0.0009363238 -0.0029118275 0.0004164707 0.0005777078 0.00045611896 0.0020063836 -0.0038302832 0.0048876796 0.0008543539 0.0009221332 -0.003271032 -0.0045800186 0.0030943975 0.0029578954 -0.0032559852 -0.0027211313 -0.0029043816 -0.0023287213 -0.0013944565 0.0045129675 0.0049082907 -0.003987538 0.0026308047 0.0012768251 0.0036791684 0.0016530845 -0.0033939905 0.003381568 -0.0010193479 0.0033145454 -0.0015418243 0.0021558274 -0.0021661199 0.0014405707 0.001568668 0.00092565594 0.00454499 0.0041328045 -0.001621027 -0.000949868 4.8647635e-06 2.690591e-06 -9.112526e-06 0.0028383387 -0.0011496556 0.00043455698 -0.0040016724 -0.002107213 0.0031937156 0.0022935444 -0.00046407338 -0.0021651662 0.0005015852 0.00028854748 -0.0032985746 -0.0015023004 -0.00312756 -0.0027756775 0.0007692813 0.0013130028 0.0035187872 -0.0040441817 3.903918e-05 -0.0011044561 0.0010879184 0.0005997168 -0.0032623701 0.0047213444 -0.0017162627
[br] 0.0018113046 -0.0013397378 0.0002792771 -0.0021973138 0.0011477903 0.0008621132 8.084765e-05 0.0047514224 0.00044706883 -0.0032874893 0.00069424463 -0.004338518 0.003522179 0.00071592396 0.003468128 0.0035432614 0.0016266811 -0.004274905 0.0038236463 0.002950551 0.0029368056 0.0049416926 -0.0048179305 0.001577449 -0.00010599615 -0.0035055124 -0.00019656494 0.0003822432 0.0009313957 0.002889894 0.0005567693 0.0022905655 0.0019099684 0.003791757 -0.0024904083 -0.000976488 1.3934914e-05 0.00471746 -0.002730708 0.0010951972 -0.0006770217 0.0007922882 -0.0026224856 -0.0020337873 0.004563178 -0.00081595825 0.0023659505 0.0016755401 0.00042616064 -0.0044460464 -0.0043765046 0.0024573891 0.0030430034 -0.0023972404 0.00016967254 -0.00028289203 -0.0011431896 -0.003549972 0.0016669976 -0.0031309568 0.00043179374 0.00018873764 0.0039658146 -0.00023959158 -0.0011823475 -0.0044219843 0.0013373946 -0.0029133712 0.0024605668 -0.0016771143 0.0026151133 -0.0012974865 -0.0015468353 0.0013892995 -0.0021724743 -0.0022703563 -0.00064292504 0.0009928714 4.807301e-05 -0.0027167052 -0.0010491544 0.0006081052 -0.0048478097 0.00173982 -8.3331484e-05 -0.0033197384 -0.00023130141 -0.00025096536 0.0015514689 0.004281806 0.0016626231 -0.0016266722 -0.0011205529 0.0028663715 -0.0016018569 -0.0030846596 0.0048086364 0.0013207574 -0.0032451204 -0.004700019
[it] -0.003026046 0.0017839051 -0.0002958919 0.0039769374 0.0025567776 0.0017039948 0.0036279634 -0.0040961024 -0.0042455 -0.0048193913 0.0032282276 -0.002021824 0.0019868612 -0.0025971388 0.0037553562 -0.0015879541 0.00184278 -0.0014796762 0.0014652107 -0.001645878 0.004130151 0.0004887199 0.0048477966 -0.0035874217 0.0034230724 0.0044266554 -0.0035585307 -0.0018246381 -0.0023174882 -0.0037504947 -0.002300883 0.0038158586 -0.0016753704 -0.0027753455 0.0034151534 -0.0043474473 -0.0009893798 -0.004389469 0.004779353 -0.0037542395 0.0033607073 -0.0009804256 -0.00414007 0.004484174 -0.00369673 0.0020972681 -0.0017192506 -0.0040048943 0.00082148984 0.0035437057 -0.0024420803 -0.0019870459 -0.004264746 0.0024891687 0.0028919466 -0.004261074 0.0024617556 0.003111885 0.0035026511 -0.0040416615 0.001171567 -0.00041640922 -0.004513995 0.0024216473 0.0020850245 -0.0046580657 -0.0028984165 -0.0019834493 -0.004205462 -0.0026153713 0.0015879343 -0.0036309562 0.0030352622 0.0034982273 -0.0013831449 -0.003352827 0.0028001792 -0.004892758 -0.0022380722 0.003480277 0.0024814308 -0.0028400028 -0.00024119066 0.0016638865 -0.0018521594 0.0038726982 0.00016403245 0.0035376167 0.00037833676 -0.0013452554 0.00015164446 0.0036600288 -0.0025195216 0.00498737 0.0017074547 -0.0005090581 0.004199881 -0.0034168107 -0.0025764597 0.000683242
[blogspot] -0.0019624305 -0.004205036 0.002993267 -0.001612823 -0.003878182 0.0013395105 3.9231963e-05 -0.0005884371 0.0048826262 -0.0039026241 -0.0035941564 0.0035383143 -0.00479667 0.0031502983 0.0005255146 -0.0040475857 0.00094136037 -0.0025442003 -0.0006280332 -0.004705402 0.0012276452 0.0035053594 0.0047876444 -0.004600872 -0.0033645462 -0.0032098358 0.0014714659 -0.002602328 0.0049580056 -0.0033301925 -0.00039487192 -0.004054276 -0.0039853775 -1.1468306e-05 -8.50996e-06 0.0039766235 -0.001069528 0.0029843636 -0.0041972906 -0.0047987276 -0.0005872911 -0.0015996802 0.0009147674 -0.0012266529 0.004460019 0.00025546737 -0.00020891428 -0.0007525282 -0.0006194897 -0.0041203247 -0.0045739757 -0.002701947 -0.0007208828 0.0016959538 -0.0008734488 0.004590979 -0.0046515134 -0.00018493179 -0.0039598113 0.0020910976 0.002270999 -0.00012602797 -0.0018291664 -0.0030354564 -0.0031611812 0.00036581 0.0036643082 -0.00040840264 -0.00380977 -0.0038149087 -0.0006666756 0.003367749 -0.00037811464 -0.0010280907 0.0040968135 -0.00047372654 -0.0031645084 0.0049820626 -0.004566021 0.0019700206 0.0037321812 0.0009750114 0.0010772501 0.0022386075 0.0016483176 -0.0039884024 -0.0018386077 0.0049466873 -0.0007645502 -0.0006032055 -0.0034361922 0.001165403 -0.002385057 0.0039476454 0.0015116129 0.0014039516 0.00040218607 -0.0010767276 0.00045618834 0.0034284173
[tumblr] 0.0035688542 -0.004692283 0.0038685594 -0.0023237295 0.003424584 -0.003203259 -0.004015683 0.004354981 -0.0024154114 0.0016769767 -0.002104997 -0.0032536816 0.004965176 -0.0018700105 0.002955187 0.0008083903 -0.0032489717 -0.0028038477 -0.0037365174 -0.0020221954 0.0030516693 0.0046187267 -0.0010578306 -0.0033158856 -0.0031507234 -0.00021187402 0.00034808647 -0.0002013091 -0.0036411458 0.0035593603 0.0009998064 2.240669e-05 0.0034447527 -0.00021341443 0.0028653126 0.0037519922 -0.004300267 0.003507902 -0.0022183321 -0.0049987077 -0.00064780423 0.0046939896 0.0016505253 -0.0019733047 -0.0039552804 0.0005298811 -0.0013298064 -0.0007963306 0.0042874375 0.0016565281 0.002275718 -0.001396342 -0.0007006787 -0.0031104952 -0.0017154871 -0.0010281084 0.00048481626 -0.0039293957 0.0030715158 0.00344053 0.0034479033 -0.0046074246 0.0018405896 0.0016262345 0.000703393 0.0022863108 0.0030345619 -0.0013467013 -0.0021358067 -0.0018088459 0.0036004577 0.0026175687 -0.004846593 -0.004362587 -8.130213e-05 -0.0020538478 -0.0048220865 0.0006657331 0.004195587 0.0010216804 0.0029726923 0.0042052707 -0.00086016534 0.0016526817 -0.00029286556 0.003564681 -0.0007400452 0.0004758155 -0.002275501 -0.0022578435 0.00248513 -0.0039194 -0.0014456427 -0.004564064 -0.0015356934 -0.0013506871 0.002580666 0.00033597602 -0.0012990874 0.0005811793
[cl] 0.0001686383 0.0043361858 -0.0009883954 -0.002997598 -0.0037849718 0.0011033658 0.0014519962 -0.0041543674 -0.0041526947 0.0041254405 -0.0039026993 -0.0008176118 -0.0009331787 0.00064288033 0.0017218571 0.0028921487 -0.00211334 0.0005975552 -0.0003814851 0.0008127005 0.004530212 0.004022558 -0.0021692829 0.0031367186 -0.0012281078 0.0017791092 -0.0014283811 -0.0010804101 3.634533e-05 0.00046151923 -4.1983556e-05 0.004134287 -0.0039011845 0.0034370385 -0.0017359811 0.0026992261 0.0036379285 -0.0046147075 0.0007260721 -0.0039404975 -0.0037167768 0.0014839722 0.0013113925 -0.0007542819 0.0037925756 0.0019424045 -0.001549182 -0.0043273037 -0.001658309 0.0008349288 -0.0036083297 0.0032417048 -0.0026285832 0.001290292 0.002288601 0.0009193891 -0.0004185913 -0.0045237313 0.0008587348 0.0035290662 0.0022072433 0.0044098794 0.000318964 0.004732469 -0.0027403706 -0.0035779923 -0.001380353 -0.00016443571 0.0035270331 -0.00388588 -0.0008280827 0.004151023 -0.001402514 -0.0001874473 0.0007342086 -0.004398154 -0.0005491823 0.00013324479 0.0012755743 0.0042317742 0.00011231471 0.0025292854 -0.0018847398 -0.004632753 0.004306999 0.0016792994 -0.0015820926 0.0024406742 0.0008550561 0.0019844365 0.0024448293 0.0013467604 0.0008970457 -0.0049119005 -0.0014137584 -0.0049231653 0.0006141616 -0.0042238054 -0.0006747525 0.0015567252
[gouv] 0.0038049296 -0.00011442369 -9.9083874e-05 -0.001042807 -0.0030918824 0.0020926213 0.0019989884 -0.0033451128 -0.00056688674 0.000818708 -0.000104023144 0.0026038988 -0.0019334166 0.0018208753 0.0005418956 0.004338571 -0.0045655333 0.0031924797 0.0004425845 -0.0019556265 -0.0034628366 -0.0041608266 -0.0014609152 0.0044421675 0.0007627541 0.0016676979 0.0014670175 0.00022860477 0.0013543838 -0.0027077699 0.00044232234 0.003209102 -0.0015086937 0.0024193842 -0.0014013099 0.0013672845 0.0018061958 -0.0047596777 0.0008918247 -0.004396411 0.00347724 0.003420569 -0.000730949 -0.0012278038 -0.0030818682 0.0043439884 -0.0036652195 -0.0011318475 0.0032929275 0.00029246276 0.0021655057 -0.00020210305 -0.002725393 0.00079058297 -0.002487768 -0.004150119 -0.003289706 0.0013572895 0.0020011477 0.0012129988 0.0025493228 -0.0042991024 0.0006360845 0.0023152684 -0.0018983167 -0.0038725876 0.00040902244 -0.00016328879 -0.002418245 0.0013166876 0.0048984233 -0.002347328 -0.0030048506 0.0010388023 -0.004542737 -0.0027651489 -0.004345083 0.0029955115 0.0031021442 -0.0015109801 0.002715915 0.0032732822 0.001353269 0.004831886 0.0049960585 -0.001226064 0.0029144194 -0.0034911763 -0.0030898976 -6.955117e-06 0.00314104 0.0013556592 0.0006051487 0.0016226452 0.0025085527 0.0033194209 0.00013268646 -0.0042453627 0.0021365876 0.0032794038
[fr] -0.00043616164 0.0031663794 0.0014183647 0.00080314046 -0.001136573 -0.0005606492 0.0018725218 0.0049577197 -0.0014308214 -0.0015060294 -0.0021103066 -0.001501115 -0.003668564 -0.0026261949 0.0049918536 -0.0035749893 0.0015670536 0.003402491 -0.0049721277 0.0008715554 -0.0046302155 -0.0026141512 0.003700126 0.0043275785 0.0040509515 -0.0031869106 0.0039702775 0.0016274238 0.0033074636 -0.0035990947 0.0007625674 0.0024639387 0.004119736 -8.862559e-05 -0.0017082978 0.0015262235 0.00016835053 0.0024436014 -0.004544302 0.0021248567 0.004834749 -0.0039884383 0.0017968374 -0.0041138744 0.00042793527 0.0022444045 -0.0049490593 -0.003612988 -0.002862674 -0.0015612142 -0.004408315 0.0037216535 0.004058673 0.004914824 0.0016268687 -0.004930657 -0.0012230456 0.0033442248 0.0026758998 -0.0025971353 0.002701132 -0.003420902 -0.0013655776 0.003213415 -0.0028056996 0.0012946902 -0.0049054483 0.002285726 -0.0023314017 -0.00017304998 -0.0044615595 -0.0036825184 0.003965754 -0.003387214 0.0043720314 -0.00059338426 0.002965644 0.0012929444 -0.0003857445 0.0045099594 0.0043455893 0.0043948162 -0.0049665086 0.00045073545 -0.001104803 0.0026595928 0.0003180392 -0.0008042031 -0.003225401 -0.0020073026 0.0007769568 0.0043006465 -0.004004932 -0.003266105 -6.7903195e-05 -0.0049482267 -0.004098971 0.0002630963 -0.0026409638 0.0034825858
[service] 0.001517864 0.004497409 -0.002271924 -0.0028422754 0.004287637 0.00091822445 0.0009638155 -0.00206753 -0.0012243604 0.00080509204 -0.004434844 -0.0028364877 -0.0019892608 0.001794213 0.002346252 -0.0025755358 -0.00049682986 0.0038002692 -0.004935284 -0.003605951 0.002407969 -0.00012387987 -0.0039476026 0.0018891096 0.0024723434 0.0023417706 0.0004356564 6.293366e-05 -0.00045839 -0.0024969976 0.0032218155 -0.0043046465 -0.0024124808 0.0015305588 0.00066530006 0.00082946336 0.00429077 0.0027848203 -0.0025216609 -0.0022089852 -0.0035732614 0.0037196223 -0.0025443912 -0.0030025064 -0.00029644137 0.0027648737 0.0038172388 0.0007096976 -0.0024754596 -0.0006761374 -0.0024705362 0.0011461861 0.0016241493 0.003658709 -0.0007619625 0.0037841043 -0.0027097105 -0.0011324685 0.0005109692 -0.0020385927 0.0041044326 -0.0042491965 -0.0025306386 -0.004442486 -0.0006214357 -0.0024444358 -0.0035412363 -0.001690144 -0.0028766536 0.002732026 0.004133394 0.00021880073 -0.003986159 0.0017192783 0.0047700377 -0.0004043891 0.002462652 0.002569735 0.0042651184 0.0023556016 0.0023656646 0.00070838025 0.004332439 -0.001860749 -0.003367154 -0.0009234785 -0.002299245 0.0044046883 0.0019211126 -0.00310799 -0.0013557035 0.002692691 0.0009246464 1.5085563e-05 -0.0033452641 0.0036775293 0.0008220882 -0.004962041 0.0044314144 0.0030068476
[gov] 0.0030274922 0.0041769417 -0.0038028834 -0.0019040543 -0.0038990497 -0.004762626 0.0007137642 -0.002239595 0.0030704234 0.003223231 0.0026533664 0.0034176325 -0.0048334394 0.0019048494 -0.0012654536 -0.001870082 0.0013698377 -0.0033709286 -0.00045180693 -0.00025288807 -0.0035357957 -0.002326871 -0.00019361032 -0.0021603333 -0.0046970313 -0.0036702799 -0.00065884506 0.003038505 -0.0005264031 -0.0017288362 0.0037077935 -0.0036439567 -0.002306621 0.004257271 0.000975505 0.0006859107 0.0009072069 0.00041863183 -0.0017144792 0.00076502 0.0046724165 0.0044967243 -0.0029465859 0.004001988 -0.00058744475 -0.00016721012 -0.003088675 -0.00091148866 -0.0004244838 -0.0015376417 -0.0013849766 0.001570845 -0.00119456 0.0010184245 0.0012411885 -0.0022010296 0.0004771743 0.0014486592 0.0044211335 -0.004051196 0.0014879415 -0.0025289862 -0.0012891227 0.0004981947 -0.0011422562 0.0030383673 0.0040797302 0.0033828542 -0.002865452 -0.001670118 0.0022229832 0.0024695396 0.0048234705 -0.0032581496 -0.00019009225 0.00018463656 0.0013979785 0.00285629 0.0018309788 -0.0015074688 -0.0030905376 -0.002963156 -0.0013092905 -0.0020713382 0.0012166281 -0.001996714 -0.0036464112 0.0025230316 0.0031952513 -0.0011319709 0.00020147441 -0.0047469568 0.0036674459 -0.0018246949 -0.0023725503 0.0034006462 0.00056443224 -0.0034532747 -0.00091284094 0.00033102324
[uk] 0.0028022118 -0.0043606726 0.0027618525 0.0037765699 0.003873039 -0.003766483 0.0036456613 0.0019653062 0.0032464368 -0.004602835 0.0008942457 0.0036587398 0.0031965831 -0.0043738894 -0.0032740098 -0.0021792084 -0.001858359 0.00034422753 0.00086090807 0.00097186863 0.0028617969 -0.0009762258 0.00046791555 -0.004232801 -0.0011851925 -0.000983356 0.004671026 -0.0029610193 -0.0019800828 0.0014093844 -0.002274459 0.0045992592 0.00063506 -0.0006069257 -0.0038958013 0.0001781676 0.004393751 0.0043516597 0.0022425777 0.0044285012 -0.0012333435 0.00043991162 0.0010719029 0.0025500827 -0.0022070503 -0.0015219313 -0.0035918527 -0.0027339081 0.003184582 0.00052389083 -0.0032714028 -0.0011121493 0.0009956574 0.0022532148 0.00469009 -0.0010519419 0.0044103283 0.003132782 -0.0034789615 -0.0014593941 -0.002134826 0.0016672146 -0.004335706 0.00052094273 0.0035918308 -0.0024824047 0.0012360457 0.004513954 -0.0023540235 -0.0040057497 -0.0027128244 0.0013962397 0.0028216382 0.003491236 0.0016572005 0.0010090894 0.0012955312 0.0006429851 -0.0031161385 -0.00031621614 0.002462523 0.0031148912 0.0015622173 0.0036444236 0.0011072699 -0.0049061864 0.004559828 0.0038040336 0.0022423184 -0.0005828948 -0.0030355137 0.004611681 -0.0017825675 0.0030692983 -0.003172003 0.004275379 -0.002839965 -0.0016860378 0.00041582063 -0.0025014912
[firebaseapp] 0.0010944321 0.0018601399 0.0013646679 0.0036589038 -0.0039667166 0.004207842 -0.003213278 0.003572382 0.0047061574 0.0026642703 -0.0033302854 -0.0013160782 -0.0049992506 -0.0012126046 0.00384737 0.002341861 0.0017172457 0.0042655673 0.004577296 -0.0036079567 0.0027986295 -0.0011327141 -0.002402196 0.0038707294 -0.0040044123 -0.0009928499 0.0049117785 0.0039821425 0.004254504 0.0030120527 0.0033354582 0.0036964137 -0.0027345251 -0.0021207593 -0.002309183 0.0034153927 0.0037288917 -0.001973527 -0.0016206538 0.002902586 -0.00066232216 0.0014610402 0.0023432276 0.0013256795 -0.0008713566 -0.0024302923 0.0015578503 0.0017632656 0.0019281707 0.0038750973 0.0028909072 -0.00046299677 -0.0030193238 -0.00035555102 0.0024971706 -0.0007907166 0.0049595656 -0.0044440352 0.0019905572 0.0046672476 -0.0032432114 -0.0028513032 -0.0046283505 0.0048715323 -0.0018462318 -0.0047261477 0.0032548197 0.0028278679 0.004917329 0.0031102654 0.0037255483 -0.004882734 -0.0024844997 0.003953404 -0.00048722327 0.001316038 -0.00044500828 -0.0036158925 0.00044962624 0.0030991584 -0.003961171 0.0016635992 0.0024685012 -0.004909124 -0.004651513 0.004155148 0.0036318973 0.00402171 0.0010828106 0.0011078957 0.00023186766 0.0042181816 -0.0024921559 0.0008001067 -0.0009805663 -0.0024635976 -0.0031777953 -0.0044568735 0.0011346824 0.004331724
[de] 0.003434523 0.0040344475 -0.0029710822 0.0034949137 -0.0038890797 -0.0044839922 0.004681592 -0.0021956877 0.000547471 -0.0016844873 0.0030539334 -0.0034636836 -0.0029629439 -0.00052843336 0.0020438964 0.0014031939 0.0013620676 -0.004043654 0.0044200756 -0.0010922658 0.0019175066 0.00015311083 0.0020015961 0.003453263 -0.0008932804 0.00227666 -0.0046127657 -0.0046337256 -0.0008954825 -0.0009286688 0.0013125087 -0.0034607684 0.0028746817 0.0036578514 0.0036422359 0.00060708635 0.0044736834 -0.001843757 -0.003587088 0.003841917 -0.00011441158 0.0039490853 -0.002139591 0.004958206 0.0034156358 -0.004107236 0.0031653075 -0.0029868155 0.0025527566 0.0023499765 -0.004703979 -0.0014827149 0.0012416728 -0.004321324 -0.0022274477 0.00017793477 -0.0027778929 0.0004911721 0.004926387 -1.500966e-05 0.0019020177 -0.0033776513 1.5231781e-05 -0.0015764565 0.004754097 -0.0033218865 -0.0028039527 -0.0028743327 0.004032163 -0.0018969458 -0.00426126 -0.0009940956 -0.00235798 -0.00077616936 0.0008296324 -0.004264506 0.0020267093 0.0027998583 -0.004332224 -0.0017982714 2.3612753e-05 0.0021305103 -0.003276754 0.004741638 -0.0038546305 0.0026325174 0.0040696524 0.0023730611 0.0029250477 0.0047683176 -0.004797951 0.0016065333 -0.0018437929 0.0031489274 0.003475367 -0.0013772487 -0.0031881481 -0.0022298102 5.5311248e-06 -0.0017739069
[edu] -0.004011372 0.004185482 0.0030037388 0.0039408 0.0045070555 0.0030705193 1.779059e-05 0.0038450528 0.0018201792 -0.004395177 -0.0037551736 0.0013158019 0.00011357013 -0.0022427635 0.003583596 0.002507586 -0.0027949463 0.0045891153 -0.0038022404 -0.0005406402 4.937034e-05 0.002434162 -0.000904975 0.0036830688 0.0009585344 0.004299665 0.0011889567 -0.0018396741 -0.0004708576 -0.0020840298 0.0033511678 -0.0007461645 0.0043419674 -0.0010878188 0.0026078592 -0.0047936034 -0.002616393 -0.0041699824 0.0006413441 -0.003669076 0.00032790843 -0.0040688715 -0.0027959172 -0.004576997 0.0032648323 0.0023413599 0.0002665026 -0.004538198 0.0033715703 -0.0033982943 -0.00010811631 0.004578824 -0.00080744224 -0.0043188166 0.0011297674 -0.004593186 0.0040483996 0.002830171 -0.001053995 0.0034612138 0.00094674993 0.002959744 -0.0012614864 -0.0027298902 -0.0024818724 -0.0015748609 -0.0003884663 0.004558632 0.0027376567 -0.002696294 -0.0028596835 -0.00386303 -0.0027409429 0.0024050688 0.0049386825 0.0007490339 -0.0047873133 0.0048835017 -0.0049771783 0.0028923266 0.0026575187 2.4757814e-05 -0.001938011 0.0015101563 0.0016889172 0.0031206384 -0.0018828695 -0.0006439467 -0.0031415462 -0.0002515344 0.003841336 0.00397144 0.0003604591 -0.0033746278 -0.0034486824 -0.0033342112 0.004385298 0.00012268499 0.004779404 -0.0016761671
[readthedocs] -0.0039948723 0.0049684653 -0.0010613329 -0.003240956 0.00050234795 -0.004867901 0.003573303 -0.003876058 -0.0013709825 -0.003427143 0.002493741 -0.0047542006 6.472366e-05 0.001114028 -0.004402356 -0.004166119 0.004601881 0.0037802653 -8.856971e-05 -0.00093856966 -0.0039331852 -0.0024663769 0.001531018 0.004840944 0.003020838 0.0018889946 0.004727239 -0.0018764941 -0.0033021222 0.0038226768 -0.0047716307 0.0018804194 -0.0014075118 0.003296041 -0.004801061 -0.003738849 0.0007442902 0.0014836243 -0.0016727257 0.0036986563 -0.0011384981 -0.0023556978 0.004908393 -0.001027192 -0.00029761856 0.0033447007 -0.0039264206 0.0018845247 0.004854434 -0.0021148627 0.0018322724 0.004177261 -0.0047080973 -0.0031594264 -0.002675969 -1.7613173e-05 0.0005961908 -0.0015874999 -0.0014512329 0.00015119184 -0.0027477853 -0.0011795908 -0.0002522855 0.0005541481 -0.004461946 0.004800259 0.002340159 0.004119208 -0.004465255 -0.0032161456 -0.0017670572 -0.0001679291 0.0024684048 -0.0013056903 -0.004896927 -0.0033832013 0.0039588455 0.0015051216 0.0013232101 -0.002285667 -0.0047325063 0.0036896868 0.0038648155 0.0034869285 -0.00012464635 -0.0031127804 -0.0037946277 0.0004210649 0.00048468215 -0.0023532365 0.0037046792 -0.0010309448 0.0018746294 -0.0036607026 0.001874222 -0.00015815021 0.0013101869 -0.0033606058 -0.0018807871 0.0030437447
[io] -0.0046230606 0.0014710552 -0.0029425942 -0.00047005294 -0.0032963622 0.003062699 0.0049202973 -0.0003376617 0.0033500502 -0.0013479048 -0.0037461775 0.0032984521 0.001309698 0.003893285 0.00018824032 -0.0009278036 0.00029117987 -0.002883309 -0.0002272441 -0.00011972198 -0.0001495271 -0.0034813504 0.00039995322 -0.0033233624 0.004285698 -0.0004236172 -0.00048251823 -0.0009398274 0.0033425 0.0030124327 0.00012565451 0.004714704 0.0005482221 -0.0047589843 -0.0040613012 -0.0008221995 0.0014396273 0.0037976746 -3.3214223e-05 0.00046111783 -0.0027288168 -0.0027575982 0.0023912573 0.004835697 -0.00485969 0.0026526866 -0.001026385 0.00033503072 -0.0036604505 0.001542443 -0.0046859873 -0.00012619514 -0.0036804562 -0.0029283613 0.0013748412 0.003717794 0.004374573 0.00088310055 -0.0013141292 -0.0044355807 0.0028234692 0.0027082837 -0.0047735553 -0.0047257617 0.0025500907 -0.0025534672 0.0020264043 -7.2778203e-06 0.0049339468 -0.00030235527 0.0028539998 -0.0031220322 0.0031513134 0.0021075052 0.00079793204 0.002505897 -0.0038707284 -0.002349978 -0.0014774846 1.4310703e-05 -0.0030935102 -0.00444939 -0.0013357275 -0.002680186 -0.0026266568 -0.0013005382 0.0034129983 -0.004687908 0.0017026216 -0.001193664 -0.001630103 -6.830692e-05 0.00097432453 -0.004639066 -0.0024203884 -0.002153443 0.004292976 0.0008190642 0.004168262 0.0014687786
[mx] 0.001575545 0.0029905643 -0.004933852 -0.001777895 0.004521291 -0.004129543 0.00429528 -0.0045788074 0.0020970427 -0.0007248586 0.0031742295 0.0003311853 0.00263493 -0.002397362 0.002707859 -0.00499779 0.0015897625 -8.802721e-05 0.0013634516 0.0018736785 0.004175162 -0.004834162 -0.0032154415 0.0029657371 0.0023158602 0.00061783474 -0.0043256287 -0.00071436865 0.0028025848 0.00498781 -0.00053251674 -0.0011748767 -0.0020641112 -8.963514e-05 0.0025195777 -0.0030816365 0.0047805533 0.0009339219 -0.004943545 0.0034223106 -0.0022557473 0.0036844779 0.0021570069 -0.0045046974 -0.0022797303 0.002513613 0.0002896036 -0.00476444 0.0020351023 0.002043948 -0.0034573842 0.0013538199 -0.0043739425 0.00024686567 0.0019047204 0.001126322 0.0036909254 -0.0040147854 0.0025496064 0.00400747 -0.0014789987 0.0012335102 0.003352169 0.0011333958 -0.0025102168 8.518575e-05 -0.0043091616 -0.001973506 -0.0015350007 -0.004959009 -0.0015355891 -0.0017329538 0.0020393673 0.002536612 0.0049155653 0.0030888189 -0.0049232957 0.0029800273 -0.0030062508 -0.0009381245 0.004051782 0.0041805394 -3.730133e-05 -0.00072405813 0.0005305493 -0.00039839698 0.0015012384 0.0013409555 -0.00086856075 -0.00131563 0.0006972123 0.0019306946 -0.00042285025 -0.00073628314 -0.00038191956 0.004911759 -0.0020436733 0.00271649 -0.002675356 -0.0019334734
[withgoogle] 0.0037159845 0.0031421734 0.0012085219 0.0035537686 -0.0030186449 0.002140427 0.0030174414 -0.00021589035 -4.965486e-05 -0.0024078856 0.004475587 0.0014295713 -0.0039930097 0.0014933371 0.0005472796 -0.003478889 0.0036616614 0.0048059095 0.004402348 0.0018956913 -0.0002832436 -0.0021815246 -0.0012921393 -0.004574878 -0.0042542494 0.0019384036 0.001307298 0.001012872 0.00050788885 -0.003862096 0.0013893954 -0.0006854711 -0.004763227 -0.004213382 -0.0020655398 -0.0017805528 -0.0028464508 -0.0025179195 -0.004679531 -0.003339204 -0.0032270914 -7.755589e-06 -0.00028658053 0.003083516 -0.00441335 -0.00026315218 0.004128064 -0.0013655126 0.002747213 0.00120576 -0.003075453 0.00485765 0.0010182606 -0.0017121178 -0.0023349684 0.0019214177 0.002379369 0.0038497169 0.0025570975 0.002619858 -0.0036254446 -0.00014269305 0.0014129733 -0.0012205702 -0.0005358504 0.0029444583 0.0027841567 -0.0037932848 0.003462785 0.0012381976 0.004597945 0.00059492514 -0.0011291546 -0.00034412136 0.002463088 0.0033194032 0.0013239896 -0.0025637418 -0.0009415429 -0.00015113642 0.0014090901 0.0044819703 -0.0006458233 0.0035859449 0.004374154 5.9393235e-05 0.0030671814 0.002536701 0.0046625677 -0.0017462086 -0.0015509927 -0.004600796 0.0007589455 -0.0048704664 -0.00033665774 0.003952995 0.0031376649 -0.0045021907 -0.00091578206 0.004130248
[sharepoint] 0.004522945 -0.0030922734 0.0042640585 -0.0029441959 0.0044803796 -0.0043991217 -0.0038649524 -0.00020765327 -0.0016348611 0.002627883 0.003016904 0.0039394153 0.003478228 0.001088737 -0.0010529966 -0.004045589 0.0017621224 0.0013006814 0.0046288073 0.004076503 -0.0036312877 0.002734039 0.000771699 -0.003924597 0.0031765243 0.0008298857 -0.0032287687 -0.0043022768 0.001041308 -0.0010450357 0.0017707194 0.0040087104 0.0039408645 0.00012842612 0.0028205607 0.0015608845 0.0041262014 0.0012574913 0.0046811877 -0.00016354723 0.0043817908 0.00028391415 0.004671188 0.0010400875 -0.0040873294 -0.002192675 0.003668665 -0.004008189 0.004215847 -0.0049159806 -0.00028582383 0.00018521538 0.004909426 -0.0014083688 -0.004762278 0.0014480241 0.004771239 0.0003784923 -0.0033593022 -0.0016089384 -0.0010476564 0.0031014942 -0.00027431175 -0.0039690095 0.0020825602 -0.0046802694 -0.0029861266 0.004687649 0.0035198703 -0.0015920126 0.004685035 0.002964193 -0.0028841626 0.0008823909 -0.0014908402 0.0019531222 -0.004324002 0.0042033736 -0.0018650352 -0.00017437199 -0.001486429 0.003380265 0.0019370527 0.0009861505 0.004314514 -0.00090202317 0.004982735 0.00092400145 -0.0026517892 0.0023271707 0.0049408423 0.00012484472 -0.0024623245 0.002049415 0.003815486 0.0010231584 0.0046785334 -0.004315835 -0.00482618 0.002116005
[user] -0.001095546 -0.002764951 -0.0011968387 -0.0017327762 -0.0011011141 -0.0025885534 -0.0020742875 -0.0012533558 0.0026399032 0.004161383 0.00482573 0.0025753994 0.0023672003 -0.00085076503 -0.004217846 0.0034214845 -0.00061716745 -0.00034549832 -0.00016750814 0.0040150955 -0.0039566485 0.0010155956 0.0018489272 0.0037632491 -0.0030288177 0.0034122113 -0.00037299749 -0.0027232904 -0.0024350148 -0.0012876808 0.0017305822 -0.001736573 -0.00094196387 0.0014686096 1.7638784e-05 0.0028249957 0.00012321398 -0.0012167585 1.1894852e-05 -0.003479135 -0.0030440027 0.0010269643 0.0015472416 -0.0015012079 -0.00493515 0.0011429689 -0.004909452 0.0006968831 0.0029459288 0.0019250764 0.0037576174 0.0004732143 0.0004894142 -0.0027539032 0.004065049 0.0007079034 -0.0005603703 -0.0030661249 -0.00095182285 -0.0009903801 -0.00242913 -0.0025331462 -0.00010708161 0.0030942447 0.0028117527 0.004755114 0.002877893 0.0026744949 -0.0030516754 -0.0037722634 0.0036776727 -0.002193091 0.00024179649 -0.002427982 -0.0049756104 0.00038210908 -0.004594794 0.0045461943 -0.00322771 0.0049383203 -0.0029273885 0.0016749375 -0.0016463601 0.002547305 0.0010513603 0.002492424 -0.004545146 0.0010895538 0.002270882 -0.0010730624 -0.002849422 0.0027141878 -0.004876375 0.0004522698 -0.0046134354 0.0013324106 -0.0025235617 0.00026587024 9.810971e-05 0.0032462226
[images] -0.002489931 0.00026633684 -0.0045625125 0.004313075 -0.000797797 -0.0031206403 0.0031287046 0.0015078103 0.00012513762 0.0013461951 0.00058972044 -0.004434128 0.0011622007 0.0019258624 0.0034208167 -0.0038661014 0.004770917 0.0023179841 0.00096763857 0.004949646 -0.0025722908 -0.00014553731 0.0017558336 0.0022148914 0.000891997 -0.0042588054 -0.0022352498 0.004139727 0.00097086234 0.0042794533 -0.0026929586 0.00048003392 -0.0020617973 0.004998276 -0.004560684 0.00053174375 0.0034123966 -0.0040040086 -0.00056609977 -0.001687733 -0.00235775 -0.004698026 0.0013521244 -0.0029097896 0.002865959 0.0029922817 -0.0012304883 -0.0041085025 -0.0011731673 0.0028696954 -0.0022160488 0.0042124335 0.0014953809 0.0001947647 0.0045293933 0.0022651325 -0.0015060597 0.0007606996 0.003893081 -0.0048498176 -0.00057654595 -2.2100285e-06 -0.0044158404 -0.001078052 0.003915568 -0.0037138257 -0.004104913 0.004463738 0.004608386 -0.0024128247 -0.001053005 0.003713117 0.0007284777 0.0005063121 -0.004302794 -0.0037519173 -0.0025967443 0.0008387072 0.0014700429 -0.0026454055 -0.0006603347 0.0021944153 0.00097020576 -0.003650806 -0.00048462814 0.00080264406 -0.0032751882 0.0014711171 -0.004196123 -0.0041166334 -0.004132372 0.0027495478 0.0021355413 0.0043922 0.002517552 -0.001448195 -0.0013149667 -0.0049304045 -0.0010673283 0.0036972454
[wordpress] 0.00028640032 -0.000758369 -0.0018079274 0.0008973633 0.003875726 -0.004700401 -0.0042471634 0.0032087136 0.0044895057 -0.003694855 0.0037924992 -0.0044629215 -0.0006380975 0.003858314 0.0025338675 0.0049862005 -0.0043256367 0.0021596448 -0.002155826 -0.0039037596 0.0014180867 -0.00045646122 -0.003425085 0.0043629007 0.00329897 -0.0020856976 -8.408306e-05 0.003800109 -0.0048011863 0.0011494984 -0.0026242035 0.0019048164 0.0015149135 -0.0017184645 0.001579925 0.0011761487 0.00074028317 0.004791815 -0.0046582827 0.0014950526 0.0017973534 0.0026822858 0.002493923 0.004048262 0.00018632878 -0.0033115167 0.0035132207 0.000627066 0.00069958577 -0.0040424154 0.0002894341 -0.0020945275 -0.0010235286 -0.004258718 0.0019961335 -0.0014903271 -0.0016776763 0.0021536462 -0.0019780921 -0.00090561435 0.004395593 -0.0006375462 -0.0032888888 0.0031990549 0.0036904076 0.002017633 -0.0031356167 6.141374e-05 -0.0040057646 0.00044926722 0.0045948224 0.0039799605 0.00094399136 -0.0036861806 -0.0008920119 -0.0032766121 0.0023113792 -0.004314489 0.00033870712 0.0007141954 -0.0016136062 0.0018080631 0.0016031284 0.0014061658 -0.003097739 -0.0042124195 -0.0025849235 -0.0010971557 0.0034696748 0.0027003796 0.002544222 -0.0008243369 0.0018806579 -0.0012149299 -0.0038022124 0.0023967377 -0.003814397 -0.0037320945 -0.0014503384 -0.0030732297
[dir] 0.001348374 -0.001526376 0.004222177 0.0027448204 -0.0012732465 0.0040745568 -0.0021641557 -0.0005646385 -0.003642376 0.0006237561 -0.0033092503 -0.003361814 0.0007929648 0.0018463312 -0.0012522398 -0.0033547156 0.004455627 0.004341377 -0.0019290452 0.0046090754 0.0023089414 0.0027335389 0.0012184912 -0.00038251048 0.0029735854 0.003841877 -0.0040334594 0.0016316264 0.00025669392 -0.00457668 -0.0045377975 0.0037011588 -0.002129345 0.0036589904 -0.00279311 -0.0041432166 0.002953208 -0.0035214971 -0.0048755663 -0.00047092326 -0.004863938 -0.003668646 0.0041477513 0.0037879664 0.0048322612 -0.0011860167 0.001903059 -0.0030808658 0.0014181505 0.002560195 -0.002025874 -0.0022068333 -0.0044010496 0.0041911034 0.0046834685 0.0028186478 -0.003762642 0.0016365047 0.0017112563 0.003502573 0.00068602664 -0.0032492941 -0.0016363144 0.0045766076 0.0021628425 0.000674014 -0.0033606566 -0.0039236546 0.0023129848 -0.0038600839 0.00093729794 0.003949332 -0.003596779 -8.3672814e-05 0.0041162036 0.0010771006 -0.0028389983 0.0040906426 -0.0025656037 0.00029649213 -0.0023378562 -0.00068043824 0.0002757553 0.0010096258 -0.00012290198 -0.0008362001 -0.0006317212 0.0045917025 -0.0018671483 0.004959423 0.0028106826 0.00019004289 -0.00054277945 0.0042715976 -0.0037012582 -0.0022898202 0.002203778 -0.002517225 -0.0035731322 -0.0035060965
[2020] -0.0026884258 -0.0040021287 -0.0034452341 0.0024087224 -0.00079393154 0.0019838074 -0.0023882054 -0.0026477415 0.0022510649 0.0048015555 -0.0031773518 -0.004462178 -0.0032577699 0.003656933 0.0039114924 -0.0014832383 0.0018801345 -0.0040142075 -0.001898824 -0.001550901 -0.00049496815 -0.004642687 -0.0013931703 0.001977933 0.0034230156 -0.0044053285 -0.0034034164 -0.00034171157 -0.0026293432 0.00058610085 -0.0009236927 0.00016762316 -0.0016247618 0.0011645919 -0.00058769295 -0.0030266743 0.0037201801 -0.00464953 0.0019939695 -0.0024076926 0.0014840877 -0.0017024833 -0.00028975867 0.004576155 0.0032325545 -0.0021943909 -0.0013149779 -0.00011308491 0.0029914202 -0.0026038527 -0.002295252 0.004801633 0.0031076288 -0.0016306215 -0.0005523325 -0.00057928776 -3.5005156e-05 0.0017152615 -0.0031001293 -0.0026570254 0.002068353 0.000614251 -0.0004208535 -0.004664826 0.0020523304 0.00012564706 0.000972474 0.00077508437 0.0011439584 0.004212586 0.003446431 -0.0048625516 0.004726569 0.001138031 -0.003461368 -0.002460497 0.0044043036 0.00063386746 -0.0035713427 0.0014164238 -0.00157593 -0.0041999454 0.0006981259 -0.0010691248 -0.00039287983 -0.0041886503 -0.0048465645 -0.0016126339 0.0032229982 -0.00078299455 -0.0032412456 -0.0024171525 0.0043105623 -0.0020480263 0.0045877285 -0.0030945921 -0.004125198 -0.0014490937 0.004653454 -0.0027457976
[over] -0.0049843835 -0.0023688013 -0.0031490833 0.0042258194 0.0015791394 -0.00066664163 0.0017384463 -0.0012386942 -0.002339221 0.001764975 -0.003930045 0.0009381585 0.0017053783 0.0020676507 0.00041595986 -0.0010774559 -0.000117808115 0.0024508224 0.0012633144 0.0037704008 0.0004159864 0.004862749 0.0029133959 -0.0034801094 -0.001138519 -0.0043241642 0.0028967885 -0.0032665734 -0.00020552939 0.004403135 -0.004622202 0.0006180685 -0.003370075 -0.0020876653 -0.0018023783 0.0025463323 -0.0006314418 -0.003959853 -0.0002380414 -0.00039515272 0.003799878 0.0046922117 0.00075522903 0.0023135403 0.000588289 -0.003989417 -0.0016142405 -0.004569314 0.0008887411 -0.0024948488 -6.9840346e-05 -7.627113e-05 0.004415379 -0.002453979 -0.00079024024 -0.0030043316 0.0019571544 -0.0008491385 0.0033295304 -0.0019599532 0.00078806654 0.0011218195 0.0029862085 0.0018332493 -0.0014899313 -0.0014252705 0.0028783176 -2.8301962e-05 -0.001910863 -0.002859991 -0.0024288152 0.002045997 -0.0016699564 -0.0034303796 -0.00078537455 -0.0024979948 0.0006877752 -0.0047472394 0.0020151222 0.004029355 -0.001138537 0.0043167183 0.0040024174 0.0007788907 -0.003960251 -0.0021175283 -0.00013695937 -0.0006729602 0.0011352873 0.0011853133 -0.0028146976 0.0033982536 -0.0011494034 -0.00049066683 0.0047740554 0.0026955348 -0.0042957566 0.003360847 0.0032299412 -0.0025633245
[blog] 0.002198766 0.0017613266 -0.0023303193 0.00013221567 -0.0043286076 -0.0041425666 -0.0022144322 0.0048773894 0.0012039561 -0.0010053148 0.0043352395 -0.0033983756 -0.0024873447 0.0023223972 0.0047931494 -0.00016068807 -0.004638029 -0.003670957 -0.00072182575 0.0010937005 -0.004614432 0.001856932 0.0027554757 -0.00087741204 -0.0031453222 0.0047376957 0.0017852117 0.00068792 0.0027478612 -0.0044786623 0.0013550245 -0.0013675934 -0.0014094978 -0.0045531522 -0.004889867 -0.0004024082 0.0005975473 -0.0041202055 -0.0026179182 0.0013786596 -0.0039980905 -0.0026991658 -0.0030385596 0.00474366 -0.0019612717 -0.002161945 -0.0033902847 0.0011830493 -0.0012026054 0.0016873977 0.00469629 0.0017457372 0.0016084202 -0.00066583743 -0.004693966 0.0035751853 0.0011272938 -0.0026643586 0.0005229758 0.0036476245 -0.001572653 0.00039266702 -0.0035471767 0.0024472694 -0.0033299993 -0.0009606327 0.004088194 -0.0047920095 -0.0016475676 0.0013164957 0.0018508784 -0.00028827926 0.0048961015 0.00075833313 0.0020611812 0.0029778834 -0.00014505861 -0.0004051663 0.0008954201 -0.0038052201 -0.0010987234 -0.003607409 -0.002724865 -0.0020618432 -0.0046232566 -0.00315923 -0.0017986535 0.0013597016 -5.0480943e-05 0.0045183497 -0.002836924 -0.0021597564 -0.00055793626 0.0031077405 0.001690302 -0.0048590833 0.0017419183 -0.0030172253 0.0023650974 -0.0019851113
[video] -0.0014223594 0.0027500247 -0.0038295737 -0.0009640502 -0.0015555448 -4.621921e-05 0.00420893 -0.003832166 -0.00026789354 0.00028479472 0.004159442 -0.002055577 -0.0037620119 -0.0015575809 -0.0044117896 0.004407868 -0.0028688996 0.0049804505 0.0036814185 -3.454741e-06 0.0021657157 8.4183645e-05 -0.0034350127 0.0016791974 -0.0007435619 0.004153461 -0.0035751527 0.00034132972 -0.004130587 -0.0033918647 -0.00094600674 0.0014761267 -0.0044205077 0.0038815793 0.00041706674 -0.0022761242 0.0043081213 0.0014752094 -0.0038532321 -0.0010452201 -0.0032516837 -0.0036273221 0.003578768 0.0024115788 -0.0012167811 0.0018111896 0.00071000075 0.00042825798 -0.0038803243 0.0045400197 -0.00419045 -0.0018171703 -0.004863633 -0.004768615 0.004208411 0.0041458895 0.004482869 0.00084735034 -0.0011128837 -0.00070642726 -0.003981632 0.0023545427 0.0012881453 -0.0012331372 -0.0036553424 0.00082532596 0.0012877067 -0.0037607139 0.0020881556 0.002734093 -0.0043923943 6.750226e-05 0.0025615264 -0.004358158 -0.0016142773 0.0028223312 -0.004154266 0.00031653093 0.0015932126 0.004973593 -0.00022737123 0.004983957 0.00071183126 -0.0044950205 -0.0048508635 -0.0046226345 -0.0017379408 -0.0016306066 -0.0012733073 0.0008783876 -0.0008696681 0.0008239895 0.004404613 -0.004439959 -0.0024032616 0.0027446146 0.004799054 0.004344267 -0.0041399286 0.0027643153
[one] -0.0006593666 -0.0001995801 -0.0015190626 -0.0041953153 0.0042623673 0.0031944932 0.0032604476 -0.00031623477 0.0019909022 -0.002125737 -0.0016250603 0.00086324057 0.0018593925 -0.003394537 -0.004459281 0.0042925673 -0.002478038 -0.0017116237 -0.004934924 0.00022829603 0.0006134105 -0.0017351944 -0.00025061984 -0.001068037 -0.004816258 -0.0007512891 0.0010620109 -0.0018401283 0.0010153763 0.0015179217 -3.749365e-05 -0.0020185339 0.0043112077 0.0037297532 0.0008082781 3.2754615e-05 0.0022107293 0.0012536556 0.00031261332 0.00016564084 -0.0039663706 -0.0049174367 0.0034598205 0.002084449 0.0023848778 -0.004815674 -0.003957346 0.0041142125 -0.0002959324 0.0021867421 0.0020138705 -0.0013986032 0.0004251222 -0.001090785 0.003399048 0.0034054583 -0.0015853404 -0.0023027097 -0.004667406 -0.0032241899 0.00054385373 -0.0043434924 0.0035492731 0.0046841837 0.0037874263 0.0010660351 -0.00096333306 -0.0020416207 0.003576274 0.004949403 0.0028955592 -0.0012252743 -0.0028003524 0.0009360849 -0.004532036 -0.0024773376 -0.0044842274 -0.0037603604 -0.0041538537 -0.0012511914 0.003580721 0.0042687245 0.004869448 -0.004744154 0.0024542962 -0.0005791788 -0.00067410665 -3.634207e-05 -0.0039546676 0.0043059643 -0.004997168 0.0018168292 -0.0009799581 -0.004413269 0.0012403517 0.0017715269 -0.002259553 -0.00033365795 -0.0030366993 0.00022851722
[coffee] -0.004013757 0.0016735257 -0.0042611943 0.0023300569 0.0013695643 -0.0008572284 0.00058543915 -0.0017644942 0.0017927187 -0.003050204 0.0013284734 0.0016528429 -0.0011980706 -0.002683953 0.0027465033 0.00020248396 -0.0037772558 -0.0034007197 -0.003402087 -0.0030527036 0.0033600442 0.004571745 0.0012426083 0.0034670094 0.0019211085 -0.0041993503 0.0010450161 0.0030403854 0.003959583 0.0025365264 0.00060640275 0.001852992 -0.00034812558 0.0037060324 0.004392219 0.0039410843 -0.00060716644 0.003937046 0.0013979338 -0.0009701564 3.1550415e-05 -0.004267003 0.0007389141 0.0022015218 0.0016733818 0.0049783094 0.001666212 -0.0026249564 -0.0012873376 -0.0029998582 0.004029054 -0.003395488 -0.0032853924 0.0010662726 0.0037742062 -0.002364819 0.004549361 -0.00089643244 0.00065072393 0.0017344477 -0.0017653513 -0.0042106514 -0.003790473 -0.0029802166 -0.0046414584 -0.0033087735 0.00060526 0.0036196643 -0.00077661267 0.0037236204 -0.0031759338 -0.002202097 -0.0033500106 -0.0028827207 0.00037670415 -0.0015202356 -0.0017175972 0.0040326873 -0.0031726146 -0.004015018 0.004616633 0.00308673 0.00013024453 -0.00028740987 -0.0024717592 -0.00062960526 0.002905909 -0.00027505867 0.0041257283 -0.0030273527 -0.003148173 -0.0030730134 -0.0034971654 0.0032579638 -0.00010736426 -0.0009395103 0.0022243191 -0.0037474935 0.0038604075 0.0016318928
[world] -0.0033603464 0.0026616482 -0.002143023 0.0004773219 0.0012466032 -0.0013613212 0.001701145 0.002272834 -0.004010858 0.004182958 -0.0036694831 -0.0026653868 0.0034454064 -0.0010585906 -0.0017401874 -0.0043161022 0.0024016616 0.0002194657 -9.791087e-05 0.0012955368 0.0045932373 -0.0025992345 0.00044480618 0.0039887074 0.002639358 -0.002886545 -0.0028233735 -0.0039665336 -0.0028215556 -0.0004681996 0.0014255652 -0.002484986 0.0034423862 0.0010008626 0.00061804196 -0.00036519067 0.0026106257 -0.0014028251 0.0013311827 -0.0028258967 0.004526822 0.0006793076 -0.0035198415 0.004891906 -0.0041987626 0.004822213 0.00301917 -0.0037139338 0.0024416293 0.0047235675 0.0023060208 -0.0045510996 0.00073430315 0.00452671 0.0017737071 -0.0013519346 0.00022430997 -0.0034654718 -0.0026740711 -0.0048857844 0.0032669539 -0.0040258924 -0.0017143607 -0.002533852 -5.0270464e-05 0.0016135764 0.0009990637 -0.0026864796 0.003238488 0.0015964 -0.0045065945 -0.0011143028 -0.00031955726 0.0037928568 0.00058887247 0.00297922 0.0043946775 0.0019141068 -0.000496753 -0.0040311646 0.0005642278 -0.0025397814 0.004862815 0.002341175 0.00014470145 0.0023521427 0.0027104784 0.00094792945 -0.00041402085 -0.00029083015 0.00012358092 -0.0020347303 0.0032483414 -0.0020250094 0.0034375433 -0.0027261 -0.0026012121 0.0039289016 -0.0038888282 0.0014480208
[myshopify] 0.00288169 0.0012618746 -0.002753014 0.0011989945 -0.004614027 0.0045102853 -0.0039984337 -0.0017938917 0.0019393335 -0.0032866376 -0.004741037 -0.0025836378 -0.0041038566 0.00018349476 0.0016221195 0.0011943574 -0.0020630842 -0.0018235408 0.00072116964 0.0016678637 0.0031697955 -0.00026690355 0.0038887635 0.0031174542 0.00043706875 0.0010290737 0.00019760244 -0.0031870753 0.0040568803 0.000775686 -0.0028759902 0.0039939657 -0.0012718821 0.0011320431 0.004520228 -0.0024781162 -0.0026721978 -0.002713955 0.0005506058 0.0048822816 0.0040658247 -0.000866788 0.000515637 -0.0032334477 0.0023850976 0.0011207573 -0.0044037346 0.0019842829 -0.000257249 0.00031832233 -0.0024051522 0.0022388105 0.00012009218 0.0025104051 -0.004836338 -0.0025601499 -0.0019908135 0.0026264102 0.004897033 -0.004555935 0.0017800517 -0.0045912 0.0038900794 -0.0013073694 0.0041580712 -0.0015382045 0.0037786914 -0.0029151076 -0.0024216603 0.0034931423 0.0018581031 -0.00039914018 -0.0025453896 0.0020878338 -0.0032070647 0.0011344105 -0.0007893075 -0.0035058875 0.0012654024 -0.00242195 0.0002819132 -0.002527067 -0.0031958441 0.00015235972 -0.00057910243 -0.0009008958 0.0026765196 0.004628878 -0.0006461507 -0.0010654046 0.0035211071 -4.3760985e-05 0.0025517666 0.00019531418 0.0022352417 0.002089683 0.0047451053 0.0032505784 0.0045832302 -0.0036500953
[pro] 0.004773598 -0.004915682 -0.0040144557 -0.001638968 -0.0025759595 0.00074828183 -0.003918556 -0.0025681043 -0.003819191 -0.0012962597 0.0008558654 0.00419591 -0.0041498626 -0.00025762245 0.0044196816 0.0043854145 -0.0014885461 -0.0041681365 -0.0008243136 0.00019417936 0.0026544766 -0.0011056268 -0.0016068225 0.002478004 -0.0032432943 -0.0007169582 0.0025372286 -0.0038383482 0.0019149329 -0.003270858 -0.0018835545 0.0036945734 -0.0035039084 0.0001713233 0.0036211917 0.0024563414 -0.00079749105 -0.0024092894 0.0011961204 0.004131779 -0.002231177 0.0007165228 0.0006896509 0.003172391 -2.9882416e-05 -0.004905344 0.00023683906 -0.0043032058 0.0036113719 0.0007021413 0.0044338787 -0.0023809553 -0.00371572 0.00058260094 0.002033466 -0.0031343508 -0.0010578888 0.0007776548 0.0020100768 0.0009589265 0.003742463 0.0006301999 -0.0016247015 0.0017851256 -0.0009623696 -0.0020732307 0.0023926059 0.0023493855 -0.0031016183 0.001890474 0.00034198957 -0.0017319464 0.0040212516 -0.0043754545 0.00077154767 0.0023576133 -0.002134853 0.0012810961 0.00044114236 -0.0026159196 0.0015759468 0.0016400595 -0.004659776 0.003913614 -7.925089e-06 -0.0032289266 -0.0034269881 0.00217269 0.0036086123 -0.00091719814 0.0047978945 0.004417003 -0.0020352434 0.002644925 0.0039567407 0.0034023393 0.0045412285 -0.00040568784 0.004528668 -0.004964601
[jp] -6.845221e-05 -0.0043260455 -0.003720244 -0.00033436995 0.00053060474 -0.00026081642 0.0030678613 0.0013940716 0.0013037091 -0.0024860846 0.0049597146 -0.003687723 0.0045945114 -0.002621358 -0.0038107329 0.0024717473 0.003033244 0.0019135419 0.0014658938 -0.0034449582 -0.0009189411 -0.0029704105 -0.0024657273 -0.0023648303 0.0024173479 -0.0011089032 0.00105097 -0.0039746016 0.0042269714 -0.0025510227 -0.00063407 0.0034051426 0.0028752629 -0.0019952988 0.0043938514 -0.0032697148 -0.00062036794 0.0033551846 -0.002644065 -0.0032569221 -0.0018005376 0.003609878 -0.00049788645 0.00043801172 0.0023917477 -0.0021560872 -0.0012343358 0.003268552 0.0035322513 0.0041344557 0.0044676606 0.0016850936 -0.0036404985 0.002385431 -0.0047133057 -0.0018389695 0.0014729644 0.0035551675 0.0028541042 0.0032598851 -0.0036499118 0.00025745854 -0.0021514832 -0.0004361295 0.004088167 -0.004667682 0.00064221025 -0.0018227659 0.0029245745 -0.0021446347 -0.00032206066 0.004775064 0.0006293808 -0.00044908468 0.0036636284 -0.004866549 -0.0021125728 0.0010693008 -0.0040599536 0.00048675714 -0.0012351447 0.0027195178 0.003575243 0.0041703023 1.7764047e-05 -0.0027930397 -0.00083148666 0.0022931206 0.00052778376 -0.0029905885 -0.0037653018 0.0006390852 -0.0008383421 -0.0043953788 1.1220109e-05 -0.0034651016 -0.002171918 0.00090631424 0.00026214588 0.004433225
[livejournal] 0.0029956475 0.0040834863 -0.0045389202 -0.0008360017 -0.002957279 -0.0034837842 -0.0008170181 -0.004110665 -0.004064277 0.0038846172 -0.0032040095 0.0020162296 0.0042432556 -0.00037360005 -0.0045323083 -0.001102773 7.45533e-05 -0.0012469166 0.004601976 -0.00013790606 0.0042356905 -0.0032315361 -0.001499803 -0.0014102173 -0.0045015477 8.701347e-05 -0.004805948 -0.0034775697 -0.0026926636 -0.0047041387 0.0003769528 0.003078265 0.0034042178 -0.0027254003 -0.0023694353 -0.0023650187 -0.0029679858 -0.0020600115 -2.2543594e-05 0.0040946705 -0.0023709135 -0.0028986405 -0.003784719 -0.0023911367 -0.002282934 -0.00025569368 0.0041775927 0.0048041493 -0.0021964626 0.0005247672 0.0015471983 -0.0022563403 -0.0018493186 0.0016560233 -0.004171938 0.0049516317 0.003344398 0.0046471767 0.0010667783 -0.0032672868 0.0033871997 0.0011665779 0.00025565736 0.004344275 0.0005608769 9.0850517e-07 -0.0036319247 -0.00080923457 -0.0040581822 0.00031393953 0.0007298533 0.0009915866 -0.0014606558 -0.0034689736 -0.0009374325 0.004619415 -0.0003680922 0.0020771334 -0.0009406102 0.0018791854 -0.0014629858 -0.0017084843 -0.003090452 0.0014079455 -0.0043892222 -0.003831421 -0.0009726817 -0.0010477812 -0.00047942158 0.00053584576 0.0030603725 0.0032938225 0.002846133 -0.0004414334 0.003974014 0.0037170453 -0.0038844221 0.0041901907 0.0027629156 -0.0018924938
[my] 0.00064724265 -0.0011295585 -0.0012171941 -0.002444939 0.0025071423 0.004046751 -0.00019338308 -0.0008472097 -0.002028393 0.0031535504 0.0014103311 0.0019669444 -0.003661939 0.0043356866 -0.0022587478 -0.002973572 -0.00081040105 0.002704755 0.0034399051 0.0018268204 -0.003669955 0.0030758996 -0.004165771 0.00032786094 1.4423858e-05 -0.0029309774 0.0043075103 -0.0043395227 -0.0008642161 3.5307836e-05 0.00014254171 -0.0018193077 0.0011783731 -0.0047666864 -0.00033783913 0.0026610424 -0.000969918 0.0008111005 -0.0005739741 0.00224317 -0.0027747476 -0.000733695 -0.004051652 0.00453957 -0.0020453953 -0.0017851191 -0.0034532226 0.0009599286 -0.0014498001 -0.0030490519 -0.001031043 -0.0043597785 0.002282394 0.0037349537 -0.004949576 0.0014214637 -0.0010368018 -0.004008097 0.0036180709 -0.00049460726 -0.0023185473 0.0004799734 0.00026912754 0.00057359645 0.0031647692 0.003024742 0.0015352448 0.004055567 0.002926658 -0.00029390212 0.0018179524 0.0012907679 0.0043804776 -0.0009821784 -0.0031128698 -0.002431187 0.004839969 0.0009126784 0.0018559177 -0.0023526389 -0.00043161167 0.00018567126 -0.0020001584 -0.004459369 0.00079460023 -0.004037806 -0.004984773 -0.0005850247 -0.004213768 0.0016773003 0.0039475365 -0.003277483 0.0048902174 -0.0040231775 -0.0032694773 0.004339993 0.0028093373 0.0028212192 -0.0041817175 -0.0024322856
[azurewebsites] 0.0042076847 8.3744526e-05 -0.0024839055 -0.0045378986 0.0024549752 -0.003351109 0.0004622382 0.0038845213 0.00375266 -0.0029184478 -0.0036877715 0.0020747576 0.0014894963 0.0034611626 0.0042699 0.002696266 0.0029402338 0.0046214843 -0.0011022056 0.0027660257 -0.0036123456 -0.00035323622 0.0034069242 0.002932569 0.0048048664 -0.00088101625 -0.0011069875 0.0038496442 0.003410141 -0.0045265392 0.0007661963 0.0049916096 0.0038254727 -0.0017422992 -0.004888594 0.0021571023 -0.0011759703 -0.00144081 0.0029190984 -0.0007455251 -0.0012005174 0.0043427153 -0.0006273133 0.00088229496 -0.0037311367 -0.0011392087 0.0011618463 -0.004798062 0.001962653 -0.0010044365 -0.0046422337 -0.0016644984 -0.0016867071 -0.003991334 0.0017204229 0.004631118 -0.0037518828 0.0037300782 0.00418311 0.0033994513 0.0009704218 -0.0009271526 0.004013161 -0.0045613246 -0.0030184973 0.0022241925 0.004787202 -0.0020777248 0.0033011409 0.0037961854 0.0027967985 0.0017460668 0.004769043 -0.00012809737 -0.0013595365 0.0018450022 0.001505693 -0.0017556541 -0.00041800737 0.0037511196 -0.0022078448 0.0026789666 -0.0033795005 -0.000634287 0.0024282746 -0.0030905972 -0.004761073 -0.0041594487 0.00037409645 0.0038130768 -0.0014222723 -0.0010299431 0.004933535 -0.0009387769 -0.0036651362 0.0010696286 -0.003192904 0.0021931161 -0.004545052 0.0015897811
[net] -0.004495961 -0.004038278 0.0023576277 -0.0024110954 0.0019960348 0.0021585491 0.0015231776 0.001452738 -0.0013018828 -0.0020877128 -0.00090662437 -0.004563931 -0.002204973 0.0036565224 -0.004409675 8.5962005e-05 -0.0045045456 0.004175402 0.004228984 0.0049544247 -0.0023644215 -0.003193174 -0.004592009 0.00023189746 -0.0005269218 0.0019135782 -0.0035203276 0.00170107 -0.0017240262 0.0021089446 -0.0017201472 0.0045610974 -0.0035041575 0.0033883601 0.004347683 -0.0049431687 0.0014957418 0.0023772717 -0.00081899716 -0.0027555136 -0.0039001738 0.0039170505 0.00402039 0.0035544457 -0.0016625351 -0.0013680572 0.0022507207 -0.0046823937 -0.0049774116 0.00023305975 -0.0036777912 -0.0020513022 -0.00024036411 0.0047638016 0.002019553 -0.0034122323 -0.0046635354 -0.00015218137 0.00065207947 0.0036659809 0.00032156892 -0.0042250394 0.0035082027 -0.0034719252 0.0006983094 0.0013727807 -0.004956118 -0.0005725371 -0.0029239547 -0.004241597 0.003454649 -0.0032754384 0.004237213 -0.0029950726 0.0016212352 0.0003581182 0.00267117 -0.0043089096 0.003956545 -0.0009058793 -0.004202352 -0.0019992255 0.0036539594 0.001927224 -0.00049656164 -0.00062475726 0.0049100546 0.0021677446 -0.0020078085 -2.7552713e-05 0.0021204096 -0.0003863196 -0.0015122509 0.0019374387 0.00023607118 0.00044662412 -0.0041179247 0.00057957694 -0.0036459337 0.0027335542
[a] -0.00024986686 -0.0017053164 0.002211613 -0.0043295925 -0.0024450296 0.0006102412 -0.0039661257 0.0013685762 0.0032132063 0.004141054 -0.0003000321 0.0015689111 9.244401e-05 0.0014322894 0.0013229675 0.0016610431 0.0015627346 -0.0022964752 0.001947837 -0.0037510227 -0.0019013905 -0.00047283527 -0.00044692913 0.002818252 0.00047765626 0.003825442 -0.00050967326 0.002259497 0.00330857 0.0048976243 -0.0013035147 0.0029641464 0.0030153962 -0.0019661754 -0.0016069787 -0.0028545742 -0.0022757864 -0.0017425953 -0.002488784 -0.00438339 -0.0047234963 -0.00010720128 -0.0021387327 0.0010638302 -0.0029504984 0.00017649075 0.0026737917 0.00229576 0.0018803738 -0.0010518325 -0.0048130876 -0.0038402597 -0.002002027 0.00014139106 -0.0011401635 -0.0024297189 0.0044476874 0.003730962 -0.0011093116 0.0013895044 -0.0049959696 0.002201649 0.0028529558 -0.0031806258 -0.00061525544 -0.001356113 0.00078936433 0.0026453352 0.0011290084 -3.5571866e-06 -0.0022071635 0.0020213453 -0.0021987723 -0.0046528853 -0.00400359 0.0012524254 -0.0030702364 0.001121493 0.00044049043 0.0029713614 -0.0010381411 0.00451695 0.0037890421 0.0026215408 -0.0042535434 -0.0026201885 0.004518619 0.0023409347 -0.0026806085 0.0012540394 0.0033269217 0.0005667 -0.001489104 0.0018318254 -0.000342248 0.0021647261 0.0018896777 0.0027115047 0.004766388 0.0027363645
[la] -0.0022442632 0.0009836028 0.0022564773 -0.0044776057 -0.003119409 0.0012874086 0.0033007283 0.001000802 -0.0043588616 -0.0005490761 -0.0036281978 0.0035850387 -0.0016324157 0.002007423 0.0033975067 0.0039548436 -0.0038949004 0.0017110277 -0.0011439985 0.003353675 0.004780816 -0.0019401668 -0.002118277 0.0027109878 -0.002772513 -0.00078852614 -0.00324189 -0.0006501181 -0.003055605 -0.0029104922 0.00054505933 0.0029432168 -0.0003364156 -0.003607552 0.0045914715 0.004135443 -0.0020986868 -0.0016739839 0.0007690899 0.0020727809 -0.002338476 0.0008537113 -0.0023739922 0.0035722563 -0.003717389 0.003024537 -0.0020889752 -0.0001399829 -0.004991893 -0.0023581183 -0.0020738668 0.002467967 -0.0025697195 0.0019113016 0.0033942163 3.0232128e-05 -0.0006602346 0.00030312827 -0.0025517272 -0.0022175813 -0.00035331072 0.004235048 -0.0039869035 0.0048049474 0.004307946 -0.0016141557 -8.181576e-05 -0.0010381765 -0.001367755 -0.0016674458 0.00037872838 -0.004067297 -0.0009389501 0.0016509444 -0.00067784544 0.0020258622 -0.0043861335 -0.0031277465 0.004843903 -0.0046646516 -0.0046998863 0.00017748913 -0.0014297867 -0.0039825444 -0.003323325 0.000107488595 0.0037301797 -0.00083433604 -0.0012542855 -0.00020658271 0.00432752 -0.00093605043 -0.0016790945 0.0010752976 -0.0017289149 0.0008850442 -0.004762727 -0.0020036274 0.004402452 0.0042553786
[touch] 0.0010728906 -0.0014512765 0.0039555337 -0.0047634165 -0.0037276382 -0.0032265435 -0.0039355396 -0.0038210964 0.0005632937 -0.0038301419 -0.0009807856 -0.002587996 -0.0003320831 0.002471794 0.0002871235 -0.00051312847 -4.1548163e-05 0.004825591 0.0030208174 -0.0016995114 0.00016510207 -3.3578835e-05 -0.001398111 -0.0003088303 0.0010637497 -0.004638946 -0.001256197 -0.00015935348 0.0029507196 0.0011012126 -0.0047075856 0.00022943458 0.0011882605 0.0029748501 -0.0024165981 -0.0042055016 -0.0035346143 0.00038665952 0.003011317 -0.001114124 -0.0043654507 0.00016172696 -0.001342336 -0.0017490708 -0.0019846563 0.002864875 -0.0015410429 -0.0043186867 -0.003467623 -0.0010883794 0.0017927671 -0.00063330727 -0.0018964421 -0.0037861685 0.0006721597 0.0034495564 -0.0044913855 -0.0034881574 -0.00035711937 -0.0032948665 -0.0015022678 -0.0013141555 -0.002046827 0.0014112312 -0.0016905207 0.004434445 0.0028709294 -0.0034422968 0.0013747257 0.004942151 0.0024003414 0.004139635 0.0018993169 -0.0042364434 -0.0026560104 0.00492638 0.0015766746 0.00059457263 0.0016017724 0.00065628765 0.004398519 -0.002237569 -0.0024868078 0.0026634107 -0.0018852418 -0.0007450427 -0.0034937256 0.0029275902 0.0027793972 -0.0022331725 0.00181934 -0.0039112405 -0.0032092244 0.001809353 -0.0039279517 -0.0029223424 -0.0016966385 0.0016899942 0.004949739 0.0028389515
[vf] -0.001486562 -0.0005759937 -0.0031249616 0.00376233 0.0027926676 -0.00085053965 -0.0039414493 -0.0020879752 0.0047191354 -0.0049276804 -0.003659389 -0.004217384 -0.003604895 0.0045935027 0.0018683439 0.004333771 0.0040017916 0.0024971925 0.0040364545 0.002171495 0.00476571 -0.000636925 -0.004719409 -0.001261757 0.002233456 0.0024572057 0.0036203237 0.0036076251 0.0014316859 -0.0022845804 0.0016445406 0.0036125435 -0.0019916827 0.002947566 -0.00092429155 -0.0010122382 0.0016075494 -1.8496066e-06 0.00031965738 0.001662219 -0.0043556876 0.0011560903 -0.0022813785 0.0006191074 -0.0036944328 0.00429938 -0.0042214678 -0.0023731124 -0.0014992524 0.0014413581 -0.0024249929 -0.0030151159 -0.004963698 0.004256252 -0.002185102 -0.0012295693 -0.00091908034 -0.0044849706 -0.0029165118 0.004619183 -0.0015340329 -0.004196525 0.00036970992 0.0044913627 0.001340034 -0.0023837923 -0.0031645398 0.0016037636 -0.0023511362 -0.0034568738 0.0045530964 -0.002800489 0.0041317446 -0.0008833604 -0.0015291416 0.0034651337 -0.0024210555 -0.002297585 0.003843505 0.0037495187 -0.0018412601 0.0017877398 0.003813969 -0.004326236 0.0047264267 0.003128835 0.0018960321 -0.0019964366 0.0013554208 -0.0014724005 0.0019825855 0.0045183236 0.004594125 -0.004355097 -0.0034796672 -0.0011328638 -0.002656161 -0.0015667491 0.0012199245 -0.0021348053
[altervista] 0.0043733837 -0.00020560436 0.004324641 0.0004752134 0.004616894 0.0047501763 0.0048643127 -0.0045391098 0.0008838065 -0.0032438557 0.0045261895 0.0033220127 0.0033626677 0.0012913872 -0.0044736927 -0.001418709 1.3219658e-05 -0.0011740495 0.0038070465 0.0027397661 0.00041482737 -0.0036136936 0.0038822629 -0.004790637 0.00034947135 -0.004884375 -0.004603384 0.0020470847 0.0016071582 -0.0026285255 -0.000843585 0.00094989827 -0.0034793722 0.004783869 0.0012416216 0.004739262 0.00203735 0.004670066 0.004238516 -0.0026718448 -0.00076440675 -2.1313317e-06 -0.003480767 -0.0047120876 -0.0010307585 0.0044156127 -0.0032118969 0.00053415773 5.342299e-05 -0.0038725734 0.0023009945 0.0034021745 0.002190412 -0.0026946045 -0.0014701677 0.0028305463 0.0029252255 -0.0046313554 -0.0012839346 0.0017584031 0.0025571785 -0.0036505032 0.00454038 -0.0016020483 0.0016921232 -0.0010078321 0.00016838731 -0.0004214435 -0.0031886236 0.0023225732 -0.0035998325 -0.003081163 -0.0039737425 0.002338788 -0.0020687114 0.003460668 0.0001020967 0.0041950615 0.0039323494 0.002257776 0.0017085988 0.0046185935 0.0006128298 0.003748673 -0.00020970264 0.0019370914 -0.003730129 -0.0035212748 0.0030158814 0.0034993961 -6.657839e-05 -0.0009418903 0.0028848602 -0.0046587316 0.0029105553 -0.001860128 -0.0037498758 0.0032045422 -0.002354259 -0.0049529127
[org] 0.00037187338 0.0017768424 -0.001275372 -0.002186293 -0.001820693 0.0018127058 0.00019460451 -0.0019765412 -0.0025305818 -0.0022486888 -0.00498779 0.0021832753 0.0028136717 -0.0041931607 -0.0028752093 -0.00466034 -0.004004743 0.004985065 0.0025269995 -0.00093595264 -0.0013416659 -0.00187178 0.002855422 -0.0042991857 0.0017389632 0.00030344725 -0.0016130602 0.004752144 -0.0030262475 -0.00094658975 -0.0017581927 0.00338474 -0.00037323823 -0.0017603235 0.0033894116 -0.0007171384 0.0045928443 -0.0015680646 0.0034554629 0.0017954949 -0.004326704 -0.00079805125 0.0031567123 0.0009146468 -0.003430476 0.0048660124 -0.0043545454 0.004713198 0.00015487568 0.0034859153 -0.0036675977 -0.0029913175 0.0016362988 -0.0014234507 -0.0016658413 0.004499317 0.0004931758 -0.002182946 -0.0034148705 -0.002307406 -0.0016448151 -0.0008052285 -0.0011989749 -0.0028099716 -0.003690978 0.00068843365 -0.0016000383 0.0022061612 -0.0022749393 -0.0029829359 -0.0049536214 0.00026608352 -0.003477578 0.0030231467 0.003521327 -0.0028976267 0.0010862215 0.00028348574 -0.0002795076 8.6177606e-05 -0.0017930251 -0.002788937 0.00023663044 -0.003330245 0.0020936225 -0.00028915657 0.0026799948 0.002474615 -0.0015428178 -4.4865534e-05 0.0005032779 0.002511703 0.0040205307 0.0028055091 0.0015686625 0.0038898159 -0.0011535643 0.0035628919 -0.0014960449 -0.002594583
[store] -0.001774624 -0.003567432 0.003886288 0.0014978023 -0.0047152108 -0.0026931548 0.0001674993 -0.00018026121 0.0049961396 0.0025959252 0.0043145465 -0.0044849105 0.004217713 -0.0018172115 -0.002903092 -0.00020942744 0.003518655 -0.0049602073 -0.0041174004 -0.00057572965 0.00069426885 -0.0003023171 -0.00049030734 0.0042339107 -0.0030994504 0.0044286586 0.0037465822 -0.0016052776 0.0023434674 0.0001297216 -0.0048323357 0.0031852843 -0.0017567878 0.0048856344 0.00012611458 0.00020712567 7.849932e-05 -0.0019783664 0.003917115 -0.0031184978 -0.0017329783 -0.0019054471 -0.0035953647 -0.0015373838 0.0016923719 0.0032675117 0.0008536768 0.0027521662 -0.003658974 -0.002746738 0.0041452944 0.0005349838 -0.0012109922 0.0037375167 0.0012258468 0.0017515076 -0.001034169 0.0031964052 0.003340871 0.0014821263 -0.0034761662 6.467337e-05 0.0022667889 0.002347868 -0.0013285195 -0.0007159193 0.0039533023 -0.00084893545 0.0030664103 -0.0033428986 -0.0010049744 0.00010490464 0.0010421965 0.0038194135 0.0028742114 0.0032110224 -0.0047837994 0.0026620477 -0.002271081 -0.0017731881 0.0027215746 -0.0018330996 -0.000547315 0.0019008499 0.0033499189 -0.00094484584 -0.0048450655 -0.00013096072 0.002664838 0.0039246883 0.0018474646 -0.00070966594 -0.0030999468 -0.0017978817 0.003238136 0.0011732983 -0.00456183 0.0017789858 -0.00054512266 -0.0014508753
[mybigcommerce] 0.0021502934 0.0025839624 -0.003030443 0.001247101 0.001257116 0.0028289584 -0.0013166112 -0.0013499861 -0.0029766476 0.0040997574 0.0037680343 0.0010666465 0.0041560335 -0.0017479586 0.0014169067 0.003930265 -0.0008483203 0.00010682596 -0.0033346044 0.00043492205 -0.004815719 -0.002087649 -0.0013620323 0.0040627792 0.0042507956 0.004097606 -0.00069245556 -0.0035981357 0.0026005586 -0.0008189408 7.3779374e-05 -0.0024597095 0.0046833903 -0.002282201 -0.0011602549 0.0007209126 -0.0028451819 0.002393419 -0.0049332315 -0.0027757788 -0.004594543 -0.0047988514 -0.0010034298 0.002801782 -0.0034521734 -0.0034568221 -0.0008218568 -0.001444357 0.0009456086 0.0030610804 -0.0035339147 0.0014497135 -0.0031025074 0.00211382 0.0014734967 -0.0033280873 0.0029110992 -0.0008999361 -0.0038933624 -0.0032905368 0.0046613645 0.00291052 -0.004036619 0.003106596 -0.0010973269 0.0009910674 0.0031524142 0.0012753285 -0.0023331498 -0.0025114066 -0.0017504627 -0.0046809674 -0.0040000025 0.004332944 0.00092363777 -0.0032340717 7.873075e-05 -0.0037089388 0.003181382 0.0020895428 -0.0032267945 0.0014362596 0.0036083395 0.003325996 0.00492712 0.0015004687 -0.0011997586 -0.0037333271 0.0029450636 0.002138264 0.00015844451 0.0027119163 0.003658536 0.0038273837 0.0023204894 -0.00333678 0.00013096351 -0.0012929207 -0.0007111626 0.003316922
[squarespace] 0.0017722952 0.002998569 0.0032565603 0.0030484702 0.0035738023 0.0012470265 0.0016923617 -0.0018523275 0.0031411499 -0.0039099157 0.0040808395 0.0013659606 0.0014053099 -0.0005210452 0.0049772253 -0.0026082427 -0.004536291 0.0042935004 -0.0014217461 -0.0041655935 -0.00088275503 -0.0044741053 0.0031573642 0.0046799947 -0.0013847053 -0.0025007874 0.000832879 -0.0013111143 -0.0035568113 0.0009910958 0.0029834453 0.0035846941 0.004431949 0.0031531146 0.003439391 -0.001202079 -0.0037524253 0.0019343467 0.0013858797 -0.0011964161 0.0015135026 -0.0014396554 -0.0002865987 -0.0015543287 -0.00094798626 -0.0046654013 0.0024439744 0.0020308052 -0.0032637627 0.0029716901 0.00026675826 0.0029761866 -0.00025170995 -0.00393852 -0.00088219205 0.0031434763 0.0027861497 -0.0033597862 -0.003693956 0.004581159 -0.0036889315 -0.0016857588 0.0043274118 0.0018100683 -0.0029567098 -0.0013504846 0.004734178 0.0030225953 0.00064554624 0.0016548941 -0.002716518 0.0040431004 0.0011877203 -0.0041397912 0.0030746367 0.0013456256 0.0015556789 0.002107405 0.003940707 -0.003188883 -0.0032508033 0.0011823378 -0.002757426 -0.0048774024 -0.0044020624 0.0039110063 -0.0018252654 0.00062795496 0.0036157528 -0.0044436776 -0.004621184 0.0047170715 0.0049193073 0.0034702234 0.0018525021 0.0015909038 -0.00033647427 0.0044825263 -0.0019462926 0.0016407622
[be] 0.0024458962 -0.0024686998 -0.004054372 -0.0038652397 -0.004539298 -0.001618495 0.0025846087 0.00016415818 0.0044269515 -0.0016281365 -0.004133253 0.002622717 -0.00422001 -0.0022974485 -9.7415876e-05 -0.0020292443 0.00053870305 0.0015387535 -0.002559871 0.0020967955 -0.0016702907 -0.0013451378 -0.0024070793 0.0014498392 0.0031282082 0.002997892 -0.00022009807 -0.004535352 -0.0019582426 -0.001224261 -0.0030660266 0.0035484899 0.0027966904 0.0040753493 0.0048217447 0.0040843757 0.004431272 0.0040647686 -0.0033806663 -0.003685466 0.0017146589 3.4755096e-05 -0.0046405783 -0.0028642719 -0.0007288349 -0.003935541 0.0012561791 0.00040461915 0.0011962159 0.0048540197 -0.003653615 0.0044726646 -0.0044809524 -0.0012056648 -0.00065239565 0.0034850575 -0.0032343047 -0.0016567868 0.001343823 -0.0017032134 0.0016643829 -0.00017331308 0.0007725982 -0.0040767705 0.0036125025 -0.0007255357 -0.0021593682 -0.0020847004 0.0028861696 0.004894901 -0.0045313877 -0.0010870667 0.0020714835 0.003454159 0.0016142512 -0.004152683 -0.0044079265 -0.0043444466 -0.0037345653 0.00023402413 0.0031967713 -0.0044669746 -0.0043843314 -0.0025166415 -0.0032261233 -0.002441135 -0.0021261924 0.0006632195 0.0041737417 0.0019796924 -0.0002284944 -0.0012519758 -0.004893469 -0.0045657167 0.0022918535 -0.00023000408 -0.0026372783 -0.00230348 0.0031053675 0.0027469513
[online] -0.0018245124 -0.0036462098 0.00046744244 -5.5627897e-06 -0.00022600032 0.004935475 0.00014900323 0.0016849046 -0.0041269287 0.004921494 0.003199989 0.0044808285 0.0013322723 -0.0012730865 -0.0028633724 0.004144095 -0.0015054208 0.0039949873 -0.0037671141 0.0010249899 0.0016354602 0.0028572045 0.0016001314 -0.0028401725 0.0017953883 -3.8109254e-05 -0.0018573194 0.001328194 0.0038526068 -0.003343228 0.00012364378 0.0020363438 0.004908231 -0.004269555 0.0013221996 0.0009929589 0.0038235513 -0.003890057 -0.0018027471 0.002046925 -0.0019491743 0.0008191811 0.0040394375 -0.0048593073 0.0029209135 -0.0026001066 0.0016624993 0.0035992032 -0.0013934206 0.00320552 0.004359533 -0.0004902305 0.00012431107 -0.0046927035 0.002694611 -0.0018364864 0.002480431 0.0006426666 0.002338612 -0.0014184664 0.0040096696 -0.0029011827 0.0008164705 -0.003219617 -0.0011215496 0.0036743172 0.0046697045 0.004748077 0.00019036187 0.003922536 0.0026195757 -0.0043930947 -0.0012237071 -0.00391761 -0.00384324 0.0038239267 0.0021188394 0.0026487433 0.0042698374 0.001354205 -0.002559111 0.004985516 0.00086648297 0.0035276767 0.0011151405 0.00088483514 -0.0012709636 0.001730355 0.0005334504 0.0030820062 -0.0019131403 0.0033023022 -0.0029390329 -0.00354761 -0.0031676334 -0.0047675953 -0.00034806272 -0.004191116 -0.0017011208 0.0011245417
[in] 0.004064043 0.002019913 -0.0035838662 -0.0032961755 -0.002985708 -0.0029792022 0.0034274794 0.0031013582 -0.0009912229 -0.0015240056 0.0014745742 0.004906741 -0.0014386349 0.0013287473 0.0033669034 -0.00084099174 -0.0010200716 1.1863653e-05 0.00020645745 0.0032648155 0.0041907206 -0.0038600052 -0.0019892573 -0.0023760838 -0.003069238 3.534509e-05 0.0035169264 -0.0038789832 0.0033547124 -0.0017750543 0.00021958211 0.0039796242 -0.0039434973 0.0040092636 0.0037227944 -0.004289599 0.0038385466 -0.0005245181 -0.0007137102 0.0037880763 -0.004480518 0.0034452546 0.0013501025 0.0014132797 0.0032022586 -0.0027187406 0.0037518246 -0.0022232484 -0.004708986 0.0011358028 -0.0010294397 -0.0046295356 -0.0043857777 0.001188261 0.00465409 -0.0040595834 -0.0027594762 0.003278763 0.0012396639 -0.0016584003 0.0045077074 0.0036849994 0.0039358297 -0.0036443912 -0.0030131394 0.0032517388 0.0009602583 -0.00032209046 0.003717322 0.00036926568 0.0034385184 0.003890656 -0.0030592745 -0.0032561556 0.0037917215 -0.00019026175 0.0027307556 0.0043452857 0.0012619733 -0.0029516672 0.0012848768 0.004902835 -0.0045145564 0.0041784234 -0.0012354897 0.0031310907 -2.699485e-05 0.003555038 -0.0027348553 0.0003310577 0.0010817386 -0.0011549462 -0.00062953774 0.00069093425 0.0046669412 0.0035696272 -0.0034101806 0.004630519 -0.0023924946 -0.004755221
[live] 0.003654318 -0.0010036612 0.0011574049 -0.00082714995 -0.00075117964 0.002933221 0.003955204 0.0022401726 -0.00045624143 -0.00043738354 0.0029403372 -0.001073374 -0.003522369 -0.0024058395 0.00019830186 -0.0035500787 -0.0034983116 -0.004746446 0.002382759 -0.0049072383 -0.0026099186 0.0031430377 -0.0041069537 0.002966024 0.0023774933 0.0011037062 0.004062427 -0.0002408647 0.0027117343 -0.0002272278 -0.0026606666 0.0016867025 0.0011155675 0.001061778 -0.00046499865 0.0021562981 -0.0024250883 0.004424912 0.0034494372 0.001349269 0.0049886126 -0.002743358 -0.0043295342 -0.0020982986 -0.002727006 0.0022980147 0.004623687 -0.0039341757 -0.0042516235 -0.0013965678 0.0038289316 0.0033445843 -0.004294749 -0.0028689145 -0.0017737627 0.0016114153 0.0033966713 -0.0015410292 -0.0049468786 -0.0027538221 0.0035388488 -0.00010504527 -0.0027811646 0.004093269 0.002151059 -0.004056354 0.0018192022 0.0049243756 0.0013653487 0.002062574 0.0033334745 0.0029216586 0.0009933729 0.0033578416 -0.004876693 -0.0017433495 -4.7324225e-05 0.00037826225 -0.0029624312 -0.0031985492 -0.00271223 0.00046453066 0.0043701865 -0.0047181617 0.0037994776 0.0015819347 0.0036128145 -0.0015950066 0.0019429354 -0.00072731124 0.0008165343 0.00019014021 0.003157721 0.0045329686 0.00041627092 -0.0036873398 -0.0045856005 -0.0039542965 0.0023475382 0.0030008312
[best] 0.0022963919 0.002956558 0.0027002199 -6.597489e-06 -0.000631765 -0.003137189 -0.0021277124 0.0013636793 0.0026151561 -0.0043823607 -0.003498618 -0.002299931 -0.002831819 0.0006634891 0.0013845013 -0.004893708 0.0012364918 0.0045850407 -0.0018610328 6.962707e-05 0.0030534584 0.001866308 0.0024853074 0.0030281618 -0.0035063326 -0.00085388636 -0.0037636815 -0.0018711339 -0.0032462287 -0.0008125282 -0.0030576573 0.0047571743 -0.0031006937 0.0006108894 0.004532992 -0.0042311186 -0.002312998 0.0001953668 -0.0017090039 0.0036052074 -0.0022083372 0.0043121474 0.0011237245 0.0027009435 0.0022276053 -0.0007538991 0.0029992647 0.004705441 0.0045009404 0.0013656407 -0.004352031 -0.0012714672 0.0033648517 0.0017232327 0.00035667 0.0003419835 -0.0049569784 -0.0005497481 0.0038929982 -0.0025090969 -0.003941638 0.0023597414 -0.0015374713 -0.0049864682 0.001050096 0.002748008 0.0034610294 -0.0014204597 -0.0026859806 -0.00048610615 -0.0029930568 -0.0006289501 -0.0031486857 0.0012783338 -0.00485114 0.00016842084 -0.0027134144 0.0012576915 -0.0015862156 0.0041461177 -0.004663455 0.003007847 0.0003288295 -0.0013134498 -0.0028478175 -0.0012694371 0.0030909814 -0.0038448672 0.0006488436 -0.004133625 0.0009265854 -0.0048003728 0.004899256 -0.0020372176 -0.0025092524 0.0009287717 0.00085440045 0.004312196 0.0009887773 -0.001915599
[good] 0.0021738922 -0.0012968481 -0.0010908311 0.0017473302 -0.0045318664 -0.0031997405 0.004225035 0.000108311884 -0.0038645933 -0.0016011493 0.0026661223 -0.00020435033 0.001041343 -0.00065880595 0.0021164021 -0.00472141 0.0028309869 0.0026655858 0.0024165171 0.001703443 -0.0040120315 -0.00017377688 -0.0042037554 0.0048527904 0.003124115 -0.001258468 0.0005420344 0.0035805125 -0.00448625 -0.0026725447 0.0020726859 0.004955734 0.0035964744 0.0029307343 -0.0031448412 0.0037276112 0.00014125835 -0.003698716 0.0035085147 0.0015236419 0.0006508152 -0.0032703937 -0.0011864423 0.0012461226 -0.0015282207 -0.003443647 0.0027092374 -0.0033525538 -0.0013969319 -0.004184839 0.004144338 -0.0042300215 -0.00057441834 0.000494977 0.0018909848 -0.0038736658 0.0010412382 0.0011827513 -0.00017581042 -0.0029790592 -0.0035747152 -0.0037325108 0.004238149 0.0023472602 0.0031292494 0.0039954204 -0.0017695217 0.002139918 -0.0035806806 0.00022838963 0.003348873 0.0012323204 0.0013100766 0.003562687 -0.003815502 0.0035786629 -0.0035998856 0.0025881757 0.0035311375 -0.0023460132 -0.0047278125 0.0006087343 -0.0017076207 -0.0022844553 0.0012731892 0.0006161332 0.0028864853 -0.0010820157 -0.0004837988 0.0013799579 -0.002793945 -0.00402774 0.0015026466 -0.0027516638 0.00080855144 0.0016784943 -0.001011631 -0.00084841903 0.0022679488 0.0038235327
[react] -0.0016989135 0.00049812533 0.004242955 0.00051215105 0.0032957448 0.0016712369 -0.0047989627 -0.0023452155 0.0036995728 0.0048556533 -0.004107152 0.0024306225 -0.0037190048 -0.0039701043 -0.0001109289 0.0006800792 0.0048735347 -0.0022012794 -0.0010752981 -0.004620657 -0.00044826325 -0.004485902 0.004599794 0.00060933037 -0.003068292 -0.0015702022 -0.0025107455 -0.0042756647 -0.0009560017 -0.0016714609 -0.0033226893 -0.004536748 -0.0047835433 -0.00022514584 -0.0017849398 -0.0040345085 -0.0027100616 -0.0049395403 0.0011861236 -0.0006039501 -0.0005021845 0.0037175464 -0.0032093553 0.0021663206 -0.0036933988 -0.0035289489 0.0012904392 0.0025091926 0.001907602 0.0039230622 0.0035442915 0.0016347258 -0.0038666925 -0.004564641 0.000933249 -0.0013323242 0.0024264283 0.004120956 -0.0046399543 0.0026992676 -0.002080094 -0.0013408095 0.004147889 0.004719506 -0.0006976016 -0.0048905876 0.0031724032 -0.0017908376 -0.0016689932 -0.002643855 -0.004963347 -0.0045334995 0.001429494 -0.004072249 -0.0016734849 -0.0037505203 0.0025215764 -0.00297844 -0.0013307398 0.0008363039 0.0017449767 0.0037610093 0.0035055624 -0.0015491438 -0.0046078423 0.0019619982 -0.0016086113 -0.002066931 0.0045016343 -0.004784284 0.003989756 -0.002630087 -0.00038704043 -0.0031655997 -0.0024557656 0.003274451 -0.00014402019 -0.0033447873 0.0012618545 -0.004453971
[github] 4.3609645e-05 0.0030142954 0.0018543871 -0.0014677893 0.0029805405 -0.0033146767 0.0022174902 0.0023976122 0.0009693168 -0.00035078125 0.0031707007 -0.0044363043 -0.003094446 -0.0014566367 0.0046095178 0.002440732 -0.0027623868 -0.0036441898 0.004763267 -0.0047945115 -0.0026105093 0.0026269243 -0.0002535861 0.0021861247 -0.0034857285 -0.0010329699 0.0045487657 -0.004471587 -0.0018345648 0.0033443999 0.0022894377 -0.0013183157 0.0019626804 -4.90807e-06 0.0021059616 0.00064636767 -0.001812588 0.002099102 0.0047409907 -0.004477761 -0.0027585053 -0.0041544256 0.002241292 0.00022662943 -0.0036480986 0.0048805103 0.0010345597 0.0043880884 0.0030629905 0.0045426507 0.002406964 0.0023720423 -0.0016154391 0.0033425707 -0.00042739557 -0.00023946771 0.0025643627 0.0010251887 0.0032675434 -0.0024296932 0.003479207 0.0014073723 -0.0012658858 0.004448628 -0.0043433164 -0.00061893696 0.0033198819 -0.0027412628 -0.00052819774 0.0019025062 7.153815e-05 0.0013806252 0.00039767614 0.0008197748 0.0033335024 -0.0014352237 -0.0017279303 -0.0011350506 -0.0020910793 0.003835909 -0.0024869645 -0.0025714939 -0.001790002 -0.0019219453 -0.0007579839 0.0036886577 -0.0036338537 0.0012582513 0.004907051 0.0021550483 0.0037172409 -0.0016042483 0.0019865972 0.0032924134 0.0019194018 0.00069471775 0.0036530467 -0.0025643087 -0.0014091532 0.00034931581
[trading] -0.0008590943 -0.0019561648 -0.0016004115 -0.0013506191 0.004984495 -0.0031637866 0.00031876937 -0.0012303435 -0.003917467 0.00024507986 0.0024733334 -0.002926417 0.0020472552 0.004605191 0.0016709105 0.0049642827 -0.00037395954 0.0030685468 0.0032319622 0.000681465 -0.00036881585 -0.003908138 0.0016048728 -0.0010547503 -0.004069215 -0.0011265886 -0.0014531792 -0.001699199 0.00077191135 -0.0040428513 0.0027986546 0.0035241926 0.00097369775 -5.448563e-05 0.0029572258 0.004824779 0.00061485823 -0.0044650976 0.0016949088 -0.003174452 0.004376705 -0.0014788145 -0.0047751796 -0.0039988183 0.0047621336 -0.003371479 0.00091840373 0.0046328856 0.001135285 0.0013697725 0.00245565 0.004095773 0.0047642747 0.0020499043 -0.0017404347 9.1127586e-05 -0.0045710145 -0.0027805518 -0.00033886265 0.0029631201 -0.0022948652 -0.0045836335 -0.002764734 -0.0046754987 -0.00019115489 0.0025281804 -0.0019327318 0.0025299625 -0.00076679233 0.0034784656 -0.0048141414 -0.0036151693 -0.0042039887 0.004722351 -0.004186347 -0.0030294948 0.00084764045 -0.0034041107 0.0032984037 0.0020952295 0.0019494281 -0.0002599447 -0.0037692208 -0.0037328552 -0.0021088154 -0.0029966503 0.0022445437 0.0021000043 -0.0048933653 0.0002523847 0.00082426285 0.0017202152 0.0009733909 -0.002227397 0.003494206 -0.0013959282 0.0027865754 0.00064540096 -0.0044053835 0.0041507306
[new] -0.003947653 0.0009787921 0.0019442937 0.0026258961 -0.0049276585 0.0026046229 -0.00050202245 -0.002941299 -0.002464003 0.0028817793 0.0028711418 0.0021274225 -0.002060104 -0.0016407107 0.0010202266 -0.0006452133 0.0018616933 0.0017135302 0.0016335039 -0.0003009434 0.0012014899 0.0039543547 0.0023354525 0.0029575396 -0.0046574194 0.0031126663 0.0030178018 9.8819844e-05 0.0032504648 -0.0025797891 -0.003921521 0.0024642432 -0.004607295 -0.0018223876 -0.0044190483 0.000366651 -0.0027845728 0.0033858651 0.00015108148 0.0026815026 -0.0022737181 0.0014680917 -0.0029718536 -0.0046333508 0.0022222083 -0.0027345018 0.0029302035 -0.0038804817 -0.0001554992 0.0044828877 0.0046956046 -0.0035408442 0.0028424999 -0.00078976806 -0.0047535268 -0.0017546355 -0.0009752852 -0.0018495845 0.0004080208 -0.0049733906 -0.00015839748 0.00045748428 0.0014827303 0.00047676126 -0.0015694743 1.2512784e-05 -0.0036945138 0.00097362464 -0.0025217484 3.447756e-05 -0.00048594223 -0.002367602 -0.0030923397 0.004164501 0.00014778692 0.0019792155 0.004836969 0.00021584518 0.003058955 0.000875317 -0.0019500928 -0.003354696 -0.0035508405 0.0011604656 -0.0043619154 -0.0031933289 0.00011338992 0.002708069 0.0011533522 0.001204629 0.0027898299 0.00031528808 0.0020513474 -0.00044430513 0.002701398 0.0021037576 0.004458802 0.0042249886 -0.0034241937 0.0013166182
[templatesyard] 0.0025626621 -0.0014071411 -0.004190331 0.0010188068 0.002549286 -0.00048938347 0.0015295572 -0.0036920337 -0.0018427675 0.0028328747 0.0008243276 -0.0041088443 -0.0008609379 -0.0021446121 -0.003603912 0.0008157934 0.0022058766 -0.0030575786 0.0019741445 0.0016825413 0.0027110297 -0.0041153887 0.001087625 -0.00454217 -0.0016315775 -0.0043393243 -0.0027329223 0.004748256 -0.0007343353 -0.0023484528 -0.0017378938 0.0022440315 0.0021663858 -0.003376326 -0.000591449 0.0022772793 0.0011631832 0.0028512431 -0.004770981 0.0017557032 0.0044201333 0.0012687482 -0.0013858681 -0.0023578315 0.004867374 0.0011222712 -0.0026913302 0.0004926915 0.004433443 -0.0033328664 -0.0047307694 0.0041766586 -0.004003833 5.9185084e-05 -0.0034540915 -0.00208569 0.0026377914 0.0048016207 -0.0010727006 -0.0045007784 0.0039681997 -0.004309839 -0.0031383652 -0.0039949864 0.003583475 0.0016442738 0.0019234875 0.00072529307 -0.0009049191 0.0029827096 0.0021789586 0.00095624337 -0.0012545143 0.0005052341 0.0021845899 -0.0024049121 -0.004711668 0.0014137565 -0.0020880383 -0.0039499383 2.5608577e-05 0.0034321286 0.0024475371 -0.0015196449 -0.0033177207 0.0048016123 0.0010515735 -5.767867e-05 0.004533358 -0.0047914097 -0.001283264 -0.0038460796 0.0042042937 0.003932491 -0.0039848704 0.0047119157 0.0014584218 0.0004961444 -0.0045534736 0.0012229867
[dot] 0.00027369568 0.0016758139 0.0015182816 -0.00050027715 -0.0023438805 0.0025529442 -0.0020010096 -0.0011217587 0.00480917 -0.00083362404 0.0007434995 -0.0020640038 -0.0033045653 -0.002271914 0.004200102 0.004946422 -0.0009881947 -0.0003710622 0.003042806 0.00039170403 -0.0014706522 0.0034310091 0.0026450474 0.0031932835 -0.00326074 -0.0049539194 -0.0037167054 0.0013472731 0.0011486709 -0.002518059 0.0014629839 -0.0021141237 -0.0019997107 -0.0023745352 0.0039669406 0.0042966977 0.0032734275 -0.0021575736 -0.004943599 0.0029381048 -0.0023865544 0.004602788 0.0011103624 0.0028222566 -0.004334758 0.002326537 0.0024374272 0.0036959164 -0.004699029 -0.000800543 -0.0004957407 -0.0011884088 0.0039052498 -0.0018691593 -0.00023545139 0.0010151588 0.0018358054 -0.0015687852 -0.0009869551 -0.00079568336 0.004058537 0.0048521273 -0.0031113278 -0.003229037 -0.0010881186 0.0015250971 0.0009683566 -0.00085883355 -0.0010726457 -0.0049644154 0.0031754244 0.0028311545 0.002096627 -0.00021464331 -0.003189107 0.00013193768 0.0013029957 0.0033826875 0.0015739799 -0.001179192 -0.0044318177 0.0009440128 0.002814237 -0.0047007436 0.00031477213 0.0029024677 8.504698e-05 -0.0030948967 -0.0049582594 0.0026465864 0.002342342 0.0011286247 0.00055020815 -0.0012534803 -0.0003734934 0.0036723334 0.00043033296 -0.0010063136 0.004827963 -4.2772386e-05
[appspot] 0.0027145473 -0.00076182047 -0.001138231 -0.003890472 -0.001520688 -0.00028404407 0.002132753 0.0015705382 -0.0033864211 -0.0009052544 0.004259901 -0.0042441613 -0.002042347 0.0008667726 -0.0033012175 0.0013148449 -0.004971795 -0.0044803857 0.0039202115 0.0008349116 -0.004492244 -0.0037279176 -0.0042879353 0.0047224546 -0.00050411746 9.1468915e-05 0.0028815093 -0.0020479125 7.7364966e-05 0.0024681035 -0.0038021845 -0.002906792 0.002270171 -0.00061626267 -0.0025947855 -0.0008310848 -0.0021718894 -0.001965974 -0.00058430666 -0.0044933525 0.00073600095 -0.002940545 -0.00086946646 0.0039489884 0.0025472064 -0.0016567295 0.0049819127 -0.0011675328 0.002993119 -0.0021785134 -0.0030582028 -0.004255829 -0.00021449942 -0.00078082876 0.0019697403 -0.004306049 0.00075775245 -0.0017209649 0.00053068297 0.002015917 -0.00082812505 0.0025434536 -0.0034205527 -0.0011133135 0.0031897854 -0.0025500387 -0.0033520488 0.004051352 0.003287197 -0.0015328336 -0.002470026 0.001028996 -0.0032857626 -0.002120862 -0.0019837515 0.0038234107 -0.002910494 -0.0024745236 0.004177089 0.0034012012 0.004042764 -0.00021034759 0.00074110506 -0.002955566 -0.00078553334 0.0027786833 0.004606411 -0.0011453563 -0.0021646542 -0.0012308573 0.0002491339 0.001931868 -0.0044176006 0.0019473587 -0.004667793 0.0021927292 0.0030488158 0.004496392 0.0017072214 -0.0005940567
[weebly] 0.0025441456 0.004186227 0.0006578509 0.0022386117 -0.0036293054 0.00032086903 -0.0022545445 -0.0037584356 0.0045100832 0.002640531 0.002082646 -0.0034423517 -0.0038640052 -0.0014409262 0.003384824 -0.003237673 0.0026765335 -0.001532672 0.0010502231 -0.0023427224 0.0028912276 0.0031059785 -0.0045070956 -0.0008163606 -0.003477509 0.0009814398 -0.00394325 0.00101393 -0.0032753288 -0.0018158762 -0.0039848993 -0.001965757 0.0019086879 -0.0038002348 0.0004982352 0.002697138 0.00083602546 0.0047420533 -0.002174279 -0.00021991786 0.0047147525 0.003564014 -0.0016424346 -0.0047776317 -0.00301531 -0.002726245 -0.00030697882 0.0021825111 0.002572897 -0.0017543775 -0.0020763117 -0.0014014416 -0.00046840776 0.003754193 0.0028067026 0.0024196566 -0.0025933008 0.0030826638 -0.0026970415 0.0017941343 -0.0027429003 -0.004969622 0.0028556595 -0.0042494554 0.0012333067 -0.0036249429 0.0012905258 0.0006377469 0.0027635107 0.00440286 0.002747621 -0.000836147 0.0047921957 0.00023448467 -0.0033725072 -0.001276148 0.00055498304 0.004065741 0.0005366565 0.00492684 -0.0012259632 -0.0032908802 -0.0024646162 -0.0034363447 -0.00070193224 -0.003401714 0.004652054 0.0025801803 -0.0008720998 -0.0032872818 -0.0015446555 -0.00255813 -0.0015990399 0.0046551274 -0.0046885423 -0.0032555442 -0.0049106674 0.00073227147 0.0027291332 0.003992444
[portal] -0.00033287285 -0.004221438 -0.0019031106 0.0042264154 0.0024925321 -0.002128123 0.004606559 3.587175e-05 -0.0040998976 -0.00023142062 -0.003503336 0.0031086775 0.0036240425 0.0013036244 -0.0022786635 -0.0007851948 0.00049037347 -0.0031539667 0.0024365084 -0.003331678 -0.0037743133 0.0008268547 0.002244669 -0.0030198132 -0.002961011 0.0012148642 -0.0031180368 0.004109592 -0.0024780105 0.0021225517 -0.0017223787 0.00020159129 -0.002751574 -0.004274254 0.0044810157 0.0042499704 0.00061473297 0.0008735121 0.0019097459 -0.0020328974 0.002655943 -0.00064356346 -0.00080715306 -0.00040148012 0.0046111466 -0.0033912985 -0.0009990754 -0.0017511493 -0.0012882722 -0.0025654512 0.004591911 -0.0032383935 0.0032800958 0.004211994 0.0005950718 0.0047143297 0.0041325483 0.00088931015 0.0023290343 -0.0030302685 -0.0032548802 -0.0040499805 -0.003130775 0.0006942707 0.0008647768 0.001709227 -0.0023871183 -0.0017099453 -0.00011742581 -0.00051392755 -0.0046233265 0.004939871 -0.0029054976 -0.0009494149 0.0044387514 0.0020184796 -0.0037986855 0.0033230977 -0.004968411 0.0041085416 0.002009565 -0.0004133326 0.004299476 -0.0015256172 0.0048978645 0.0013353224 0.0016044574 0.00308696 0.003293694 0.00031534396 -0.004046458 0.0021169335 0.0011979048 -0.0022717738 0.0025750948 0.0028998004 -0.003008865 -0.0043707835 0.0043342207 -0.0014979898
[ru] -0.0014172648 -0.004333733 0.000809764 0.0022735726 0.0018916433 -0.0045130495 0.004075465 -0.0020378928 0.001059853 0.00074502174 -0.0044032875 0.0022726962 -0.0021648835 -0.003548408 0.0021604053 -0.0044790213 0.004481118 -0.0046821833 -0.0021372281 0.0012192349 0.0010652719 -0.0017655129 0.0047080778 -0.0047038337 0.003278329 0.003428041 -0.0024533516 -0.0002283887 -0.0045373146 -6.0759485e-06 -0.001304215 2.4624635e-05 0.002873852 0.0037855757 -0.0026899325 -0.0019415354 -0.0021819614 0.0012028981 0.0025612526 0.0031504203 -0.00325364 -0.001280372 0.004636989 -0.0037616347 -0.0007912237 0.0035723243 -9.398535e-05 0.004219423 0.0033296496 0.00022464851 0.0009253216 0.000911315 0.0031009289 0.0038672863 0.004351899 -0.0024454664 0.004574296 -0.0044776606 -0.0043346025 0.0001876913 -0.0041201035 -0.001354022 -0.0018042398 -0.0013021689 0.00045279087 0.0025256472 -0.0013230985 0.00041441573 -0.0013059545 0.0024240813 0.0043976577 -0.0015337765 -0.0016716891 -0.0006997329 0.0011996776 -0.0025191174 -0.0038138186 0.00421591 0.002452407 -0.0043305126 0.0041988334 0.004790265 0.0032135705 0.003922198 -0.002765662 -0.0010070489 0.0013952018 -0.0007279236 -0.0012851381 0.0014874632 0.0029366482 -0.00089871045 -0.0005571721 0.00082145166 -0.0019286906 0.0012538536 0.0008582375 0.0018930524 0.0021873694 0.0030494072
[care] -0.0024775022 -0.0011368096 0.0038068984 0.00021916255 0.0035520429 -0.0016532659 0.0020924127 -0.001322096 0.0023905868 0.0003617676 0.0009044842 0.0037075803 0.00017897319 0.0026594312 -0.0047217016 0.004157371 0.00055210805 0.0033109803 0.0042523155 0.00013974169 0.00059881806 -0.0019262086 -0.004109374 0.0004967861 -0.001784795 -0.0025624014 0.0020147343 0.0007908754 0.0025685607 0.004167932 0.0021315948 0.0002210741 -0.004801329 0.002416655 0.0025771367 0.0018594046 0.004325995 0.003488374 -0.0009919847 0.000116682146 -0.00245732 0.0008461471 -0.0013745229 0.004689972 -0.0018432145 0.00029502157 6.5146014e-05 0.0036211582 -0.0007308419 0.0042007742 0.0025407863 -0.004449553 0.003603016 -0.0018245338 0.004850791 -0.004769324 0.0046669496 0.0032520192 -0.00339414 0.0043040523 -0.0034765303 0.002369461 -0.0016326951 -0.0018744885 0.0016134749 0.0024034828 -0.00442112 -0.0030709468 -0.0038596278 -0.0033779875 0.00072462484 -0.0016320597 0.0016494663 0.00023734616 -0.003613457 0.003705454 0.0042466326 -0.001356659 0.003983356 -0.002980021 -0.0046561155 -0.001280291 0.0044091884 -0.00084275194 -0.002296183 0.003193424 -0.0021634756 -0.0017008393 -0.0015353458 -0.00074127037 -0.0023519928 -0.0049723024 -0.0027732674 -0.0013819009 -0.00399346 0.0034972848 -0.0034112316 -0.0031229984 0.00056983484 -0.004499053
[n] 0.0029750848 -0.0040715653 -0.0026907253 -0.00016639009 0.00034466386 -0.00071861455 -0.000181471 0.004622345 0.0035620825 0.0029637264 0.0038457485 0.0024274061 -0.0036016982 0.0027528955 0.001239019 -0.004381862 -0.0015502411 0.004686714 -0.0022927409 -0.004219191 0.0036901934 -0.0021019112 -0.003296441 -0.0022101693 -0.002502368 0.004086407 0.00083664525 -0.0015948243 -0.0036081534 0.00022186572 -0.0045421515 0.0019128202 0.0021515302 0.0016967002 0.00173186 -0.0031597507 0.0012579118 0.0045024026 -0.0006517619 -0.0001255828 -0.0033768504 -0.0010380745 0.0035120854 -0.0019341188 0.0010015662 -0.0036117374 -0.0019881784 0.0002055983 -0.004895242 -0.002935971 0.003198687 0.0012246966 -0.00052887015 0.00085843913 -0.0034579108 -0.0036608207 -0.0033994452 -0.0016677934 0.004655081 0.002099915 -0.004964042 -0.0027529036 0.0021912265 -0.0029438501 -0.0007632873 0.0010814709 0.00442491 0.0040080007 -0.0012365358 -0.001802187 -0.0016188156 0.0026564691 -0.0040068375 -0.0014860826 0.0035758931 0.0042406423 -0.00077948114 0.0005293898 -0.0009944802 -0.004989133 0.000501852 -0.0017515123 0.00033640815 0.001664917 -0.0018992948 0.0032932432 0.0011963574 -0.003774196 0.0018259143 -0.0016776877 0.00044514425 0.00424051 -0.0024961245 0.004243791 0.0024759239 -0.0041470937 0.0049098637 -0.00091667986 -0.00013199169 -0.0028787386
[ticket] 0.0012350176 -0.0046044053 8.9675654e-05 -0.0018714701 0.00030750036 0.0030676145 0.0013311491 0.004000718 -0.000577183 0.0007004654 -0.0023930322 -0.003646018 0.0031841397 -0.0022482174 -0.002692188 -0.0022547322 -0.0005222922 -0.0029613797 0.003329493 0.0009472193 0.0045011146 -0.0038990711 -0.0014992517 -0.0034296631 -0.0002115136 -0.004149209 -0.0018729507 0.0017858944 -0.003875141 0.004615561 -0.0022902363 -0.0027426153 0.003296988 0.0020627938 0.001392711 0.0009454875 0.0023880214 -0.0022487002 0.00022790395 0.00027613528 -0.003308636 0.0018045725 -0.0049006455 -0.0020999073 0.004584904 0.0023610191 7.849466e-05 0.004329495 0.0028799335 -0.0020129196 -0.00017554872 0.00045065815 0.00438583 -0.0009468142 -0.0047362414 -0.004278681 0.001577625 0.0039613554 0.0016458374 0.0024332632 0.00073547615 -0.0005406402 0.0028535966 -0.0038954322 -0.00087068137 -0.003303014 0.0011244253 -0.0015984452 -0.0027119273 5.7028607e-05 -0.0022713451 0.0040559014 0.0034813983 0.0034552002 -0.0024297219 0.0034726243 -0.0019408048 1.2793578e-05 0.000639413 0.0031752987 -0.0012873064 0.0022953534 0.0032759914 -0.0046608457 0.0036147442 0.004504538 -0.0049292613 0.003972505 -0.0017404763 -0.0019965821 -0.0029686461 -0.0006276248 -0.0024943948 0.00081310794 -0.002535802 -7.0089474e-05 -0.0006575389 -0.0024884236 0.0027642003 -0.002653733
[fashion] 0.003859059 -0.0045130043 -0.003323698 -0.0046303114 -0.0018631606 -0.0049970406 -0.0013112801 0.0014769495 -0.0031489176 0.004251512 -0.0030186803 -0.002868712 0.002842119 0.0009202631 0.001422287 0.001943191 0.0039901957 0.0030745184 -0.0036958973 0.0002418845 0.0034945551 -0.0012457822 -0.0032553528 -0.0012669545 0.0016155066 -0.00321281 -0.0002453085 0.0034702076 -0.0047784913 0.0046444396 0.0044554844 0.004839805 0.0018447367 0.0022685165 -0.0024001007 0.003153855 0.004623861 0.0023255353 0.0013411138 -0.002623939 -0.00056669535 -0.0013721532 0.00027280021 -0.0037874565 0.003106065 -0.0031062406 -0.002948855 -0.00016835472 -0.0028420328 0.0039969636 -0.00048484607 0.0008275951 -0.0023697936 0.004428397 -0.000911796 0.0024399185 -0.0005596359 0.0021671527 -0.004821914 -0.0046541756 0.0023593605 -0.0022922647 0.0012594895 -0.0018466585 0.0020554485 -0.00087569933 -0.00022906205 -0.0037921546 0.0001234021 -0.0010762485 0.0031421185 0.0030394215 -0.00027369848 -0.00034577027 -0.0030520586 0.0037747202 -0.003939351 0.0029628733 -0.0009519779 -0.0022679232 0.0018758397 0.002453709 0.0037099821 -0.00072564883 -0.0037395637 -0.0040023965 -0.0049356623 -0.0047749802 0.0029735388 -0.003664496 0.0017943941 -0.0008217902 -0.0022515983 -0.001840645 -0.0020388907 0.001569367 0.0016918438 -0.003902587 -0.0001360299 -0.0010847538
[street] 0.002011069 -0.00020075962 0.00058045844 0.0020556496 0.0018682647 -0.0013241111 0.002177333 -0.00078044645 0.0033604512 -0.003119961 0.004522076 0.0029652072 -0.004392573 -0.004221648 -0.0049463967 0.0009545819 -0.0047738473 -0.001048997 -0.0003000968 -0.0042657075 0.002177273 0.0017619045 -0.00145725 0.0038163317 -0.0025064677 0.004229348 0.0013801004 0.002584681 0.0018503056 0.0007080487 -0.0022854637 0.0009718728 0.0006882441 -0.0039437506 -0.0038774884 0.0012999987 0.0018899492 -0.00090379035 -0.0046942644 -0.003411789 0.004851533 0.003062116 -0.0031311088 -0.0027442414 -0.00061899703 -0.004788463 -0.000249858 -0.0020273088 -0.0028135425 0.0015293695 0.00059214653 -0.00055498676 0.00024525216 -0.00028624432 0.0010781367 -0.0013826406 -0.0031701606 -0.0030011833 -0.0029933888 0.00019071298 -0.0047006467 -0.0042837635 -0.0017510885 0.0040743025 -0.0031926576 0.001382587 0.0016462207 0.004044654 -0.00042897463 0.0037245993 -0.0025580705 -0.00088124117 -0.0031827735 0.003165136 0.0023910473 -0.0011023711 -0.0027483583 0.0039442386 -0.003419574 -0.003623684 -0.00017673615 -0.0004348252 0.00097222906 -0.00040455628 0.0012085857 0.0009804117 0.004935067 -0.0036033576 0.001845262 -0.00024795718 0.002342389 0.0021377606 0.0017162985 -0.0024242795 -0.00012622215 0.00027095387 0.0030672383 -0.0029911958 -0.0010950898 -0.0017005694
